FANN_FLO_2.1
num_layers=3
learning_rate=0.700000
connection_rate=1.000000
network_type=0
learning_momentum=0.000000
training_algorithm=2
train_error_function=1
train_stop_function=0
cascade_output_change_fraction=0.010000
quickprop_decay=-0.000100
quickprop_mu=1.750000
rprop_increase_factor=1.200000
rprop_decrease_factor=0.500000
rprop_delta_min=0.000000
rprop_delta_max=50.000000
rprop_delta_zero=0.100000
cascade_output_stagnation_epochs=12
cascade_candidate_change_fraction=0.010000
cascade_candidate_stagnation_epochs=12
cascade_max_out_epochs=150
cascade_min_out_epochs=50
cascade_max_cand_epochs=150
cascade_min_cand_epochs=50
cascade_num_candidate_groups=2
bit_fail_limit=3.49999994039535522461e-01
cascade_candidate_limit=1.00000000000000000000e+03
cascade_weight_multiplier=4.00000005960464477539e-01
cascade_activation_functions_count=10
cascade_activation_functions=3 5 7 8 10 11 14 15 16 17 
cascade_activation_steepnesses_count=4
cascade_activation_steepnesses=2.50000000000000000000e-01 5.00000000000000000000e-01 7.50000000000000000000e-01 1.00000000000000000000e+00 
layer_sizes=121 33 4 
scale_included=0
neurons (num_inputs, activation_function, activation_steepness)=(0, 0, 0.00000000000000000000e+00) (0, 0, 0.00000000000000000000e+00) (0, 0, 0.00000000000000000000e+00) (0, 0, 0.00000000000000000000e+00) (0, 0, 0.00000000000000000000e+00) (0, 0, 0.00000000000000000000e+00) (0, 0, 0.00000000000000000000e+00) (0, 0, 0.00000000000000000000e+00) (0, 0, 0.00000000000000000000e+00) (0, 0, 0.00000000000000000000e+00) (0, 0, 0.00000000000000000000e+00) (0, 0, 0.00000000000000000000e+00) (0, 0, 0.00000000000000000000e+00) (0, 0, 0.00000000000000000000e+00) (0, 0, 0.00000000000000000000e+00) (0, 0, 0.00000000000000000000e+00) (0, 0, 0.00000000000000000000e+00) (0, 0, 0.00000000000000000000e+00) (0, 0, 0.00000000000000000000e+00) (0, 0, 0.00000000000000000000e+00) (0, 0, 0.00000000000000000000e+00) (0, 0, 0.00000000000000000000e+00) (0, 0, 0.00000000000000000000e+00) (0, 0, 0.00000000000000000000e+00) (0, 0, 0.00000000000000000000e+00) (0, 0, 0.00000000000000000000e+00) (0, 0, 0.00000000000000000000e+00) (0, 0, 0.00000000000000000000e+00) (0, 0, 0.00000000000000000000e+00) (0, 0, 0.00000000000000000000e+00) (0, 0, 0.00000000000000000000e+00) (0, 0, 0.00000000000000000000e+00) (0, 0, 0.00000000000000000000e+00) (0, 0, 0.00000000000000000000e+00) (0, 0, 0.00000000000000000000e+00) (0, 0, 0.00000000000000000000e+00) (0, 0, 0.00000000000000000000e+00) (0, 0, 0.00000000000000000000e+00) (0, 0, 0.00000000000000000000e+00) (0, 0, 0.00000000000000000000e+00) (0, 0, 0.00000000000000000000e+00) (0, 0, 0.00000000000000000000e+00) (0, 0, 0.00000000000000000000e+00) (0, 0, 0.00000000000000000000e+00) (0, 0, 0.00000000000000000000e+00) (0, 0, 0.00000000000000000000e+00) (0, 0, 0.00000000000000000000e+00) (0, 0, 0.00000000000000000000e+00) (0, 0, 0.00000000000000000000e+00) (0, 0, 0.00000000000000000000e+00) (0, 0, 0.00000000000000000000e+00) (0, 0, 0.00000000000000000000e+00) (0, 0, 0.00000000000000000000e+00) (0, 0, 0.00000000000000000000e+00) (0, 0, 0.00000000000000000000e+00) (0, 0, 0.00000000000000000000e+00) (0, 0, 0.00000000000000000000e+00) (0, 0, 0.00000000000000000000e+00) (0, 0, 0.00000000000000000000e+00) (0, 0, 0.00000000000000000000e+00) (0, 0, 0.00000000000000000000e+00) (0, 0, 0.00000000000000000000e+00) (0, 0, 0.00000000000000000000e+00) (0, 0, 0.00000000000000000000e+00) (0, 0, 0.00000000000000000000e+00) (0, 0, 0.00000000000000000000e+00) (0, 0, 0.00000000000000000000e+00) (0, 0, 0.00000000000000000000e+00) (0, 0, 0.00000000000000000000e+00) (0, 0, 0.00000000000000000000e+00) (0, 0, 0.00000000000000000000e+00) (0, 0, 0.00000000000000000000e+00) (0, 0, 0.00000000000000000000e+00) (0, 0, 0.00000000000000000000e+00) (0, 0, 0.00000000000000000000e+00) (0, 0, 0.00000000000000000000e+00) (0, 0, 0.00000000000000000000e+00) (0, 0, 0.00000000000000000000e+00) (0, 0, 0.00000000000000000000e+00) (0, 0, 0.00000000000000000000e+00) (0, 0, 0.00000000000000000000e+00) (0, 0, 0.00000000000000000000e+00) (0, 0, 0.00000000000000000000e+00) (0, 0, 0.00000000000000000000e+00) (0, 0, 0.00000000000000000000e+00) (0, 0, 0.00000000000000000000e+00) (0, 0, 0.00000000000000000000e+00) (0, 0, 0.00000000000000000000e+00) (0, 0, 0.00000000000000000000e+00) (0, 0, 0.00000000000000000000e+00) (0, 0, 0.00000000000000000000e+00) (0, 0, 0.00000000000000000000e+00) (0, 0, 0.00000000000000000000e+00) (0, 0, 0.00000000000000000000e+00) (0, 0, 0.00000000000000000000e+00) (0, 0, 0.00000000000000000000e+00) (0, 0, 0.00000000000000000000e+00) (0, 0, 0.00000000000000000000e+00) (0, 0, 0.00000000000000000000e+00) (0, 0, 0.00000000000000000000e+00) (0, 0, 0.00000000000000000000e+00) (0, 0, 0.00000000000000000000e+00) (0, 0, 0.00000000000000000000e+00) (0, 0, 0.00000000000000000000e+00) (0, 0, 0.00000000000000000000e+00) (0, 0, 0.00000000000000000000e+00) (0, 0, 0.00000000000000000000e+00) (0, 0, 0.00000000000000000000e+00) (0, 0, 0.00000000000000000000e+00) (0, 0, 0.00000000000000000000e+00) (0, 0, 0.00000000000000000000e+00) (0, 0, 0.00000000000000000000e+00) (0, 0, 0.00000000000000000000e+00) (0, 0, 0.00000000000000000000e+00) (0, 0, 0.00000000000000000000e+00) (0, 0, 0.00000000000000000000e+00) (0, 0, 0.00000000000000000000e+00) (0, 0, 0.00000000000000000000e+00) (0, 0, 0.00000000000000000000e+00) (0, 0, 0.00000000000000000000e+00) (0, 0, 0.00000000000000000000e+00) (121, 5, 5.00000000000000000000e-01) (121, 5, 5.00000000000000000000e-01) (121, 5, 5.00000000000000000000e-01) (121, 5, 5.00000000000000000000e-01) (121, 5, 5.00000000000000000000e-01) (121, 5, 5.00000000000000000000e-01) (121, 5, 5.00000000000000000000e-01) (121, 5, 5.00000000000000000000e-01) (121, 5, 5.00000000000000000000e-01) (121, 5, 5.00000000000000000000e-01) (121, 5, 5.00000000000000000000e-01) (121, 5, 5.00000000000000000000e-01) (121, 5, 5.00000000000000000000e-01) (121, 5, 5.00000000000000000000e-01) (121, 5, 5.00000000000000000000e-01) (121, 5, 5.00000000000000000000e-01) (121, 5, 5.00000000000000000000e-01) (121, 5, 5.00000000000000000000e-01) (121, 5, 5.00000000000000000000e-01) (121, 5, 5.00000000000000000000e-01) (121, 5, 5.00000000000000000000e-01) (121, 5, 5.00000000000000000000e-01) (121, 5, 5.00000000000000000000e-01) (121, 5, 5.00000000000000000000e-01) (121, 5, 5.00000000000000000000e-01) (121, 5, 5.00000000000000000000e-01) (121, 5, 5.00000000000000000000e-01) (121, 5, 5.00000000000000000000e-01) (121, 5, 5.00000000000000000000e-01) (121, 5, 5.00000000000000000000e-01) (121, 5, 5.00000000000000000000e-01) (121, 5, 5.00000000000000000000e-01) (0, 5, 0.00000000000000000000e+00) (33, 3, 5.00000000000000000000e-01) (33, 3, 5.00000000000000000000e-01) (33, 3, 5.00000000000000000000e-01) (0, 3, 0.00000000000000000000e+00) 
connections (connected_to_neuron, weight)=(0, 3.08974772691726684570e-01) (1, 5.73243737220764160156e-01) (2, -1.32938611507415771484e+00) (3, -5.05087280273437500000e+00) (4, 6.94655478000640869141e-01) (5, 2.67199707031250000000e+00) (6, 4.79230374097824096680e-01) (7, -5.82777038216590881348e-02) (8, 4.83855068683624267578e-01) (9, 4.71376925706863403320e-01) (10, 5.64464330673217773438e-01) (11, 7.54900693893432617188e-01) (12, 5.27802765369415283203e-01) (13, 5.25296568870544433594e-01) (14, 3.34738779067993164062e+00) (15, 6.58725440502166748047e-01) (16, 6.48063063621520996094e-01) (17, 6.48257791996002197266e-01) (18, 3.95441681146621704102e-01) (19, 5.85360407829284667969e-01) (20, 9.94472652673721313477e-02) (21, 1.97318565845489501953e+00) (22, 4.85574305057525634766e-01) (23, 8.77480983734130859375e-01) (24, 4.60486769676208496094e-01) (25, 5.59214115142822265625e-01) (26, 3.27458411455154418945e-01) (27, -3.37000817060470581055e-01) (28, 1.10272598266601562500e+00) (29, 1.00343853235244750977e-01) (30, 6.49751186370849609375e-01) (31, 4.36081218719482421875e+00) (32, 5.55910587310791015625e-01) (33, 3.64788949489593505859e-01) (34, 6.87352955341339111328e-01) (35, 5.07419705390930175781e-01) (36, 6.54061853885650634766e-01) (37, 6.72330856323242187500e-01) (38, 4.45815712213516235352e-01) (39, 3.77563705444335937500e+01) (40, 1.00425362586975097656e+00) (41, 4.07899081707000732422e-01) (42, 5.17875075340270996094e-01) (43, 4.70049947500228881836e-01) (44, 2.64375239610671997070e-01) (45, 5.09766340255737304688e-01) (46, -8.86061310768127441406e-01) (47, 4.41203057765960693359e-01) (48, 4.76303935050964355469e-01) (49, 5.86652159690856933594e-01) (50, 6.24409556388854980469e-01) (51, -4.79668998718261718750e+00) (52, 2.90926694869995117188e-01) (53, 1.15185081958770751953e+00) (54, -7.46670198440551757812e+00) (55, -1.99554622173309326172e+00) (56, -4.87806081771850585938e+00) (57, -4.97014522552490234375e-02) (58, 1.41286909580230712891e-01) (59, 2.56952857971191406250e+00) (60, 2.97743141651153564453e-01) (61, 1.38464426994323730469e+00) (62, 3.49818050861358642578e-01) (63, 3.78351420164108276367e-01) (64, 5.51680326461791992188e-01) (65, 4.41651195287704467773e-01) (66, 1.16072809696197509766e+00) (67, -4.57797795534133911133e-02) (68, 3.82653921842575073242e-01) (69, 1.08370673656463623047e+00) (70, 4.97029304504394531250e-01) (71, 4.49507832527160644531e-01) (72, -4.70206886529922485352e-01) (73, 5.51505684852600097656e-01) (74, 6.33307993412017822266e-01) (75, -2.18781566619873046875e+00) (76, 4.88461256027221679688e-01) (77, 1.36941409111022949219e+00) (78, -8.77654314041137695312e-01) (79, 3.90179276466369628906e-01) (80, 5.87169945240020751953e-01) (81, 1.10034358501434326172e+00) (82, -3.41533750295639038086e-01) (83, 6.38871848583221435547e-01) (84, 6.34867489337921142578e-01) (85, 1.86755526065826416016e+00) (86, 8.99783730506896972656e-01) (87, 1.70985579490661621094e+00) (88, 5.16932249069213867188e-01) (89, 1.34632039070129394531e+00) (90, 6.24982118606567382812e-01) (91, 1.16024279594421386719e+00) (92, 7.98170626163482666016e-01) (93, -2.77095842361450195312e+00) (94, 9.11277115345001220703e-01) (95, 1.29022860527038574219e+00) (96, 6.23479783535003662109e-01) (97, 6.30127370357513427734e-01) (98, 6.02377653121948242188e-01) (99, 6.63671553134918212891e-01) (100, 5.35028934478759765625e-01) (101, 6.36008858680725097656e-01) (102, 9.70520257949829101562e-01) (103, 6.75531804561614990234e-01) (104, 5.31986188888549804688e+00) (105, 5.66235303878784179688e-01) (106, 6.04197442531585693359e-01) (107, 7.71471381187438964844e-01) (108, 2.21382451057434082031e+00) (109, -2.41800293326377868652e-01) (110, 5.55480301380157470703e-01) (111, 1.15521872043609619141e+00) (112, 7.54699707031250000000e-01) (113, 4.76813077926635742188e-01) (114, 4.76651281118392944336e-01) (115, -7.06554889678955078125e+00) (116, -8.49179458618164062500e+00) (117, 6.25545144081115722656e-01) (118, 4.76913362741470336914e-01) (119, 1.25119411945343017578e+00) (120, 5.31455338001251220703e-01) (0, 2.84600036621093750000e+02) (1, 7.06522464752197265625e-01) (2, -3.78457916259765625000e+02) (3, -4.05376037597656250000e+02) (4, 6.65232324600219726562e+00) (5, -1.22891833496093750000e+03) (6, 5.75965148925781250000e+02) (7, 1.82411178946495056152e-01) (8, 6.47026733398437500000e+02) (9, 1.27365076541900634766e+00) (10, 6.89261352539062500000e+02) (11, -4.44536010742187500000e+02) (12, 1.23857390880584716797e+00) (13, -9.57999084472656250000e+02) (14, -1.02641853332519531250e+02) (15, 2.69146366119384765625e+01) (16, 6.29156649112701416016e-01) (17, 9.01437683105468750000e+02) (18, 3.17567539215087890625e+00) (19, -1.19568885803222656250e+02) (20, 3.49679857492446899414e-01) (21, 5.54349487304687500000e+02) (22, -1.73777526855468750000e+02) (23, 6.55610084533691406250e-01) (24, 1.33969104003906250000e+03) (25, -6.21891784667968750000e+02) (26, 8.94541320800781250000e+01) (27, -7.24333599209785461426e-02) (28, 1.46519995117187500000e+03) (29, 8.27604532241821289062e-01) (30, 6.35659027099609375000e+00) (31, 4.90264534950256347656e-01) (32, 4.38420715332031250000e+02) (33, 6.75469589233398437500e+01) (34, 5.31213641166687011719e-01) (35, 2.27165412902832031250e+00) (36, 1.39573315429687500000e+03) (37, 2.26913660764694213867e-01) (38, 2.44721679687500000000e+02) (39, 1.59886884689331054688e+00) (40, 1.50000000000000000000e+03) (41, -3.71258497238159179688e-01) (42, -1.35013847351074218750e+01) (43, -1.38556331396102905273e-01) (44, 3.95471160888671875000e+02) (45, 8.88001441955566406250e-01) (46, -5.77686279296875000000e+02) (47, -1.04988120496273040771e-01) (48, -3.60373210906982421875e+00) (49, 6.94145560264587402344e-01) (50, 4.49028198242187500000e+02) (51, -2.87386474609375000000e+01) (52, 9.27856079101562500000e+02) (53, 1.39590747070312500000e+03) (54, 1.48919995117187500000e+03) (55, -9.37463195800781250000e+02) (56, 8.61560058593750000000e+02) (57, 1.56917581558227539062e+01) (58, 6.46650671958923339844e-01) (59, 3.09944648742675781250e+01) (60, 1.43800268554687500000e+03) (61, 5.27055480957031250000e+02) (62, 6.83903320312500000000e+02) (63, 6.90050959587097167969e-01) (64, 4.76541381835937500000e+02) (65, 2.73375320434570312500e+00) (66, -2.13771891593933105469e+00) (67, 1.13603710937500000000e+03) (68, 1.50000000000000000000e+03) (69, -2.59199951171875000000e+02) (70, 1.46894152832031250000e+03) (71, -2.52525782585144042969e+00) (72, -5.05461914062500000000e+02) (73, 7.08912014961242675781e-01) (74, 4.72773864746093750000e+02) (75, 1.58576797485351562500e+02) (76, 1.49172070312500000000e+03) (77, -6.59584856033325195312e+00) (78, 7.39426553249359130859e-01) (79, -7.98137817382812500000e+02) (80, -2.98759098052978515625e+01) (81, 4.29372406005859375000e+01) (82, 6.12013366699218750000e+02) (83, -1.24114453792572021484e+00) (84, 3.30372959375381469727e-01) (85, 1.33038537597656250000e+03) (86, 2.96044206619262695312e+00) (87, 4.04686698913574218750e+01) (88, -4.45957275390625000000e+02) (89, 1.38257827758789062500e+01) (90, -5.52928924560546875000e+00) (91, -4.04235029220581054688e+00) (92, 5.67800048828125000000e+02) (93, 4.69244211912155151367e-01) (94, 1.50000000000000000000e+03) (95, 6.82605862617492675781e-01) (96, 1.50000000000000000000e+03) (97, 1.05258691310882568359e+00) (98, -1.06260347366333007812e+01) (99, 5.79714298248291015625e-01) (100, -1.86306762695312500000e+01) (101, 1.47369592285156250000e+03) (102, 1.50000000000000000000e+03) (103, 2.29963130950927734375e+01) (104, 3.60994812011718750000e+02) (105, -1.23610877990722656250e+01) (106, 4.66059692382812500000e+02) (107, -7.28028821945190429688e+00) (108, 1.41947998046875000000e+03) (109, 4.05320078134536743164e-02) (110, 4.98200103759765625000e+02) (111, -6.10036700963973999023e-02) (112, 4.36688110351562500000e+02) (113, 1.08466735839843750000e+03) (114, 1.38457763671875000000e+03) (115, -5.98388244628906250000e+02) (116, 6.05092883110046386719e-01) (117, 1.87216186523437500000e+02) (118, -2.32174539566040039062e+00) (119, -6.05281829833984375000e+00) (120, 1.25680847167968750000e+03) (0, -9.90565195679664611816e-02) (1, 5.69340705871582031250e-01) (2, -3.01629471778869628906e+00) (3, -3.08834505081176757812e+00) (4, 5.24421811103820800781e-01) (5, 7.92866647243499755859e-01) (6, 3.73932689428329467773e-01) (7, 1.17232036590576171875e+00) (8, 5.39124071598052978516e-01) (9, 1.16891555488109588623e-01) (10, 5.11064767837524414062e-01) (11, -1.12575101852416992188e+00) (12, 7.93193042278289794922e-01) (13, 5.52326440811157226562e-01) (14, -5.06773471832275390625e-01) (15, 5.45200049877166748047e-01) (16, 1.26153603196144104004e-03) (17, 4.89965558052062988281e-01) (18, -5.30987858772277832031e-01) (19, 5.94184935092926025391e-01) (20, 4.96405631303787231445e-01) (21, 6.04353368282318115234e-01) (22, 5.40762841701507568359e-01) (23, 1.67912328243255615234e+00) (24, 5.21857798099517822266e-01) (25, 1.08637590408325195312e+01) (26, -1.08084249496459960938e+00) (27, 3.36319416761398315430e-01) (28, 4.11881625652313232422e-01) (29, -7.60736131668090820312e+00) (30, 5.69740653038024902344e-01) (31, 1.06152984619140625000e+02) (32, 5.86133420467376708984e-01) (33, -3.22348070144653320312e+00) (34, 9.77843403816223144531e-01) (35, 1.96653530001640319824e-01) (36, 6.32146418094635009766e-01) (37, 4.89483654499053955078e-01) (38, -2.06212115287780761719e+00) (39, 1.66600341796875000000e+01) (40, 6.70207500457763671875e-01) (41, 3.26438874006271362305e-01) (42, 4.72703546285629272461e-01) (43, 4.22097653150558471680e-01) (44, 5.34652113914489746094e-01) (45, 5.11969447135925292969e-01) (46, -5.94690918922424316406e-01) (47, 5.60951769351959228516e-01) (48, 5.98830580711364746094e-01) (49, -2.43713760375976562500e+00) (50, 6.75008058547973632812e-01) (51, 3.87202322483062744141e-01) (52, -4.35498332977294921875e+00) (53, 1.93625450134277343750e-01) (54, -8.51263713836669921875e+00) (55, -1.79823648929595947266e+00) (56, -1.23886432647705078125e+01) (57, -1.66236445307731628418e-01) (58, 1.21439777314662933350e-01) (59, 2.97340846061706542969e+00) (60, 1.42832130193710327148e-01) (61, 1.39658915996551513672e+00) (62, 2.52364754676818847656e-01) (63, 7.59224414825439453125e-01) (64, 5.02186775207519531250e-01) (65, 4.33611392974853515625e-01) (66, 1.05708396434783935547e+00) (67, 2.79379636049270629883e-01) (68, 1.31117761135101318359e+00) (69, -6.48825883865356445312e+00) (70, 5.10304570198059082031e-01) (71, 4.00968253612518310547e-01) (72, -1.25122432708740234375e+01) (73, 6.81603574752807617188e+00) (74, 5.77814519405364990234e-01) (75, -9.90907669067382812500e-01) (76, 5.38398027420043945312e-01) (77, 6.77602291107177734375e-01) (78, -2.21433043479919433594e+00) (79, -1.34403800964355468750e+00) (80, 4.58981931209564208984e-01) (81, 1.20863068103790283203e+00) (82, 1.16379320621490478516e+00) (83, 1.45756110548973083496e-01) (84, 5.27735233306884765625e-01) (85, 1.28007316589355468750e+00) (86, -9.55509364604949951172e-01) (87, 4.44224071502685546875e+00) (88, 6.03128135204315185547e-01) (89, 1.24015343189239501953e+00) (90, 5.85313796997070312500e-01) (91, -4.28018033504486083984e-01) (92, 5.83814203739166259766e-01) (93, -3.39436888694763183594e+00) (94, 6.21497035026550292969e-01) (95, 1.67918071746826171875e+01) (96, 8.32934379577636718750e-01) (97, 4.78270083665847778320e-01) (98, 1.51073622703552246094e+00) (99, 4.77456003427505493164e-01) (100, 3.11813235282897949219e-01) (101, 6.81119263172149658203e-01) (102, 4.20735001564025878906e-01) (103, 4.57335859537124633789e-01) (104, 2.03835353851318359375e+01) (105, 1.60407602787017822266e-01) (106, 5.19412279129028320312e-01) (107, -5.85705518722534179688e-01) (108, 8.19882678985595703125e+00) (109, 6.95325136184692382812e-01) (110, 2.38672837615013122559e-01) (111, 1.12489354610443115234e+00) (112, 5.38842558860778808594e-01) (113, -2.01722002029418945312e+00) (114, 6.12117052078247070312e-01) (115, 3.89320075511932373047e-01) (116, -1.39474713802337646484e+00) (117, 1.49189052581787109375e+01) (118, -4.51922230422496795654e-02) (119, 1.45316541194915771484e-01) (120, 6.68315768241882324219e-01) (0, -7.13641762733459472656e-01) (1, -2.86902219057083129883e-01) (2, 2.27689433097839355469e+00) (3, -7.81712830066680908203e-02) (4, -1.90130695700645446777e-01) (5, -8.22844505310058593750e-02) (6, -2.47007593512535095215e-01) (7, 1.30447804927825927734e+00) (8, -3.52779179811477661133e-01) (9, -4.51367311179637908936e-02) (10, -6.15800048828125000000e+02) (11, 2.15032267570495605469e+00) (12, -1.43987700343132019043e-01) (13, 1.29677101969718933105e-01) (14, -1.76643833518028259277e-01) (15, -1.53422802686691284180e-01) (16, 3.53577345609664916992e-01) (17, -9.67401862144470214844e-01) (18, -1.56592577695846557617e-01) (19, -1.43172159790992736816e-01) (20, -2.43391580879688262939e-02) (21, -2.42166548967361450195e-01) (22, -1.89392611384391784668e-01) (23, -1.67765900492668151855e-01) (24, -1.32783389091491699219e+00) (25, -6.36514320373535156250e+01) (26, -1.83633208274841308594e-01) (27, 3.19560647010803222656e+00) (28, -2.35103219747543334961e-01) (29, -1.21084280312061309814e-01) (30, -2.73266702890396118164e-01) (31, -2.91437327861785888672e-01) (32, -5.48050343990325927734e-01) (33, -8.51900056004524230957e-02) (34, -1.29350259900093078613e-01) (35, -1.68338283896446228027e-01) (36, -1.19003364562988281250e+02) (37, -2.59751856327056884766e-01) (38, 1.62025785446166992188e+00) (39, -2.93738889694213867188e+00) (40, -2.97923833131790161133e-01) (41, -1.22746333479881286621e-01) (42, -2.03629881143569946289e-01) (43, -2.28937074542045593262e-01) (44, -8.82524438202381134033e-03) (45, -1.77144572138786315918e-01) (46, -6.23830892145633697510e-02) (47, -2.29021273553371429443e-02) (48, -1.89988076686859130859e-01) (49, -1.80432170629501342773e-01) (50, -2.29837924242019653320e-01) (51, 1.38278925418853759766e+00) (52, -1.95437893271446228027e-01) (53, 7.84225821495056152344e-01) (54, -1.36447998046875000000e+03) (55, 2.46426963806152343750e+01) (56, 7.27013549804687500000e+01) (57, -1.74201965332031250000e-01) (58, 3.53433430194854736328e-01) (59, 7.69740966796875000000e+02) (60, -8.68735373020172119141e-01) (61, -1.34054815769195556641e+00) (62, -1.54296588897705078125e+01) (63, -2.32255384325981140137e-01) (64, -6.49642109870910644531e-01) (65, -1.89155384898185729980e-01) (66, -2.93304860591888427734e-01) (67, 7.61023312807083129883e-02) (68, -4.26470160484313964844e-01) (69, 2.80441951751708984375e+01) (70, -6.19773983955383300781e-01) (71, -2.25195229053497314453e-01) (72, -1.83055356144905090332e-01) (73, -2.83679366111755371094e-01) (74, -1.30770254135131835938e+00) (75, -7.16381692886352539062e+00) (76, -6.58200454711914062500e+01) (77, -6.19286410510540008545e-02) (78, -1.25342935323715209961e-01) (79, -4.05649095773696899414e-01) (80, 2.72365999221801757812e+00) (81, -2.75476902723312377930e-01) (82, 1.77129983901977539062e+00) (83, -2.01211526989936828613e-01) (84, -1.29556089639663696289e-01) (85, -3.93662303686141967773e-01) (86, 5.47142934799194335938e+00) (87, -3.50841850042343139648e-01) (88, -2.05357268452644348145e-01) (89, -4.17464494705200195312e+00) (90, 2.76587814092636108398e-01) (91, 1.10309016704559326172e+00) (92, 1.39982233047485351562e+01) (93, 1.39469826221466064453e+00) (94, -1.44663525390625000000e+03) (95, -2.11627125740051269531e-01) (96, -1.02178680419921875000e+02) (97, 2.25051175802946090698e-02) (98, -1.41270831227302551270e-01) (99, -1.54782518744468688965e-01) (100, -1.05592392385005950928e-01) (101, -2.94119805097579956055e-01) (102, -1.00802838802337646484e+00) (103, -2.76992201805114746094e-01) (104, -1.80627465248107910156e-01) (105, -1.94879859685897827148e-01) (106, -3.38694751262664794922e-01) (107, 2.21233516931533813477e-01) (108, -1.36447998046875000000e+03) (109, -1.90435886383056640625e-01) (110, 1.02043113708496093750e+01) (111, -1.65884867310523986816e-01) (112, -3.01763504743576049805e-01) (113, 6.32625808715820312500e+01) (114, -3.54586154222488403320e-01) (115, 2.71965527534484863281e+00) (116, 3.14817637205123901367e-01) (117, -4.20397818088531494141e-01) (118, -2.16455176472663879395e-01) (119, 4.78254295885562896729e-02) (120, -4.83745068311691284180e-01) (0, -7.57069826126098632812e-01) (1, 9.94049310684204101562e-01) (2, -3.04266095161437988281e-01) (3, -6.59915506839752197266e-02) (4, 3.46498608589172363281e-01) (5, 3.94075304269790649414e-01) (6, -1.75693593919277191162e-02) (7, 3.69414091110229492188e-01) (8, -4.68116879463195800781e-01) (9, 2.39259544759988784790e-02) (10, 3.26884468086063861847e-03) (11, -5.89997284114360809326e-02) (12, 6.46925196051597595215e-02) (13, 2.25523591041564941406e-01) (14, -2.46334716677665710449e-01) (15, -3.49304527044296264648e-01) (16, -8.45922976732254028320e-02) (17, 2.38725915551185607910e-01) (18, 7.42788016796112060547e-02) (19, -4.27840322256088256836e-01) (20, 4.21347051858901977539e-01) (21, 6.06648772954940795898e-02) (22, 6.15461096167564392090e-02) (23, -1.31928995251655578613e-01) (24, 1.43496006727218627930e-01) (25, 3.35795164108276367188e-01) (26, -1.62004995346069335938e+00) (27, 9.85592305660247802734e-02) (28, -3.36012504994869232178e-02) (29, -1.03622615337371826172e-01) (30, 7.14924573898315429688e-01) (31, 7.24581360816955566406e-01) (32, -1.27825796604156494141e-01) (33, -1.72310337424278259277e-01) (34, 1.69101580977439880371e-02) (35, 2.72055476903915405273e-01) (36, 1.37128671631217002869e-02) (37, 3.60430106520652770996e-02) (38, 5.45305192470550537109e-01) (39, 7.46276404242962598801e-04) (40, 6.86356425285339355469e-02) (41, -7.87652805447578430176e-02) (42, -1.29102921485900878906e+00) (43, 6.53687119483947753906e-02) (44, 1.35615598410367965698e-02) (45, -4.17889535427093505859e-01) (46, 3.45076248049736022949e-02) (47, 1.26273357868194580078e+00) (48, 7.26786558516323566437e-04) (49, -3.65192770957946777344e-01) (50, -1.79657340049743652344e+00) (51, -8.74386057257652282715e-02) (52, 6.85275316238403320312e-01) (53, -8.04842561483383178711e-02) (54, 7.97275081276893615723e-02) (55, -5.36652386188507080078e-01) (56, 1.18591845035552978516e+00) (57, -2.00986519455909729004e-01) (58, -2.13902726769447326660e-01) (59, 1.55509912967681884766e+00) (60, -1.26618966460227966309e-01) (61, -2.25455455780029296875e+01) (62, -1.22841097414493560791e-01) (63, -2.37176090478897094727e-01) (64, 1.59119474887847900391e+00) (65, -2.65934079885482788086e-01) (66, -4.69230085611343383789e-01) (67, -5.75247287750244140625e-01) (68, -1.37618891894817352295e-02) (69, 1.57424879074096679688e+00) (70, -3.76398175954818725586e-01) (71, -2.47291371226310729980e-01) (72, 6.17900714278221130371e-02) (73, 6.92568004131317138672e-01) (74, -1.65673956274986267090e-01) (75, -7.38055825233459472656e-01) (76, -1.09758388996124267578e+00) (77, -9.85503941774368286133e-03) (78, 4.25073504447937011719e-02) (79, -1.24110765755176544189e-01) (80, -7.11621582508087158203e-01) (81, 1.49466127157211303711e-01) (82, 3.32702063024044036865e-02) (83, -4.96337622404098510742e-01) (84, -9.01693701744079589844e-02) (85, 9.59929972887039184570e-02) (86, -1.66462659835815429688e-01) (87, -1.38114899396896362305e-01) (88, -2.24798033013939857483e-03) (89, -1.25329208094626665115e-03) (90, -1.62115264683961868286e-02) (91, -1.09688676893711090088e-01) (92, 2.17317596077919006348e-01) (93, 3.42806167900562286377e-02) (94, -2.24966660141944885254e-01) (95, -3.49386781454086303711e-02) (96, 9.59898009896278381348e-02) (97, -1.66433855891227722168e-01) (98, -3.70621234178543090820e-01) (99, 9.37071740627288818359e-02) (100, 9.03146192431449890137e-02) (101, -8.71239155530929565430e-02) (102, -6.04208819568157196045e-02) (103, 7.65392184257507324219e-02) (104, -5.16055673360824584961e-02) (105, 1.00332550704479217529e-01) (106, 1.28090649843215942383e-01) (107, -4.40113514661788940430e-01) (108, 5.99330328404903411865e-02) (109, -2.70337134599685668945e-01) (110, -7.27260559797286987305e-02) (111, -1.22279040515422821045e-01) (112, 5.35955011844635009766e-01) (113, -6.69960319995880126953e-01) (114, 1.76349043846130371094e-01) (115, -5.79903945326805114746e-02) (116, 3.93134862184524536133e-01) (117, 7.20864683389663696289e-02) (118, -2.04835429787635803223e-01) (119, -1.55333541333675384521e-02) (120, 6.00292980670928955078e-02) (0, 3.04656531661748886108e-02) (1, -2.10844248533248901367e-01) (2, -2.39876195788383483887e-01) (3, -2.91273385286331176758e-01) (4, -6.59163668751716613770e-02) (5, -8.71820822358131408691e-02) (6, 2.19831749796867370605e-01) (7, -2.15242668986320495605e-01) (8, 3.52346688508987426758e-01) (9, 4.06252831220626831055e-01) (10, -5.08920252323150634766e-01) (11, -1.30843952298164367676e-01) (12, 2.00145781040191650391e-01) (13, 1.01302546681836247444e-04) (14, 4.76507037878036499023e-01) (15, -3.30082088708877563477e-01) (16, 3.83600622415542602539e-01) (17, -3.81724774837493896484e-01) (18, 4.95075047016143798828e-01) (19, -1.66373237967491149902e-01) (20, -3.15473265945911407471e-02) (21, -3.93900513648986816406e-01) (22, 2.67851710319519042969e-01) (23, -3.90205949544906616211e-01) (24, 7.38065361976623535156e-01) (25, -4.41821664571762084961e-01) (26, 3.00578610040247440338e-03) (27, -6.76002025604248046875e-01) (28, -4.24095205962657928467e-02) (29, -1.65160134434700012207e-01) (30, -8.33855569362640380859e-02) (31, -2.16633170843124389648e-01) (32, -9.60937980562448501587e-03) (33, -2.87039220333099365234e-01) (34, -1.32997202873229980469e+00) (35, -8.02627652883529663086e-02) (36, -1.90481498837471008301e-01) (37, -4.98825788497924804688e-01) (38, -1.53729217126965522766e-02) (39, -1.55120849609375000000e-01) (40, 3.99942457675933837891e-01) (41, -3.98665331304073333740e-02) (42, -2.18410998582839965820e-01) (43, 9.83322560787200927734e-02) (44, 4.44775581359863281250e-01) (45, 3.19299876689910888672e-01) (46, -6.56063795089721679688e-01) (47, -2.22362339496612548828e-01) (48, -7.75723159313201904297e-01) (49, 2.17077207565307617188e+00) (50, 9.74066182971000671387e-02) (51, 3.03684592247009277344e-01) (52, 4.12910610437393188477e-01) (53, -9.01198163628578186035e-02) (54, -8.42916965484619140625e-01) (55, 1.94108396768569946289e-01) (56, -9.08408045768737792969e-01) (57, 1.25643241405487060547e+00) (58, 1.03549265861511230469e+00) (59, -3.24906563758850097656e+00) (60, 5.93713819980621337891e-01) (61, -1.51849496364593505859e+00) (62, 1.17401111125946044922e+00) (63, 6.55674040317535400391e-01) (64, -6.92141354084014892578e-02) (65, 2.52444028854370117188e-01) (66, -2.58149266242980957031e+00) (67, 2.86489129066467285156e-01) (68, 5.40475964546203613281e-01) (69, -1.00122439861297607422e+00) (70, 2.17716121673583984375e+00) (71, 2.67113059759140014648e-01) (72, -2.17566210776567459106e-02) (73, 3.45485001802444458008e-01) (74, -1.59600898623466491699e-01) (75, -1.85257852077484130859e-01) (76, -1.12873926758766174316e-01) (77, -5.39709568023681640625e-01) (78, 4.95599120855331420898e-01) (79, -3.04769307374954223633e-01) (80, 3.14954400062561035156e-01) (81, -6.43721878528594970703e-01) (82, 4.13098394870758056641e-01) (83, -1.38457834720611572266e-01) (84, 2.19777211546897888184e-01) (85, -2.56163235753774642944e-02) (86, 4.26028668880462646484e-02) (87, -8.69806855916976928711e-02) (88, 1.00280024111270904541e-01) (89, -3.60195636749267578125e-01) (90, 2.89314955472946166992e-01) (91, -2.67147213220596313477e-01) (92, -3.58800023794174194336e-01) (93, 1.10513925552368164062e+00) (94, 3.24581205844879150391e-01) (95, -1.86174586415290832520e-01) (96, -2.02270448207855224609e-01) (97, 2.72302981466054916382e-02) (98, 8.56937706470489501953e-01) (99, 7.41568207740783691406e-02) (100, 3.23079824447631835938e-01) (101, -6.68154835700988769531e-01) (102, 3.04652839899063110352e-01) (103, -9.03416991233825683594e-01) (104, 5.63944697380065917969e-01) (105, -1.84018641710281372070e-01) (106, 2.41832554340362548828e-01) (107, -5.85547555238008499146e-03) (108, 1.94050580263137817383e-01) (109, -2.43957355618476867676e-01) (110, 2.29824677109718322754e-01) (111, 3.85813415050506591797e-01) (112, 4.40322160720825195312e-01) (113, -7.09169447422027587891e-01) (114, 2.67727822065353393555e-01) (115, 3.11995223164558410645e-02) (116, 6.84250816702842712402e-02) (117, -8.51813197135925292969e-01) (118, 1.94063708186149597168e-01) (119, 5.26892185211181640625e-01) (120, 6.17713555693626403809e-02) (0, 1.24115146696567535400e-01) (1, 3.45345288515090942383e-02) (2, -4.33816574513912200928e-03) (3, 3.33275049924850463867e-02) (4, -2.80276894569396972656e-01) (5, 3.79777438938617706299e-02) (6, -3.15860249102115631104e-02) (7, -1.68990716338157653809e-01) (8, -2.41768062114715576172e-01) (9, -1.22526260092854499817e-02) (10, -1.15142852067947387695e-01) (11, -5.21464757621288299561e-02) (12, -1.25062167644500732422e-02) (13, 1.40432968735694885254e-01) (14, 6.04453720152378082275e-02) (15, -1.53921380639076232910e-01) (16, 3.42481732368469238281e-02) (17, -6.94069936871528625488e-02) (18, 2.43650805205106735229e-02) (19, -9.63571444153785705566e-02) (20, -8.04856345057487487793e-02) (21, 2.13759109377861022949e-01) (22, -2.78916265815496444702e-02) (23, -1.95891112089157104492e-01) (24, -5.90335369110107421875e-01) (25, -1.89760811626911163330e-02) (26, 1.26475896686315536499e-02) (27, 5.84031129255890846252e-03) (28, -6.69084256514906883240e-03) (29, 2.87921968847513198853e-02) (30, -1.64929423481225967407e-02) (31, 4.80162501335144042969e-02) (32, -9.09134298563003540039e-02) (33, -5.92122413218021392822e-02) (34, -2.02683135867118835449e-01) (35, -1.84526711702346801758e-01) (36, -2.07981958985328674316e-01) (37, 3.88336740434169769287e-02) (38, -1.41804814338684082031e-01) (39, 2.61570997536182403564e-02) (40, 1.22520275413990020752e-01) (41, 3.55296917259693145752e-02) (42, -2.00023263692855834961e-01) (43, -9.13971662521362304688e-02) (44, -2.41017267107963562012e-01) (45, -7.34073147177696228027e-02) (46, -1.65819495916366577148e-01) (47, -7.73931369185447692871e-02) (48, -2.93052285909652709961e-01) (49, 5.77211938798427581787e-02) (50, -6.45295158028602600098e-02) (51, 9.20418277382850646973e-02) (52, -1.44044175744056701660e-01) (53, 1.97151705622673034668e-01) (54, -1.08971484005451202393e-02) (55, -1.10048078000545501709e-01) (56, -4.34521406888961791992e-01) (57, 6.23336613178253173828e-01) (58, 5.87070167064666748047e-01) (59, -1.90948545932769775391e+00) (60, 4.63441044092178344727e-01) (61, -1.88027822971343994141e+00) (62, 7.22784161567687988281e-01) (63, 5.88199734687805175781e-01) (64, -5.02318918704986572266e-01) (65, 2.27879397571086883545e-02) (66, -2.79101103544235229492e-01) (67, 5.36934137344360351562e-01) (68, 4.39800471067428588867e-01) (69, -6.45868062973022460938e-01) (70, 4.68758819624781608582e-03) (71, 2.45514214038848876953e-01) (72, -6.27071037888526916504e-02) (73, 1.16078011691570281982e-01) (74, -1.15522570908069610596e-01) (75, 6.33069202303886413574e-02) (76, 2.95823458582162857056e-02) (77, -1.01103276014328002930e-01) (78, 8.88778641819953918457e-03) (79, -1.60710662603378295898e-01) (80, 2.79021933674812316895e-02) (81, -1.40318915247917175293e-01) (82, -2.18366086483001708984e-01) (83, -9.34513136744499206543e-02) (84, -1.02212779223918914795e-01) (85, 8.99656191468238830566e-02) (86, -2.77436450123786926270e-02) (87, -1.10318884253501892090e-01) (88, 2.81546227633953094482e-02) (89, 8.58311653137207031250e-02) (90, -1.95526257157325744629e-01) (91, 4.57240082323551177979e-03) (92, 1.27810195088386535645e-01) (93, -5.63292056322097778320e-02) (94, -1.18412159383296966553e-01) (95, -1.13307632505893707275e-01) (96, -3.75742912292480468750e-01) (97, -5.70032820105552673340e-02) (98, 9.72036123275756835938e-02) (99, -1.29447253420948982239e-02) (100, -1.92393779754638671875e-01) (101, 2.61232763528823852539e-01) (102, -2.73024737834930419922e-01) (103, 6.41272515058517456055e-02) (104, -2.12692469358444213867e-01) (105, -1.41554966568946838379e-01) (106, 3.88323627412319183350e-02) (107, -4.01808507740497589111e-02) (108, -2.10247915238142013550e-02) (109, 7.35457539558410644531e-02) (110, -3.27435940504074096680e-01) (111, -1.53975859284400939941e-01) (112, -1.13878987729549407959e-01) (113, -2.81756408512592315674e-02) (114, -8.93605351448059082031e-02) (115, -9.14519187062978744507e-03) (116, 6.18335008621215820312e-02) (117, -8.08351784944534301758e-02) (118, -2.05985829234123229980e-01) (119, -8.50419029593467712402e-02) (120, -3.38831216096878051758e-01) (0, -2.18574417114257812500e+02) (1, -2.13030380249023437500e+02) (2, -2.87741149902343750000e+02) (3, -4.33414611816406250000e+02) (4, 1.21695768833160400391e+00) (5, 1.35048010253906250000e+03) (6, -1.95572834014892578125e+01) (7, 4.55289764404296875000e+02) (8, -1.06289062500000000000e+02) (9, 2.26349502563476562500e+02) (10, -8.31600097656250000000e+02) (11, -5.56668701171875000000e+01) (12, -5.63049745559692382812e+00) (13, 3.78990149497985839844e+00) (14, 3.51724609375000000000e+02) (15, -7.04049825668334960938e-01) (16, 1.81027359008789062500e+02) (17, -2.29986882209777832031e+00) (18, 3.59140110015869140625e+00) (19, -1.13788488769531250000e+03) (20, 9.97022216796875000000e+02) (21, 5.55097412109375000000e+02) (22, -3.48505944013595581055e-01) (23, -9.55229163169860839844e-01) (24, -9.44042419433593750000e+02) (25, 2.00536254882812500000e+02) (26, 3.37227966308593750000e+02) (27, 8.72302150726318359375e+00) (28, -1.74777984619140625000e+02) (29, 8.95131111145019531250e+00) (30, -2.45416909456253051758e-01) (31, 3.57228100299835205078e-01) (32, -5.21077251434326171875e+00) (33, 8.61001777648925781250e+00) (34, 6.02223072201013565063e-03) (35, 2.74941406250000000000e+01) (36, -1.36090478515625000000e+03) (37, 1.57938790321350097656e+00) (38, -2.17861389160156250000e+02) (39, -4.08736572265625000000e+01) (40, -1.15820751953125000000e+03) (41, 6.32742980957031250000e+02) (42, -9.86188530921936035156e-01) (43, -1.42088577151298522949e-01) (44, -4.14450866699218750000e+02) (45, -9.62206661701202392578e-01) (46, 4.10073547363281250000e+01) (47, 8.79204101562500000000e+02) (48, -1.84344679117202758789e-01) (49, -3.05168509483337402344e+00) (50, -1.78405853271484375000e+02) (51, 4.31999588012695312500e+01) (52, -1.11937817382812500000e+03) (53, -1.87689163208007812500e+02) (54, -1.46040002441406250000e+03) (55, 1.44324011230468750000e+03) (56, -1.13542407226562500000e+03) (57, -5.29341176152229309082e-02) (58, 6.89963698387145996094e-01) (59, 1.62551765441894531250e+01) (60, -2.09661376953125000000e+02) (61, 7.00285583496093750000e+02) (62, 9.33714449405670166016e-01) (63, -5.54788160324096679688e+00) (64, -3.18061401367187500000e+02) (65, -7.04159606933593750000e+02) (66, 8.70246887207031250000e+01) (67, 1.00749597167968750000e+03) (68, -1.38687586784362792969e+00) (69, 4.33999633789062500000e+01) (70, -4.75759582519531250000e+02) (71, 7.29195404052734375000e+01) (72, 8.91205139160156250000e+02) (73, 7.89567565917968750000e+02) (74, -5.14697692871093750000e+02) (75, -2.67236757278442382812e+00) (76, 2.78564971923828125000e+02) (77, -2.28570997714996337891e-01) (78, -5.22707891464233398438e+00) (79, -8.88183975219726562500e+00) (80, -3.52913208007812500000e+02) (81, -3.70828366279602050781e+00) (82, -6.54244628906250000000e+02) (83, -1.16241589355468750000e+03) (84, 1.94089569091796875000e+02) (85, -1.15176684570312500000e+03) (86, 6.83999633789062500000e+01) (87, -7.31592712402343750000e+01) (88, 1.35180664062500000000e+02) (89, -2.15434627532958984375e+01) (90, 5.57855041503906250000e+02) (91, 1.20400638580322265625e+01) (92, -8.45400085449218750000e+02) (93, 2.29896831512451171875e+01) (94, -1.22119836425781250000e+03) (95, 5.64419031143188476562e-01) (96, -2.72389984130859375000e+00) (97, -1.98791748046875000000e+02) (98, 1.02098345947265625000e+03) (99, 4.81817817687988281250e+00) (100, -4.81516571044921875000e+01) (101, -3.47367858886718750000e+02) (102, -1.24528369140625000000e+03) (103, -8.16752929687500000000e+02) (104, 6.20493164062500000000e+02) (105, 4.53521331787109375000e+02) (106, -3.81600097656250000000e+02) (107, 1.35419250488281250000e+02) (108, -1.31136169433593750000e+03) (109, -3.23966932296752929688e+00) (110, -4.28216094970703125000e+02) (111, -3.60505247116088867188e+00) (112, -1.84022617340087890625e+01) (113, -8.73800048828125000000e+02) (114, -1.35575146484375000000e+03) (115, 1.33260326385498046875e+01) (116, -3.10887485742568969727e-01) (117, -8.70340148925781250000e+02) (118, -7.69673889160156250000e+02) (119, 1.27399963378906250000e+02) (120, -5.17895162105560302734e-01) (0, -1.85642823576927185059e-01) (1, 4.00205291807651519775e-02) (2, 1.42202720046043395996e-01) (3, -1.15960165858268737793e-01) (4, 3.51305723190307617188e-01) (5, 1.96282938122749328613e-01) (6, 7.95327126979827880859e-02) (7, 6.91096544265747070312e-01) (8, 4.67071861028671264648e-01) (9, -5.35972826182842254639e-02) (10, 1.10653132200241088867e-01) (11, -3.44656035304069519043e-02) (12, 2.60315865278244018555e-01) (13, -3.34244340658187866211e-01) (14, -1.01333424448966979980e-01) (15, 2.92916953563690185547e-01) (16, 5.43738082051277160645e-02) (17, 2.91939407587051391602e-01) (18, 2.07748070359230041504e-01) (19, 3.75066429376602172852e-01) (20, 1.82859107851982116699e-01) (21, -1.23270377516746520996e-01) (22, 1.89586147665977478027e-01) (23, 3.33324819803237915039e-01) (24, 1.90427467226982116699e-01) (25, 5.07754087448120117188e-01) (26, 3.12350481748580932617e-01) (27, -3.21830473840236663818e-02) (28, -8.26772302389144897461e-02) (29, 1.21171377599239349365e-01) (30, 1.04568101465702056885e-01) (31, -2.28193357586860656738e-01) (32, 1.74616217613220214844e-01) (33, 3.90296995639801025391e-01) (34, 2.39262267947196960449e-01) (35, 4.27665293216705322266e-01) (36, 3.24589878320693969727e-01) (37, -3.56365472078323364258e-01) (38, 1.65115118026733398438e-01) (39, 6.09549731016159057617e-02) (40, -8.91936942934989929199e-02) (41, 2.32690423727035522461e-01) (42, 4.07928526401519775391e-01) (43, 3.46493750810623168945e-01) (44, 1.18055440485477447510e-01) (45, -1.55001834034919738770e-01) (46, -2.58123427629470825195e-02) (47, 1.64164409041404724121e-01) (48, 4.58748698234558105469e-01) (49, -1.29531724378466606140e-02) (50, 4.93359327316284179688e-01) (51, 1.98500946164131164551e-01) (52, 1.60383805632591247559e-01) (53, -1.49094551801681518555e-01) (54, 3.17548215389251708984e-01) (55, -9.47845205664634704590e-02) (56, 1.68806612491607666016e-02) (57, 1.63472130894660949707e-01) (58, 1.39521703124046325684e-01) (59, 5.07324934005737304688e-01) (60, -1.13693010807037353516e+00) (61, 7.57222318649291992188e+00) (62, -2.14492130279541015625e+00) (63, -2.33818316459655761719e+00) (64, 7.18645632266998291016e-01) (65, -3.80988419055938720703e-01) (66, 1.11962902545928955078e+00) (67, -3.03700745105743408203e-01) (68, -8.88502418994903564453e-01) (69, 1.44237804412841796875e+00) (70, -5.67027460783720016479e-03) (71, -6.85058385133743286133e-02) (72, -2.55660563707351684570e-02) (73, 3.98360844701528549194e-03) (74, 1.18972495198249816895e-01) (75, 1.21888533234596252441e-01) (76, 1.35030046105384826660e-01) (77, 8.83123427629470825195e-02) (78, 1.09494641423225402832e-01) (79, 5.05584403872489929199e-02) (80, -2.12607681751251220703e-02) (81, -2.95340083539485931396e-02) (82, 2.02225759625434875488e-01) (83, -1.48849502205848693848e-01) (84, -3.17262858152389526367e-01) (85, 3.96576106548309326172e-01) (86, 2.58785998448729515076e-03) (87, -6.53821080923080444336e-02) (88, 1.57521545886993408203e-01) (89, -2.27788127958774566650e-02) (90, 3.72676216065883636475e-02) (91, 3.95562648773193359375e-02) (92, 6.27724155783653259277e-02) (93, -6.50545656681060791016e-02) (94, 1.13611631095409393311e-01) (95, 1.68467059731483459473e-01) (96, 2.41594344377517700195e-01) (97, -2.17698574066162109375e-01) (98, -1.88424251973628997803e-02) (99, 1.45368933677673339844e-01) (100, 1.42981752753257751465e-01) (101, 1.87493185512721538544e-03) (102, 1.27860337495803833008e-01) (103, -1.76387965679168701172e-01) (104, 2.80789192765951156616e-02) (105, 4.65221107006072998047e-01) (106, 1.79552704095840454102e-01) (107, -1.65848344564437866211e-01) (108, 3.45144182443618774414e-01) (109, 2.21850469708442687988e-01) (110, 1.45239651203155517578e-01) (111, -7.45872408151626586914e-02) (112, 1.27623081207275390625e-01) (113, 3.04725281894207000732e-02) (114, -1.69877931475639343262e-01) (115, -5.27269281446933746338e-02) (116, -7.19139948487281799316e-02) (117, -2.43498310446739196777e-01) (118, -1.12618871033191680908e-01) (119, -1.46954119205474853516e-01) (120, 4.18676853179931640625e-01) (0, 1.59943059086799621582e-01) (1, 1.12514950335025787354e-01) (2, -2.88677811622619628906e-01) (3, -2.34182044863700866699e-01) (4, 6.02367743849754333496e-02) (5, 9.97656285762786865234e-01) (6, -4.24747243523597717285e-02) (7, 1.51354568079113960266e-02) (8, 3.17574977874755859375e-01) (9, 2.56692320108413696289e-01) (10, 2.55200654268264770508e-01) (11, 1.03997528553009033203e-01) (12, 5.51996268332004547119e-02) (13, -1.41814127564430236816e-02) (14, 2.09509700536727905273e-01) (15, -4.92569021880626678467e-02) (16, 2.93062210083007812500e-01) (17, -9.99461114406585693359e-03) (18, 2.70947307348251342773e-01) (19, 1.20413728058338165283e-01) (20, 1.97208687663078308105e-01) (21, -2.65979226678609848022e-02) (22, 3.06684244424104690552e-02) (23, 1.48690342903137207031e+00) (24, 1.99597865343093872070e-01) (25, -1.18092268705368041992e-01) (26, 1.65332287549972534180e-01) (27, -4.23277989029884338379e-02) (28, 3.57335843145847320557e-02) (29, 3.28954756259918212891e-02) (30, 7.81845301389694213867e-03) (31, 1.40398994088172912598e-01) (32, 3.26121225953102111816e-02) (33, 3.84401410818099975586e-01) (34, 2.52081781625747680664e-01) (35, 4.13438051939010620117e-01) (36, -4.04852956533432006836e-01) (37, 1.91591456532478332520e-01) (38, 1.22184246778488159180e-01) (39, 1.42456302419304847717e-02) (40, -5.03544270992279052734e-01) (41, 2.65277057886123657227e-01) (42, -6.70932412147521972656e-01) (43, 1.88375294208526611328e-01) (44, 1.69451951980590820312e-01) (45, 1.19191333651542663574e-01) (46, 3.00616323947906494141e-01) (47, 2.05355024337768554688e+00) (48, 3.34220361709594726562e+00) (49, -4.12256574630737304688e+00) (50, -8.20247083902359008789e-02) (51, -9.15877759456634521484e-01) (52, 5.34404581412672996521e-03) (53, 1.28573894500732421875e-01) (54, -6.83092772960662841797e-01) (55, 3.07809948921203613281e-01) (56, -1.96651208400726318359e+00) (57, -2.60633677244186401367e-01) (58, -3.07759523391723632812e-01) (59, -1.90854740142822265625e+00) (60, -2.72134363651275634766e-01) (61, -2.14925274252891540527e-01) (62, -2.55552291870117187500e-01) (63, -5.74046552181243896484e-01) (64, 2.66905784606933593750e-01) (65, 7.35073983669281005859e-02) (66, 9.61454093456268310547e-01) (67, -1.57638743519783020020e-01) (68, 1.73512965440750122070e-01) (69, -5.85670948028564453125e-01) (70, 1.42483383417129516602e-01) (71, 1.00539970397949218750e+00) (72, 4.26704704761505126953e-01) (73, -1.92647457122802734375e-01) (74, -6.61682188510894775391e-01) (75, -1.04129955172538757324e-01) (76, -2.23788082599639892578e-01) (77, 4.67023581266403198242e-01) (78, 1.66966065764427185059e-01) (79, 8.89664649963378906250e-01) (80, -7.62972012162208557129e-02) (81, -3.58512072125449776649e-04) (82, 1.27547338604927062988e-01) (83, 1.97135075926780700684e-01) (84, -1.64242647588253021240e-02) (85, -1.83991566300392150879e-02) (86, 6.29387572407722473145e-02) (87, -1.42332747578620910645e-01) (88, 9.34032574295997619629e-02) (89, 2.03261718153953552246e-01) (90, 1.67717888951301574707e-01) (91, -3.27491581439971923828e-01) (92, -1.56268328428268432617e-01) (93, 1.87930017709732055664e-01) (94, -9.16288271546363830566e-02) (95, -2.44767203927040100098e-01) (96, 2.95801665633916854858e-02) (97, 7.88722634315490722656e-02) (98, -1.07771672308444976807e-01) (99, -7.82525360584259033203e-01) (100, 3.08096468448638916016e-01) (101, 2.61404570192098617554e-02) (102, 2.60065346956253051758e-01) (103, 3.41628909111022949219e-01) (104, 7.66137540340423583984e-02) (105, -2.81241834163665771484e-01) (106, -6.83661997318267822266e-01) (107, 6.71133041381835937500e-01) (108, 2.65679746866226196289e-01) (109, 4.75203208625316619873e-02) (110, 1.09715469181537628174e-01) (111, 2.17612199485301971436e-02) (112, 2.28261828422546386719e-01) (113, 1.89957141876220703125e-01) (114, 1.50940060615539550781e-01) (115, 1.32721215486526489258e-01) (116, 1.56945571303367614746e-01) (117, -2.68211551010608673096e-02) (118, -2.00604461133480072021e-02) (119, 1.23906083405017852783e-01) (120, -6.19853846728801727295e-02) (0, -2.98494607210159301758e-01) (1, 2.21559241414070129395e-01) (2, 5.10236859321594238281e-01) (3, -1.40462545678019523621e-02) (4, -5.32598122954368591309e-02) (5, -6.00572302937507629395e-02) (6, 4.20429818332195281982e-02) (7, 4.16842363774776458740e-02) (8, -5.90585656464099884033e-02) (9, -1.31231099367141723633e-01) (10, -4.99901734292507171631e-03) (11, 1.49281159043312072754e-01) (12, 1.05292476713657379150e-01) (13, -2.03426763415336608887e-01) (14, -4.75027173757553100586e-01) (15, -3.53937536478042602539e-01) (16, 3.66374477744102478027e-02) (17, -1.15438163280487060547e-01) (18, -1.22769042849540710449e-01) (19, -1.20604686439037322998e-01) (20, -5.26604317128658294678e-02) (21, -3.07990163564682006836e-02) (22, -2.25408464670181274414e-01) (23, 1.91476643085479736328e-02) (24, -1.81417986750602722168e-01) (25, 4.19284045696258544922e-01) (26, 1.00501403212547302246e-01) (27, -1.87200248241424560547e-01) (28, -3.03647369146347045898e-01) (29, 4.97541218996047973633e-01) (30, -1.51785969734191894531e-01) (31, -9.79003906250000000000e-02) (32, -1.19123928248882293701e-01) (33, -1.24842740595340728760e-01) (34, 1.13451424986124038696e-02) (35, 9.25253689289093017578e-01) (36, -2.38066971302032470703e-01) (37, 2.60901689529418945312e-01) (38, 7.23452866077423095703e-01) (39, -1.53688997030258178711e-01) (40, -2.17342246323823928833e-02) (41, 2.48706191778182983398e-01) (42, -4.58093941211700439453e-01) (43, 5.46831369400024414062e-01) (44, -9.06654894351959228516e-02) (45, -1.63601607084274291992e-01) (46, 2.88743022829294204712e-02) (47, 1.25381752848625183105e-01) (48, -4.11910384893417358398e-01) (49, 3.33649456501007080078e-01) (50, -4.72823768854141235352e-01) (51, -2.70461719483137130737e-02) (52, -1.58289377577602863312e-03) (53, -8.48929733037948608398e-02) (54, -7.99407124519348144531e-01) (55, 5.35288274288177490234e-01) (56, 6.06232285499572753906e-01) (57, 9.62678372859954833984e-01) (58, 1.43246138095855712891e+00) (59, 1.88958883285522460938e+00) (60, 4.95337903499603271484e-01) (61, -1.17211550474166870117e-01) (62, 7.19673693180084228516e-01) (63, 2.43116393685340881348e-01) (64, -3.40765565633773803711e-01) (65, 8.40996056795120239258e-02) (66, 1.30541875958442687988e-01) (67, 5.13196706771850585938e-01) (68, 5.94499707221984863281e-01) (69, 6.21843934059143066406e-01) (70, 1.46846249699592590332e-01) (71, -1.16247154772281646729e-01) (72, -3.04137051105499267578e-01) (73, 4.21130582690238952637e-02) (74, -1.78162902593612670898e-01) (75, -4.15618270635604858398e-02) (76, 1.64475858211517333984e-01) (77, 6.85521289706230163574e-02) (78, -5.96758835017681121826e-02) (79, 3.06023359298706054688e-01) (80, -1.63580909371376037598e-01) (81, -4.39592301845550537109e-01) (82, -4.38656024634838104248e-02) (83, 7.19882994890213012695e-02) (84, -2.00091004371643066406e-02) (85, -2.16989636421203613281e-01) (86, -6.81522965431213378906e-01) (87, -1.16607084870338439941e-01) (88, 3.20400856435298919678e-03) (89, 2.69626658409833908081e-02) (90, -9.22692716121673583984e-02) (91, 5.38739025592803955078e-01) (92, -1.29478171467781066895e-01) (93, -7.39827826619148254395e-02) (94, -5.86069449782371520996e-02) (95, -1.12056888639926910400e-01) (96, -1.38728708028793334961e-01) (97, 2.16492608189582824707e-01) (98, 5.55232446640729904175e-03) (99, -6.45088329911231994629e-02) (100, -1.17781981825828552246e-01) (101, -9.28046330809593200684e-02) (102, -2.14216932654380798340e-01) (103, -2.43740305304527282715e-01) (104, 8.59155654907226562500e-02) (105, 2.51637607812881469727e-01) (106, -9.21085029840469360352e-02) (107, -4.38536964356899261475e-02) (108, -4.56281423568725585938e-01) (109, -2.44804814457893371582e-01) (110, 9.46868881583213806152e-02) (111, -4.48711104691028594971e-02) (112, -1.71539276838302612305e-01) (113, -2.68218182027339935303e-02) (114, -1.34755939245223999023e-01) (115, 2.27160751819610595703e-02) (116, -1.54127953574061393738e-02) (117, -1.78144097328186035156e-01) (118, -4.31381016969680786133e-02) (119, 7.50796496868133544922e-02) (120, -1.59269317984580993652e-01) (0, 2.55173772573471069336e-01) (1, -5.96812143921852111816e-02) (2, -2.08731919527053833008e-01) (3, 5.40867894887924194336e-02) (4, 1.03317491710186004639e-01) (5, 2.99149900674819946289e-02) (6, 1.38268038630485534668e-01) (7, -5.25823459029197692871e-02) (8, -5.08927069604396820068e-02) (9, -3.99506017565727233887e-02) (10, 1.54449939727783203125e-01) (11, 4.28576245903968811035e-02) (12, -1.76376160234212875366e-02) (13, -2.19522863626480102539e-02) (14, -3.27099442481994628906e-01) (15, -9.89783927798271179199e-02) (16, 3.88594642281532287598e-02) (17, 1.06720097362995147705e-01) (18, 9.41009894013404846191e-02) (19, -2.89193481206893920898e-01) (20, -1.18447549175471067429e-03) (21, -4.83176618814468383789e-01) (22, -6.11565075814723968506e-02) (23, -8.66165682673454284668e-02) (24, -8.69051814079284667969e-02) (25, 2.12073281407356262207e-01) (26, 5.43615128844976425171e-03) (27, -8.91057923436164855957e-02) (28, -1.44449815154075622559e-01) (29, -6.57510459423065185547e-02) (30, 2.93502777814865112305e-01) (31, 6.35564625263214111328e-02) (32, 1.27747729420661926270e-01) (33, -1.22446976602077484131e-01) (34, -8.38965401053428649902e-02) (35, -8.14278051257133483887e-02) (36, -2.94936504215002059937e-02) (37, 9.29540619254112243652e-02) (38, 8.93430262804031372070e-02) (39, 6.26211389899253845215e-02) (40, 2.59927630424499511719e-01) (41, -4.82885241508483886719e-02) (42, -2.40665171295404434204e-02) (43, 1.26351326704025268555e-01) (44, -3.47195044159889221191e-02) (45, 2.42222666740417480469e-01) (46, 2.27444335818290710449e-01) (47, 1.32783437147736549377e-02) (48, 4.54471856355667114258e-02) (49, 2.59446740150451660156e-01) (50, 3.08482674881815910339e-03) (51, 3.46499681472778320312e-02) (52, -2.67206221818923950195e-01) (53, -1.56312823295593261719e-01) (54, -5.94090366363525390625e+00) (55, -4.96813488006591796875e+00) (56, -2.88298702239990234375e+00) (57, 5.59122025966644287109e-01) (58, 8.46798062324523925781e-01) (59, -1.86392974853515625000e+01) (60, -2.26208060979843139648e-01) (61, 1.25718510150909423828e+00) (62, -3.94290238618850708008e-01) (63, -3.72082293033599853516e-01) (64, -4.72346134483814239502e-02) (65, -3.84530425071716308594e-01) (66, 1.36920109391212463379e-01) (67, -6.95155262947082519531e-01) (68, -3.43871861696243286133e-01) (69, 5.15778958797454833984e-01) (70, 9.37907472252845764160e-02) (71, -2.17088416218757629395e-01) (72, 1.22913815081119537354e-01) (73, -1.10494382679462432861e-02) (74, -1.43411778844892978668e-03) (75, -2.16264352202415466309e-01) (76, 6.59772977232933044434e-02) (77, 4.87190112471580505371e-02) (78, -1.36042520403861999512e-01) (79, 2.79652798781171441078e-04) (80, 1.19347050786018371582e-01) (81, -1.12033680081367492676e-01) (82, 1.93414161913096904755e-03) (83, 3.28936651349067687988e-02) (84, -9.11994278430938720703e-02) (85, 6.30527362227439880371e-02) (86, 1.21565058827400207520e-01) (87, -3.48902456462383270264e-02) (88, -1.52985438704490661621e-01) (89, -1.00242353975772857666e-01) (90, 1.15582123398780822754e-01) (91, -2.87065535783767700195e-01) (92, 1.56900957226753234863e-01) (93, -8.31525102257728576660e-02) (94, -5.16822449862957000732e-02) (95, 8.19457173347473144531e-02) (96, -1.22184060513973236084e-01) (97, -2.10338234901428222656e-02) (98, 2.27582737803459167480e-01) (99, -1.38689875602722167969e-01) (100, -6.53807912021875381470e-03) (101, -3.94966788589954376221e-02) (102, 1.18219859898090362549e-01) (103, 6.06719255447387695312e-02) (104, -3.00836041569709777832e-02) (105, -6.38760849833488464355e-02) (106, -2.28600539267063140869e-02) (107, -1.68007034808397293091e-02) (108, -2.10907459259033203125e-02) (109, 5.16025535762310028076e-02) (110, 2.52498298883438110352e-01) (111, -2.47438717633485794067e-02) (112, 3.92043367028236389160e-02) (113, 3.86440963484346866608e-03) (114, 1.47602513432502746582e-01) (115, 2.56932191550731658936e-02) (116, -6.07257522642612457275e-03) (117, -2.47937273234128952026e-02) (118, 4.05013887211680412292e-03) (119, 3.01757231354713439941e-02) (120, -4.76012080907821655273e-02) (0, 1.15269422531127929688e-01) (1, -3.19587051868438720703e-01) (2, -3.26671637594699859619e-02) (3, -8.56773108243942260742e-02) (4, 8.00143647938966751099e-03) (5, -1.39595791697502136230e-01) (6, -9.55470800399780273438e-02) (7, -1.10368803143501281738e-01) (8, -1.54943734407424926758e-01) (9, -3.12954187393188476562e-01) (10, 4.40059989690780639648e-01) (11, -8.82967114448547363281e-02) (12, -1.72442540526390075684e-01) (13, -1.84759467840194702148e-01) (14, 4.87388908863067626953e-01) (15, 1.15354603622108697891e-03) (16, 3.63859057426452636719e-01) (17, -5.84333352744579315186e-02) (18, -8.02874118089675903320e-02) (19, -1.09113812446594238281e-01) (20, -6.98115974664688110352e-02) (21, -6.43712103366851806641e-01) (22, -5.27955107390880584717e-02) (23, 2.79731929302215576172e-01) (24, -3.77661287784576416016e-02) (25, -2.16421142220497131348e-01) (26, -2.62134760618209838867e-01) (27, -6.91141858696937561035e-02) (28, -1.09010495245456695557e-01) (29, -4.54712301492691040039e-01) (30, -3.21317821741104125977e-01) (31, -1.36636734008789062500e-01) (32, 7.69087066873908042908e-03) (33, -2.55083981901407241821e-02) (34, -1.60721808671951293945e-01) (35, 4.25157248973846435547e-02) (36, -1.02022044360637664795e-01) (37, -8.10914337635040283203e-02) (38, -1.08445547521114349365e-01) (39, -9.99861732125282287598e-02) (40, -6.40079081058502197266e-02) (41, -2.19896331429481506348e-01) (42, 6.68520480394363403320e-03) (43, -8.18681940436363220215e-02) (44, -8.69605094194412231445e-02) (45, -2.64651387929916381836e-01) (46, 1.85951530933380126953e-01) (47, -1.25319510698318481445e-01) (48, -9.26065891981124877930e-02) (49, -1.02658130228519439697e-01) (50, 1.30180716514587402344e-01) (51, -1.12011738121509552002e-01) (52, 8.19020152091979980469e-01) (53, -2.78565555810928344727e-01) (54, 6.95764571428298950195e-02) (55, 3.82924079895019531250e-01) (56, 3.28297495841979980469e+00) (57, -3.21206748485565185547e-01) (58, -6.42233669757843017578e-01) (59, 8.78654575347900390625e+00) (60, 5.26551246643066406250e-01) (61, 6.56260475516319274902e-02) (62, 5.13680398464202880859e-01) (63, 6.27569854259490966797e-01) (64, 8.27465653419494628906e-02) (65, -6.13097809255123138428e-02) (66, -1.97780668735504150391e-01) (67, 4.60071295499801635742e-01) (68, 5.87818384170532226562e-01) (69, -3.99901479482650756836e-01) (70, 3.27336996793746948242e-01) (71, 5.40480136871337890625e-01) (72, -3.63552272319793701172e-02) (73, -8.46664309501647949219e-02) (74, -1.13671898841857910156e-01) (75, -5.21622896194458007812e-01) (76, 1.58168360590934753418e-01) (77, -5.71836195886135101318e-02) (78, 4.66158628463745117188e-01) (79, -1.53125837445259094238e-01) (80, 3.30802321434020996094e-01) (81, 6.11819997429847717285e-02) (82, -3.90834547579288482666e-02) (83, -1.19604460895061492920e-01) (84, 9.52078223228454589844e-01) (85, 3.31192687153816223145e-02) (86, -1.92841736134141683578e-03) (87, 6.29326403141021728516e-02) (88, 3.18719267845153808594e-01) (89, -8.65931715816259384155e-03) (90, 2.22976461052894592285e-01) (91, -4.55846339464187622070e-02) (92, 3.08246910572052001953e-01) (93, -1.34166941046714782715e-01) (94, 2.94027831405401229858e-02) (95, -4.02217023074626922607e-02) (96, 4.09226030111312866211e-01) (97, 6.98834896087646484375e-01) (98, 7.47022688388824462891e-01) (99, -5.28000257909297943115e-02) (100, -2.47107535600662231445e-01) (101, -6.12067393958568572998e-02) (102, -2.19092100858688354492e-01) (103, 1.21789306402206420898e-01) (104, -5.97554333508014678955e-02) (105, -1.38461813330650329590e-01) (106, 3.14950734376907348633e-01) (107, -4.15847897529602050781e-02) (108, 4.37098115682601928711e-01) (109, 4.22405868768692016602e-01) (110, 8.02643477916717529297e-01) (111, 3.10117900371551513672e-01) (112, -6.29772990942001342773e-02) (113, -3.01498472690582275391e-02) (114, 3.90959292650222778320e-01) (115, 1.84606537222862243652e-01) (116, -6.14836253225803375244e-02) (117, -1.20110303163528442383e-01) (118, 1.96396540850400924683e-02) (119, -1.98781833052635192871e-01) (120, -3.84412966668605804443e-02) (0, 6.58639073371887207031e-01) (1, -5.84303319454193115234e-01) (2, 5.80753087997436523438e-01) (3, 2.18510165810585021973e-01) (4, 6.39809310436248779297e-01) (5, 1.21391050517559051514e-01) (6, 5.76978385448455810547e-01) (7, 4.70977127552032470703e-01) (8, 5.21735072135925292969e-01) (9, 4.59626227617263793945e-01) (10, 4.77548569440841674805e-01) (11, -2.54515446722507476807e-02) (12, 3.10517817735671997070e-01) (13, 2.79703494161367416382e-02) (14, 1.19547057151794433594e+00) (15, 3.26540738344192504883e-01) (16, 1.84197917580604553223e-01) (17, -2.83100634813308715820e-01) (18, 3.14485996961593627930e-01) (19, 5.85756063461303710938e-01) (20, 6.16665482521057128906e-01) (21, 2.27633818984031677246e-01) (22, 1.31521511077880859375e+00) (23, 8.50946009159088134766e-02) (24, 4.09674286842346191406e-01) (25, 4.83882248401641845703e-01) (26, 4.53110069036483764648e-01) (27, 1.87930762767791748047e-01) (28, 8.93013253808021545410e-02) (29, 5.13886332511901855469e-01) (30, -3.95602211356163024902e-02) (31, 5.00928461551666259766e-01) (32, 6.21320545673370361328e-01) (33, -1.81893724948167800903e-02) (34, 1.09894119203090667725e-01) (35, 3.50580722093582153320e-01) (36, 1.76222905516624450684e-01) (37, 1.71484738588333129883e-01) (38, -4.50733639299869537354e-02) (39, 4.63314950466156005859e-01) (40, 5.35681784152984619141e-01) (41, -7.97269463539123535156e-01) (42, -7.13947489857673645020e-02) (43, -5.86765781044960021973e-02) (44, 4.25066873431205749512e-02) (45, -4.91348356008529663086e-01) (46, 4.81614977121353149414e-01) (47, -1.62382479757070541382e-02) (48, 8.39827656745910644531e-01) (49, 4.13799971342086791992e-01) (50, 4.69561338424682617188e-01) (51, 5.69400131702423095703e-01) (52, 5.22404253482818603516e-01) (53, 4.75565731525421142578e-01) (54, -1.46008491516113281250e+01) (55, -1.05397930145263671875e+01) (56, 4.67104673385620117188e+00) (57, -9.73643422126770019531e-01) (58, -2.17761576175689697266e-01) (59, 1.22732534408569335938e+01) (60, 3.14801543951034545898e-01) (61, 2.26622000336647033691e-01) (62, 8.26422870159149169922e-02) (63, 1.73745959997177124023e-01) (64, 6.83664739131927490234e-01) (65, 7.77554690837860107422e-01) (66, 1.79530113935470581055e-01) (67, -9.22445178031921386719e-01) (68, 5.31943142414093017578e-01) (69, 2.85275191068649291992e-01) (70, 3.64728778600692749023e-01) (71, 6.67232930660247802734e-01) (72, 5.82576036453247070312e-01) (73, 8.87383371591567993164e-02) (74, 5.19663572311401367188e-01) (75, -2.15812635421752929688e+00) (76, 4.75370407104492187500e-01) (77, 1.55606225132942199707e-01) (78, -6.52597248554229736328e-01) (79, 1.77976357936859130859e+00) (80, 5.41505396366119384766e-01) (81, 8.74778807163238525391e-01) (82, -3.26615065336227416992e-01) (83, 7.06297576427459716797e-01) (84, 5.65219819545745849609e-01) (85, 2.01212495565414428711e-01) (86, 4.86108779907226562500e-01) (87, 1.88973233103752136230e-01) (88, 5.94732403755187988281e-01) (89, 5.33906459808349609375e-01) (90, -8.84586423635482788086e-02) (91, 6.57400488853454589844e-02) (92, 1.14634728431701660156e+00) (93, 7.38168418407440185547e-01) (94, 6.99998974800109863281e-01) (95, 1.24214637279510498047e+00) (96, 7.56482660770416259766e-01) (97, 4.33938622474670410156e-01) (98, 1.66291999816894531250e+00) (99, -5.13860404491424560547e-01) (100, 1.10136739909648895264e-01) (101, 2.77657806873321533203e-01) (102, 5.07684051990509033203e-01) (103, 5.28543293476104736328e-01) (104, 5.19185364246368408203e-01) (105, 5.47911524772644042969e-01) (106, 2.79619932174682617188e-01) (107, 5.41067481040954589844e-01) (108, 9.17600035667419433594e-01) (109, 5.41421353816986083984e-01) (110, 1.55788052082061767578e+00) (111, 4.89651054143905639648e-01) (112, 5.79306304454803466797e-01) (113, 1.46002173423767089844e+00) (114, 9.32858824729919433594e-01) (115, -8.39557349681854248047e-02) (116, 5.52971839904785156250e-01) (117, 1.39921456575393676758e-01) (118, 4.95141297578811645508e-01) (119, -1.22903451323509216309e-01) (120, 6.77793025970458984375e-01) (0, 1.26252532005310058594e-01) (1, 6.91164955496788024902e-02) (2, 1.86178848147392272949e-01) (3, -4.45656068623065948486e-02) (4, 4.52046245336532592773e-02) (5, 2.49464642256498336792e-02) (6, -3.32401879131793975830e-02) (7, -1.18591919541358947754e-01) (8, -2.38512922078371047974e-02) (9, -1.87198087573051452637e-01) (10, -9.06553398817777633667e-03) (11, 1.37538373470306396484e-01) (12, -2.80482359230518341064e-02) (13, 2.92324014008045196533e-02) (14, 6.58089518547058105469e-02) (15, -7.55059346556663513184e-02) (16, -1.02834865450859069824e-01) (17, 2.28942055255174636841e-02) (18, -1.34536400437355041504e-01) (19, -8.07028338313102722168e-02) (20, 3.24579253792762756348e-02) (21, 1.09820805490016937256e-01) (22, -5.30864186584949493408e-02) (23, 3.07636498473584651947e-03) (24, -1.05055779218673706055e-01) (25, 9.21428278088569641113e-02) (26, -5.05579635500907897949e-02) (27, 1.39979839324951171875e-01) (28, 1.19269251823425292969e-01) (29, -1.64902046322822570801e-01) (30, 1.13364420831203460693e-01) (31, 1.39687294140458106995e-02) (32, 9.81438979506492614746e-02) (33, 9.38376933336257934570e-02) (34, 1.55195286497473716736e-02) (35, 5.70801347494125366211e-02) (36, 4.85612094402313232422e-01) (37, -2.03816518187522888184e-02) (38, 7.01507972553372383118e-03) (39, 3.64739783108234405518e-02) (40, -1.13085776567459106445e-01) (41, -5.89065067470073699951e-02) (42, 7.81113235279917716980e-03) (43, -1.65238559246063232422e-01) (44, 3.13333645462989807129e-02) (45, -9.95864421129226684570e-02) (46, 3.62758971750736236572e-02) (47, -2.03802343457937240601e-02) (48, 1.22212722897529602051e-01) (49, -3.73447909951210021973e-02) (50, 1.17248948663473129272e-03) (51, -8.29679593443870544434e-02) (52, 9.30759012699127197266e-02) (53, -5.06905391812324523926e-02) (54, 3.30472947098314762115e-03) (55, -3.12049817293882369995e-02) (56, -2.41012990474700927734e-01) (57, -2.18648239970207214355e-01) (58, -1.07350969314575195312e+00) (59, -2.58334159851074218750e+01) (60, -1.89462140202522277832e-01) (61, 2.93549358844757080078e-01) (62, -1.77418529987335205078e-01) (63, -1.56454339623451232910e-01) (64, 1.38922467827796936035e-01) (65, 8.63302350044250488281e-02) (66, 1.45689606666564941406e-01) (67, -1.67805925011634826660e-01) (68, -1.27453252673149108887e-01) (69, 1.14910125732421875000e-01) (70, 5.51005780696868896484e-01) (71, -3.86460131267085671425e-04) (72, 1.22020825743675231934e-01) (73, 1.22614234685897827148e-01) (74, 1.15047641098499298096e-01) (75, 9.22488793730735778809e-03) (76, -9.32724028825759887695e-03) (77, 3.66059392690658569336e-02) (78, -1.22003711760044097900e-01) (79, -3.37165854871273040771e-02) (80, 5.89752756059169769287e-03) (81, 9.25464183092117309570e-02) (82, -1.31905943155288696289e-01) (83, 1.52475327253341674805e-01) (84, 8.73065888881683349609e-02) (85, -1.05270436033606529236e-02) (86, 6.27507120370864868164e-02) (87, 1.63734182715415954590e-01) (88, 2.75153806433081626892e-03) (89, 4.70819510519504547119e-02) (90, 5.78167028725147247314e-02) (91, -7.58657231926918029785e-02) (92, -1.33425012230873107910e-01) (93, 1.22185451909899711609e-02) (94, 4.20731246471405029297e-01) (95, 2.62027502059936523438e-01) (96, 6.24236837029457092285e-02) (97, 7.26726278662681579590e-02) (98, -3.15775834023952484131e-02) (99, 9.96103435754776000977e-02) (100, -2.67914850264787673950e-02) (101, 3.78702506422996520996e-02) (102, 1.72296881675720214844e-01) (103, 5.03458417952060699463e-02) (104, 3.61151248216629028320e-02) (105, 3.38701121509075164795e-02) (106, -4.55934219062328338623e-02) (107, -3.48444841802120208740e-02) (108, -6.27612173557281494141e-02) (109, 1.34818911552429199219e-01) (110, -5.45170716941356658936e-02) (111, 1.10958792269229888916e-01) (112, 7.74440318346023559570e-02) (113, -6.28990679979324340820e-02) (114, 1.18980497121810913086e-01) (115, -1.38844139873981475830e-02) (116, -3.01529884338378906250e-01) (117, 5.32346665859222412109e-02) (118, 2.17243954539299011230e-01) (119, -1.46930264309048652649e-02) (120, 1.55566856265068054199e-01) (0, -5.60417063534259796143e-02) (1, -1.49651497602462768555e-01) (2, 2.31281116604804992676e-01) (3, -3.28925885260105133057e-02) (4, 1.78572416305541992188e-01) (5, 2.45265737175941467285e-01) (6, 2.57141083478927612305e-01) (7, 3.95309090614318847656e-01) (8, 1.50074824690818786621e-01) (9, -5.41119724512100219727e-02) (10, 1.95494100451469421387e-01) (11, -5.95563471317291259766e-01) (12, 1.51921823620796203613e-01) (13, -8.41446220874786376953e-01) (14, 2.92679183185100555420e-02) (15, 1.04414224624633789062e-01) (16, -1.40530511736869812012e-01) (17, 8.53538215160369873047e-02) (18, -2.36017182469367980957e-02) (19, 4.93985891342163085938e-01) (20, -9.00457501411437988281e-02) (21, -5.45076966285705566406e-01) (22, 5.11088907718658447266e-01) (23, 1.42721503973007202148e-01) (24, 5.15128552913665771484e-01) (25, 2.57328927516937255859e-01) (26, 3.10492694377899169922e-01) (27, 4.30697858333587646484e-01) (28, 1.20472855865955352783e-01) (29, -2.60533159598708152771e-03) (30, 3.22468131780624389648e-01) (31, -1.33840844035148620605e-01) (32, 2.10319668054580688477e-01) (33, 5.13644516468048095703e-01) (34, 2.46781542897224426270e-01) (35, 1.34857103228569030762e-01) (36, 5.02567470073699951172e-01) (37, 1.21452689170837402344e-01) (38, 1.11364133656024932861e-01) (39, -2.21906855702400207520e-01) (40, 1.93328440189361572266e-01) (41, 3.04431408643722534180e-01) (42, 4.90981221199035644531e-01) (43, 3.12422305345535278320e-01) (44, 2.81097531318664550781e-01) (45, 1.69699877500534057617e-01) (46, -1.44555956125259399414e-01) (47, -1.68805569410324096680e-01) (48, 8.45493197441101074219e-01) (49, 8.15243273973464965820e-02) (50, 3.38875323534011840820e-01) (51, 3.07526923716068267822e-02) (52, 8.46424624323844909668e-02) (53, -9.38906818628311157227e-02) (54, 3.32574993371963500977e-01) (55, 8.25923979282379150391e-02) (56, 6.53433278203010559082e-02) (57, 7.84602880477905273438e-01) (58, 4.62076544761657714844e-01) (59, 1.41694292426109313965e-01) (60, -2.35187005996704101562e+00) (61, 9.04731689453125000000e+02) (62, -2.97582721710205078125e+00) (63, -2.93310546875000000000e+00) (64, 6.23211383819580078125e-01) (65, -4.88994002342224121094e-01) (66, 1.62437653541564941406e+00) (67, -5.70815443992614746094e-01) (68, -5.68985641002655029297e-01) (69, 8.95566582679748535156e-01) (70, 8.46374183893203735352e-02) (71, -7.08014965057373046875e-02) (72, 6.53203427791595458984e-02) (73, -1.54259416740387678146e-03) (74, 2.38836526870727539062e-01) (75, 7.68516719341278076172e-01) (76, 4.56298589706420898438e-01) (77, 1.80843099951744079590e-01) (78, 2.20779523253440856934e-01) (79, 1.81461051106452941895e-01) (80, 4.20658923685550689697e-02) (81, 1.50899320840835571289e-01) (82, 1.14018626511096954346e-01) (83, -1.48057371377944946289e-01) (84, -1.98815509676933288574e-01) (85, 5.73190003633499145508e-02) (86, 2.10075035691261291504e-01) (87, 4.00389544665813446045e-02) (88, 6.16675391793251037598e-02) (89, -1.48082360625267028809e-01) (90, -6.29984214901924133301e-02) (91, 3.65545302629470825195e-02) (92, -1.05964839458465576172e-01) (93, 2.88551095873117446899e-02) (94, 1.60523325204849243164e-01) (95, 1.44613817334175109863e-01) (96, 5.79778701066970825195e-02) (97, -2.43556931614875793457e-01) (98, 1.74925133585929870605e-01) (99, 5.69802373647689819336e-02) (100, 2.10330203175544738770e-01) (101, 1.03172048926353454590e-01) (102, 5.81670999526977539062e-01) (103, 1.28385126590728759766e-01) (104, -3.03371161222457885742e-01) (105, 2.13344007730484008789e-01) (106, -5.20004928112030029297e-02) (107, 1.91142991185188293457e-01) (108, 1.64762452244758605957e-01) (109, 1.21820099651813507080e-01) (110, -1.09085209667682647705e-01) (111, 2.07001313567161560059e-01) (112, 1.59504413604736328125e-01) (113, 1.07337303459644317627e-01) (114, -1.52020260691642761230e-01) (115, 1.83862715959548950195e-01) (116, -3.17178666591644287109e-01) (117, -1.49060443043708801270e-01) (118, 1.07493579387664794922e-01) (119, 2.97460168600082397461e-01) (120, 9.01739895343780517578e-01) (0, 1.96793785095214843750e+01) (1, 2.35763520002365112305e-01) (2, 7.30912292480468750000e+02) (3, 6.86732172966003417969e-01) (4, 3.37128818035125732422e-01) (5, 3.92310559749603271484e-01) (6, 2.06200823187828063965e-01) (7, 3.42462748289108276367e-01) (8, 2.08146542310714721680e-01) (9, 6.73474788665771484375e-01) (10, 2.87810981273651123047e-01) (11, 2.33592927455902099609e-01) (12, 3.70517700910568237305e-01) (13, 1.70099079608917236328e+00) (14, 5.83860337734222412109e-01) (15, 3.42436015605926513672e-01) (16, 3.22882533073425292969e-01) (17, 4.93982553482055664062e-01) (18, 2.80024409294128417969e-01) (19, 3.66719305515289306641e-01) (20, 1.44623160362243652344e+00) (21, 1.97573766112327575684e-01) (22, 3.33738058805465698242e-01) (23, 1.50287404656410217285e-01) (24, 3.25587213039398193359e-01) (25, -1.45757560729980468750e+01) (26, 3.39551538228988647461e-01) (27, 9.12873506546020507812e-01) (28, 8.12143906950950622559e-02) (29, 3.01349699497222900391e-01) (30, 4.04188513755798339844e-01) (31, 2.83233761787414550781e-01) (32, 2.73580461740493774414e-01) (33, 1.30275821685791015625e+01) (34, 3.32157880067825317383e-01) (35, 4.69158321619033813477e-01) (36, 7.67604172229766845703e-01) (37, 3.99922251701354980469e-01) (38, 3.28452229499816894531e-01) (39, -5.44754076004028320312e+00) (40, 3.34610819816589355469e-01) (41, 4.14342671632766723633e-01) (42, 4.05989289283752441406e-01) (43, 3.22302669286727905273e-01) (44, 3.85117202997207641602e-01) (45, 1.71830043196678161621e-01) (46, 2.58841693401336669922e-01) (47, 5.17347753047943115234e-01) (48, 1.02617815136909484863e-01) (49, 4.00198668241500854492e-01) (50, 3.14568907022476196289e-01) (51, 1.93312489986419677734e+00) (52, 2.47795417904853820801e-01) (53, 6.22566282749176025391e-01) (54, 2.84771697998046875000e+02) (55, 5.55901855468750000000e+02) (56, 2.76551151275634765625e+00) (57, 8.10752689838409423828e-01) (58, 5.66480576992034912109e-01) (59, -1.48374885320663452148e-01) (60, 4.81940984725952148438e-01) (61, -1.69983834028244018555e-01) (62, 4.90013748407363891602e-01) (63, 5.35706639289855957031e-01) (64, 1.01118206977844238281e-01) (65, 3.69940072298049926758e-01) (66, 2.56079912185668945312e-01) (67, 1.07594108581542968750e+00) (68, 4.22972172498703002930e-01) (69, 2.13917190551757812500e+02) (70, 4.17560219764709472656e-01) (71, 3.23403269052505493164e-01) (72, 2.32099354267120361328e-01) (73, 2.25239753723144531250e-01) (74, 3.16811710596084594727e-01) (75, 1.37509536743164062500e+00) (76, 2.03119605779647827148e-01) (77, 2.84061044454574584961e-01) (78, 2.34263443946838378906e+00) (79, 2.50185191631317138672e-01) (80, 2.19920217990875244141e-01) (81, -9.15272891521453857422e-01) (82, 2.90060490369796752930e-01) (83, 4.83830899000167846680e-01) (84, 2.18983030319213867188e+00) (85, 4.98935505747795104980e-02) (86, 2.22355946898460388184e-01) (87, -1.57761783599853515625e+01) (88, 3.49132835865020751953e-01) (89, -2.97175931930541992188e+00) (90, 2.19723045825958251953e-01) (91, 7.66946716308593750000e+01) (92, 3.10163080692291259766e-01) (93, 1.09578266143798828125e+01) (94, 2.90538907051086425781e-01) (95, 1.86994954943656921387e-01) (96, 1.76259279251098632812e-01) (97, 8.02567526698112487793e-02) (98, 2.77858108282089233398e-01) (99, 1.23438358306884765625e-01) (100, 3.96684616804122924805e-01) (101, 1.44476994872093200684e-01) (102, 2.27069973945617675781e-01) (103, 9.95839416980743408203e-01) (104, -9.31444346904754638672e-01) (105, 2.47315704822540283203e-01) (106, 4.18439120054244995117e-01) (107, 5.63090145587921142578e-01) (108, -1.30535662174224853516e+00) (109, 1.64580926299095153809e-01) (110, 4.17645305395126342773e-01) (111, 1.83450728654861450195e-01) (112, 2.48195827007293701172e-01) (113, 1.17678157985210418701e-01) (114, 3.29711377620697021484e-01) (115, 5.23353695869445800781e-01) (116, 7.81339836120605468750e+00) (117, 1.33876159787178039551e-01) (118, 1.32672321796417236328e+00) (119, 2.99478143453598022461e-01) (120, 1.68672591447830200195e-01) (0, 5.71134269237518310547e-01) (1, -5.80136418342590332031e-01) (2, 1.33005535602569580078e+00) (3, -1.03900504112243652344e+00) (4, 2.92286515235900878906e-01) (5, -6.77230358123779296875e-01) (6, 8.55585753917694091797e-01) (7, -1.07308125495910644531e+00) (8, 7.06574559211730957031e-01) (9, 2.91357964277267456055e-01) (10, -2.61699944734573364258e-01) (11, 5.92165552079677581787e-02) (12, 2.04646259546279907227e-01) (13, 7.37389735877513885498e-03) (14, 1.25207543373107910156e-01) (15, 7.42930397391319274902e-02) (16, -7.29337155818939208984e-01) (17, -5.50412893295288085938e-01) (18, 4.46405887603759765625e-01) (19, 2.89557844400405883789e-01) (20, 3.24730813503265380859e-01) (21, 1.74002230167388916016e-01) (22, 1.48791268467903137207e-01) (23, -1.03235002607107162476e-02) (24, -9.74714383482933044434e-02) (25, 2.06363737583160400391e-01) (26, 7.39860475063323974609e-01) (27, -3.35119850933551788330e-02) (28, -2.01344877481460571289e-01) (29, -1.15926824510097503662e-01) (30, 9.35413062572479248047e-01) (31, -1.56848266720771789551e-01) (32, 4.21762794256210327148e-01) (33, -1.56081750988960266113e-01) (34, 3.22459340095520019531e-01) (35, 1.48947179317474365234e-01) (36, -6.47949337959289550781e-01) (37, 2.21208021044731140137e-01) (38, 1.25139558315277099609e+00) (39, -2.44300842285156250000e+00) (40, 7.46919453144073486328e-01) (41, 1.22461840510368347168e-01) (42, -4.01284284889698028564e-02) (43, 2.66892641782760620117e-01) (44, 1.36309370398521423340e-01) (45, -1.60490602254867553711e-01) (46, 1.56792318820953369141e+00) (47, 6.81612268090248107910e-02) (48, 2.27414131164550781250e-01) (49, 4.19748991727828979492e-01) (50, 4.03780907392501831055e-01) (51, 3.22764217853546142578e-01) (52, 7.82351568341255187988e-02) (53, 1.03494022041559219360e-02) (54, 2.34233617782592773438e+00) (55, 1.34561610221862792969e+00) (56, -7.44994282722473144531e-01) (57, 2.42298319935798645020e-01) (58, -2.94474847614765167236e-02) (59, -1.35351037979125976562e+00) (60, 3.97861391305923461914e-01) (61, -4.75357957184314727783e-02) (62, 5.79581737518310546875e-01) (63, -3.00287902355194091797e-01) (64, 3.83841007947921752930e-01) (65, 1.10802091658115386963e-01) (66, -1.76613003015518188477e-01) (67, -5.97863137722015380859e-01) (68, 4.03456896543502807617e-01) (69, -1.57850623130798339844e+00) (70, 4.57973033189773559570e-01) (71, 4.30102020502090454102e-01) (72, 9.27914261817932128906e-01) (73, 5.88658712804317474365e-02) (74, 2.70707577466964721680e-01) (75, 5.67571856081485748291e-02) (76, -1.36389806866645812988e-01) (77, -1.43830448389053344727e-01) (78, 3.81882458925247192383e-01) (79, 2.35077857971191406250e-01) (80, 3.37057024240493774414e-01) (81, 7.47073367238044738770e-02) (82, 2.34055131673812866211e-01) (83, -3.00937816500663757324e-02) (84, 1.79563909769058227539e-01) (85, 7.88602948188781738281e-01) (86, 8.77562258392572402954e-03) (87, 2.03260332345962524414e-01) (88, 2.35176414251327514648e-01) (89, -1.61478117108345031738e-01) (90, 4.66768331825733184814e-02) (91, -1.88856218010187149048e-02) (92, -9.13464486598968505859e-01) (93, -6.88865110278129577637e-02) (94, 3.63464623689651489258e-01) (95, -6.79077431559562683105e-02) (96, 3.95130157470703125000e-01) (97, -1.25026845932006835938e+00) (98, 3.02648723125457763672e-01) (99, 1.58794641494750976562e-01) (100, 1.90687656402587890625e+00) (101, -4.30623412132263183594e-01) (102, 1.13842356204986572266e+00) (103, -7.31671619415283203125e+00) (104, 6.79964303970336914062e-01) (105, -2.52941817045211791992e-01) (106, 2.94643253087997436523e-01) (107, -6.63436055183410644531e-02) (108, 3.37108731269836425781e-01) (109, 3.23217064142227172852e-01) (110, 2.03161001205444335938e-01) (111, -4.47794497013092041016e-02) (112, 6.18793010711669921875e-01) (113, 2.72412896156311035156e-01) (114, 2.74264991283416748047e-01) (115, 3.62499654293060302734e-01) (116, 5.46971023082733154297e-01) (117, -2.56680697202682495117e-01) (118, 1.26819264888763427734e+00) (119, -5.25950491428375244141e-02) (120, 6.77179545164108276367e-02) (0, 3.50545346736907958984e-01) (1, 5.25892339646816253662e-02) (2, -1.78229570388793945312e-01) (3, -1.21683359146118164062e-01) (4, -1.47557333111763000488e-01) (5, 4.06105704605579376221e-02) (6, -2.44073882699012756348e-01) (7, -1.27536386251449584961e-01) (8, -4.73405808210372924805e-01) (9, -1.94773953408002853394e-02) (10, -1.55641540884971618652e-01) (11, 4.77659881114959716797e-01) (12, -1.73314273357391357422e-01) (13, 3.11814069747924804688e-01) (14, -6.60944342613220214844e-01) (15, -4.49013039469718933105e-02) (16, 7.74561524391174316406e-01) (17, 4.54167246818542480469e-01) (18, -3.73040288686752319336e-02) (19, 1.54822722077369689941e-01) (20, 4.19421613216400146484e-01) (21, 4.41072106361389160156e-01) (22, -5.03457665443420410156e-01) (23, 3.63877177238464355469e-01) (24, -6.36241910979151725769e-03) (25, -5.17318725585937500000e-01) (26, 9.30089876055717468262e-02) (27, -3.63031476736068725586e-01) (28, 1.53199210762977600098e-01) (29, -1.46460428833961486816e-01) (30, 3.89631450176239013672e-01) (31, -2.92704552412033081055e-01) (32, 4.07924681901931762695e-01) (33, 3.07308584451675415039e-01) (34, 2.76145100593566894531e-01) (35, 3.17016571760177612305e-01) (36, 3.47495138645172119141e-01) (37, -8.09735804796218872070e-02) (38, 4.56561267375946044922e-01) (39, -3.41003760695457458496e-02) (40, 3.03845614194869995117e-01) (41, 3.48702132701873779297e-01) (42, 2.39272728562355041504e-01) (43, 1.98777511715888977051e-01) (44, 3.34944009780883789062e-01) (45, -3.23319017887115478516e-01) (46, -1.07589036226272583008e-01) (47, -1.73357576131820678711e-01) (48, -1.75119429826736450195e-01) (49, 1.07673220336437225342e-02) (50, 5.10311424732208251953e-02) (51, 7.87056162953376770020e-02) (52, -3.22153687477111816406e-01) (53, 4.04398888349533081055e-02) (54, 1.39922523498535156250e+00) (55, 3.21132928133010864258e-01) (56, -4.85850334167480468750e+00) (57, 1.38804817199707031250e+00) (58, 9.80980098247528076172e-01) (59, -5.76097583770751953125e+00) (60, -5.78345954418182373047e-02) (61, 6.39459341764450073242e-02) (62, -3.68690565228462219238e-02) (63, -1.90891355276107788086e-01) (64, -7.43447169661521911621e-02) (65, -1.86771884560585021973e-01) (66, 3.55865776538848876953e-01) (67, -1.31047666072845458984e-01) (68, -1.84075132012367248535e-01) (69, 5.56365787982940673828e-01) (70, -3.64017993211746215820e-01) (71, -6.22226655483245849609e-01) (72, -1.94071039557456970215e-01) (73, -1.43407925963401794434e-01) (74, 2.82629698514938354492e-01) (75, -2.78390906751155853271e-02) (76, -2.41754308342933654785e-01) (77, -3.24638374149799346924e-02) (78, -5.03042303025722503662e-02) (79, -1.58701822161674499512e-01) (80, -3.00022631883621215820e-01) (81, -2.14639887213706970215e-01) (82, -1.04010291397571563721e-01) (83, -4.33884620666503906250e-01) (84, -1.70292496681213378906e-01) (85, 2.52592936158180236816e-02) (86, 2.66390383243560791016e-01) (87, 2.89053916931152343750e-01) (88, -4.05866712331771850586e-01) (89, -3.24124306440353393555e-01) (90, -2.44121700525283813477e-01) (91, -4.63311463594436645508e-01) (92, -1.11292243003845214844e-01) (93, -3.22788834571838378906e-01) (94, -1.87091082334518432617e-01) (95, -6.17368698120117187500e-01) (96, -2.01910734176635742188e-01) (97, -6.51206314563751220703e-01) (98, -8.32201167941093444824e-02) (99, -1.73053368926048278809e-01) (100, -5.88870346546173095703e-01) (101, 2.30553239583969116211e-01) (102, -6.86156079173088073730e-02) (103, 1.08988277614116668701e-01) (104, 5.87568804621696472168e-02) (105, -1.32482245564460754395e-01) (106, -2.79342941939830780029e-02) (107, -2.03570663928985595703e-01) (108, -1.91305011510848999023e-01) (109, 3.40021103620529174805e-01) (110, -1.29986077547073364258e-01) (111, -5.32796800136566162109e-01) (112, -1.97581335902214050293e-01) (113, -1.75122860819101333618e-02) (114, -1.90435454249382019043e-01) (115, -2.12628513574600219727e-01) (116, -4.80586767196655273438e-01) (117, 3.77675443887710571289e-01) (118, -1.37826306745409965515e-02) (119, -4.91678804159164428711e-01) (120, -1.10669054090976715088e-01) (0, 7.73529782891273498535e-02) (1, 8.05043220520019531250e-01) (2, 2.37772315740585327148e-01) (3, 5.59333637356758117676e-02) (4, -4.45202827453613281250e-01) (5, -4.39064651727676391602e-02) (6, -2.37232789397239685059e-01) (7, 1.20489932596683502197e-01) (8, -1.28698483109474182129e-01) (9, -8.44503715634346008301e-02) (10, -5.24857938289642333984e-02) (11, -4.73701834678649902344e-01) (12, 5.07708847522735595703e-01) (13, 3.30061137676239013672e-01) (14, -2.10770592093467712402e-01) (15, -3.80483597517013549805e-01) (16, 1.34213581681251525879e-01) (17, -6.57705143094062805176e-02) (18, 2.92268872261047363281e-01) (19, 1.53052791953086853027e-01) (20, -1.43690839409828186035e-01) (21, -2.03999161720275878906e-01) (22, 7.27872028946876525879e-02) (23, 3.25055301189422607422e-01) (24, -9.36049520969390869141e-02) (25, -1.08707144856452941895e-01) (26, 1.34612649679183959961e-01) (27, -3.07034254074096679688e-01) (28, -3.74350734055042266846e-02) (29, 4.04211968183517456055e-01) (30, -7.61666893959045410156e-02) (31, 4.16417986154556274414e-01) (32, -2.55487680435180664062e-01) (33, -3.97178441286087036133e-01) (34, 3.65737453103065490723e-02) (35, 4.63656902313232421875e-01) (36, 2.99424209515564143658e-05) (37, 3.36941659450531005859e-01) (38, -2.46564850211143493652e-01) (39, -1.17250435054302215576e-01) (40, -9.33126881718635559082e-02) (41, 7.03087151050567626953e-02) (42, -6.10539913177490234375e-01) (43, 9.05379712581634521484e-01) (44, -1.15987710654735565186e-01) (45, 1.09239980578422546387e-01) (46, -1.24027520418167114258e-01) (47, 6.62155523896217346191e-02) (48, -6.27053558826446533203e-01) (49, 1.14915885031223297119e-01) (50, -1.46277740597724914551e-01) (51, 2.03449517488479614258e-01) (52, -6.04901500046253204346e-02) (53, -2.25108981132507324219e-01) (54, -5.38668408989906311035e-02) (55, 3.39742422103881835938e-01) (56, 4.12659794092178344727e-01) (57, 8.16509068012237548828e-01) (58, 8.11946988105773925781e-01) (59, 2.92308783531188964844e+00) (60, 5.37856519222259521484e-01) (61, -1.15837596356868743896e-01) (62, 3.80581825971603393555e-01) (63, 5.00315546989440917969e-01) (64, -1.28847971558570861816e-01) (65, 2.28301137685775756836e-01) (66, -2.11222812533378601074e-01) (67, 5.14145791530609130859e-01) (68, 2.85581886768341064453e-01) (69, -8.51023495197296142578e-02) (70, 1.54919058084487915039e-01) (71, 1.98248878121376037598e-01) (72, -1.68237224221229553223e-01) (73, 2.83537600189447402954e-02) (74, -8.00705373287200927734e-01) (75, 3.90635818243026733398e-01) (76, -1.42047613859176635742e-01) (77, -1.98087051510810852051e-01) (78, -3.99089425802230834961e-01) (79, 2.32867360115051269531e-01) (80, -2.92736645787954330444e-02) (81, -4.46385324001312255859e-01) (82, -2.47920397669076919556e-02) (83, 1.21458865702152252197e-01) (84, -1.38483658432960510254e-01) (85, -2.66486525535583496094e-01) (86, -4.16330248117446899414e-01) (87, -1.33518859744071960449e-01) (88, -4.12589699029922485352e-01) (89, -1.04135620594024658203e+00) (90, 3.37437391281127929688e-01) (91, 1.43571719527244567871e-01) (92, 1.91945627331733703613e-01) (93, -1.25452205538749694824e-01) (94, -1.13790623843669891357e-01) (95, 6.92732632160186767578e-02) (96, -1.61612153053283691406e-01) (97, 2.41510346531867980957e-02) (98, 2.14752882719039916992e-01) (99, 2.23516337573528289795e-02) (100, 7.63692706823348999023e-02) (101, -2.29751378297805786133e-01) (102, -2.19704315066337585449e-01) (103, -2.95264244079589843750e-01) (104, 6.71016871929168701172e-02) (105, -9.84698981046676635742e-02) (106, -1.00480824708938598633e-01) (107, 1.22655081748962402344e+00) (108, 2.82533615827560424805e-01) (109, -2.78926730155944824219e-01) (110, -1.41390249133110046387e-01) (111, -3.92818987369537353516e-01) (112, -1.09039440751075744629e-01) (113, -4.69339340925216674805e-02) (114, 7.44854435324668884277e-02) (115, 6.01361811161041259766e-01) (116, 9.10287797451019287109e-02) (117, -9.84057188034057617188e-02) (118, 2.09753483533859252930e-01) (119, -3.99300344288349151611e-02) (120, -1.52892887592315673828e-01) (0, -6.06417238712310791016e-01) (1, -2.20818176865577697754e-01) (2, -2.11574599146842956543e-01) (3, -5.57782053947448730469e-01) (4, 4.18914675712585449219e-01) (5, -3.59111809730529785156e+00) (6, -2.66610477119684219360e-02) (7, -1.06921102851629257202e-02) (8, -2.29494497179985046387e-01) (9, -4.91940230131149291992e-02) (10, -1.41386128962039947510e-02) (11, 5.63880383968353271484e-01) (12, 2.07380667328834533691e-01) (13, 1.84956446290016174316e-01) (14, -6.83503210544586181641e-01) (15, 1.94951608777046203613e-01) (16, -1.09244979918003082275e-01) (17, -4.94760759174823760986e-02) (18, -2.93147340416908264160e-02) (19, -5.61658203601837158203e-01) (20, -2.05841194838285446167e-02) (21, 2.28096708655357360840e-01) (22, 1.48058846592903137207e-01) (23, 9.66661572456359863281e-01) (24, -3.13829898834228515625e-01) (25, 3.16281706094741821289e-01) (26, 1.72896876931190490723e-01) (27, -5.69681935012340545654e-02) (28, -1.35379850864410400391e+00) (29, -2.09472036361694335938e+00) (30, 1.12520791590213775635e-01) (31, 2.12316855788230895996e-01) (32, 1.22938168048858642578e+00) (33, 2.64364778995513916016e-02) (34, 1.93585604429244995117e-01) (35, 2.48217985033988952637e-01) (36, -2.64022778719663619995e-02) (37, -3.16392809152603149414e-01) (38, 3.86096656322479248047e-01) (39, 5.55000416934490203857e-02) (40, 8.91396701335906982422e-02) (41, 8.65600466728210449219e-01) (42, -9.86517429351806640625e-01) (43, -4.40642327070236206055e-01) (44, 5.42860850691795349121e-03) (45, 5.22308871150016784668e-02) (46, 9.06584560871124267578e-02) (47, 3.27577330172061920166e-02) (48, 1.25134956836700439453e+00) (49, 8.95574569702148437500e-01) (50, -9.51587200164794921875e-01) (51, 5.33098652958869934082e-02) (52, 1.99557226151227951050e-02) (53, 3.23930243030190467834e-03) (54, 3.57553154230117797852e-01) (55, -8.10488015413284301758e-02) (56, 4.66793656349182128906e-01) (57, -2.82073497772216796875e-01) (58, -9.23276543617248535156e-02) (59, 1.12784874439239501953e+00) (60, -1.41451984643936157227e-01) (61, -1.96028213500976562500e+01) (62, -6.40422552824020385742e-02) (63, -1.59543324261903762817e-02) (64, -2.59781509637832641602e-01) (65, -5.48584461212158203125e-01) (66, -9.05188441276550292969e-01) (67, -1.58180460333824157715e-01) (68, -1.27194300293922424316e-01) (69, 2.66924977302551269531e-01) (70, 6.69227764010429382324e-02) (71, -1.33084312081336975098e-01) (72, -1.06860309839248657227e-01) (73, 4.48859035968780517578e-01) (74, -1.20774149894714355469e+00) (75, 8.74698102474212646484e-01) (76, -4.96852725744247436523e-01) (77, 8.76896753907203674316e-02) (78, -1.17542766034603118896e-01) (79, -2.70514283329248428345e-02) (80, -9.98547114431858062744e-03) (81, 1.41534507274627685547e+00) (82, -2.53152959048748016357e-02) (83, -7.52741098403930664062e-01) (84, -7.87151828408241271973e-02) (85, -6.98930844664573669434e-02) (86, -6.01864993572235107422e-01) (87, -1.02970466017723083496e-01) (88, -4.83507327735424041748e-02) (89, 2.50765364617109298706e-02) (90, 1.22439183294773101807e-01) (91, 7.19572976231575012207e-02) (92, 2.45149627327919006348e-01) (93, -8.53985454887151718140e-03) (94, 1.38817608356475830078e-01) (95, -4.05022203922271728516e-01) (96, 5.08327819406986236572e-02) (97, 3.05169764906167984009e-02) (98, 5.29515027999877929688e-01) (99, 1.27699272707104682922e-02) (100, 3.68198901414871215820e-02) (101, -6.89742565155029296875e-02) (102, -1.82366833090782165527e-01) (103, -2.90114104747772216797e-01) (104, 1.91971227526664733887e-01) (105, 1.63250207901000976562e+00) (106, -5.14546692371368408203e-01) (107, 1.57859157770872116089e-02) (108, 4.30571772158145904541e-02) (109, 2.48587708920240402222e-02) (110, -9.09463986754417419434e-02) (111, -5.01800812780857086182e-02) (112, 7.55010694265365600586e-02) (113, -7.48525083065032958984e-01) (114, 3.37077118456363677979e-02) (115, -7.06512391567230224609e-01) (116, 1.51553422212600708008e-01) (117, -2.06520870327949523926e-01) (118, -4.71689194440841674805e-01) (119, -7.71386623382568359375e-02) (120, -1.79898161441087722778e-02) (0, -3.99804890155792236328e-01) (1, -9.88135114312171936035e-02) (2, -5.42013466358184814453e-01) (3, 4.44375246763229370117e-01) (4, -6.30691796541213989258e-02) (5, -9.10116851329803466797e-01) (6, 3.51634740829467773438e-01) (7, 1.75246715545654296875e+00) (8, 1.29929363727569580078e+00) (9, -1.43799334764480590820e-01) (10, -4.59582865238189697266e-01) (11, 2.47546867467463016510e-03) (12, -2.53597229719161987305e-01) (13, 1.65310129523277282715e-01) (14, 1.68855416774749755859e+00) (15, 4.87880468368530273438e-01) (16, 8.66883635520935058594e-01) (17, -7.85248875617980957031e-01) (18, -4.16895188391208648682e-02) (19, -1.79717332124710083008e-01) (20, -3.04856270551681518555e-01) (21, -9.82651636004447937012e-02) (22, 4.34225589036941528320e-01) (23, -2.13439226150512695312e-01) (24, -5.19252829253673553467e-02) (25, -3.95617127418518066406e-01) (26, -5.10063946247100830078e-01) (27, 1.44730031490325927734e+00) (28, 3.41695249080657958984e-01) (29, 5.09533107280731201172e-01) (30, -1.43229678273200988770e-01) (31, 4.96409130096435546875e+00) (32, -1.00755766034126281738e-01) (33, -1.05661702156066894531e+00) (34, 6.93317592144012451172e-01) (35, 9.23990547657012939453e-01) (36, -2.42165569216012954712e-02) (37, -2.20987844467163085938e+00) (38, -2.26657599210739135742e-01) (39, -2.04824224114418029785e-01) (40, -2.09173351526260375977e-01) (41, -3.60364288091659545898e-01) (42, 2.85697013139724731445e-01) (43, 5.11254966259002685547e-01) (44, -2.53667771816253662109e-01) (45, 3.06774318218231201172e-01) (46, 3.83479207754135131836e-01) (47, -1.43119692802429199219e-01) (48, -1.70194074511528015137e-01) (49, -7.40860998630523681641e-02) (50, -1.32372394204139709473e-01) (51, -2.86877095699310302734e-01) (52, 5.43809652328491210938e-01) (53, 9.11695420742034912109e-01) (54, -2.77478694915771484375e-01) (55, 1.42040503025054931641e+00) (56, 1.19930267333984375000e+00) (57, -3.50359708070755004883e-01) (58, -2.62706369161605834961e-01) (59, 1.55838215351104736328e+00) (60, 4.62297827005386352539e-01) (61, 4.74994540214538574219e-01) (62, -1.95935040712356567383e-01) (63, 3.68755906820297241211e-01) (64, -5.56138008832931518555e-02) (65, -4.84644412994384765625e-01) (66, -1.04769074916839599609e+00) (67, -3.45689743757247924805e-01) (68, 1.09463846683502197266e+00) (69, 5.12215948104858398438e+00) (70, -2.99045443534851074219e-01) (71, 8.84729549288749694824e-02) (72, -1.24397791922092437744e-01) (73, 5.74871432036161422729e-04) (74, -2.36739203333854675293e-01) (75, -3.59144359827041625977e-01) (76, -1.04943740367889404297e+00) (77, -6.59950256347656250000e-01) (78, 6.31082725524902343750e+00) (79, -1.14202931523323059082e-01) (80, -3.74450609087944030762e-02) (81, -2.35961616039276123047e-01) (82, -7.89239168167114257812e-01) (83, 7.36191570758819580078e-01) (84, 7.95295715332031250000e-01) (85, -1.58189475536346435547e-01) (86, 2.74578809738159179688e-01) (87, 2.98691727221012115479e-02) (88, 3.14246207475662231445e-01) (89, 6.57669842243194580078e-01) (90, 3.35161387920379638672e-01) (91, 4.78639781475067138672e-01) (92, 4.84601527452468872070e-01) (93, 6.87617659568786621094e-01) (94, 3.95321473479270935059e-02) (95, 3.59624564647674560547e-01) (96, 4.45563435554504394531e-01) (97, -1.76198989152908325195e-01) (98, -1.45180165767669677734e-01) (99, 8.89237582683563232422e-01) (100, -2.48708233237266540527e-01) (101, -1.65033519268035888672e+00) (102, -2.78129267692565917969e+00) (103, -7.32596635818481445312e-01) (104, -3.58141481876373291016e-01) (105, 1.50077879428863525391e-01) (106, 2.44957670569419860840e-01) (107, 4.69029128551483154297e-01) (108, 2.71837294101715087891e-01) (109, -8.62624704837799072266e-01) (110, 2.69464373588562011719e-01) (111, 1.37501156330108642578e+00) (112, 2.13889861106872558594e+00) (113, -5.03756225109100341797e-01) (114, -2.93319970369338989258e-01) (115, -1.48929998278617858887e-01) (116, -1.75020599365234375000e+00) (117, 3.99520754814147949219e-01) (118, -3.04940938949584960938e-01) (119, 5.22592008113861083984e-01) (120, -2.44992643594741821289e-01) (0, -5.43159432709217071533e-03) (1, -3.95652651786804199219e-02) (2, -1.78230911493301391602e-01) (3, 7.90772214531898498535e-03) (4, 4.46185730397701263428e-02) (5, 5.36928176879882812500e-02) (6, -3.64368408918380737305e-01) (7, 1.54172450304031372070e-01) (8, 9.24744904041290283203e-02) (9, -1.26429542899131774902e-01) (10, -1.08182244002819061279e-02) (11, -9.35581792145967483521e-03) (12, -4.90489648655056953430e-03) (13, 4.16502617299556732178e-02) (14, -1.57741293311119079590e-01) (15, -9.83738303184509277344e-02) (16, 4.00974527001380920410e-02) (17, -6.02456219494342803955e-02) (18, -1.01385854184627532959e-01) (19, 7.66209363937377929688e-02) (20, -3.02238520234823226929e-02) (21, -2.07583323121070861816e-01) (22, 1.06792494654655456543e-01) (23, -1.13518759608268737793e-01) (24, -9.38838273286819458008e-02) (25, 4.55652102828025817871e-02) (26, -2.17584078200161457062e-03) (27, -1.52638837695121765137e-01) (28, 5.83189679309725761414e-03) (29, 8.96631181240081787109e-02) (30, 9.92651190608739852905e-03) (31, 1.57432146370410919189e-02) (32, -2.57507842034101486206e-02) (33, 2.38410428166389465332e-01) (34, 1.10936693847179412842e-01) (35, 9.98256504535675048828e-02) (36, -2.94971704483032226562e-01) (37, 1.37729672715067863464e-02) (38, -5.23984767496585845947e-02) (39, -1.81883335113525390625e-01) (40, -2.69300006330013275146e-02) (41, 2.34440773725509643555e-01) (42, 5.67910727113485336304e-03) (43, 3.02924394607543945312e-01) (44, -2.16207280755043029785e-02) (45, -7.34939798712730407715e-02) (46, 1.32461547851562500000e-01) (47, -9.91700887680053710938e-02) (48, -5.88967166841030120850e-02) (49, 1.61249354481697082520e-01) (50, 7.23720788955688476562e-02) (51, 8.63255262374877929688e-02) (52, -1.13008432090282440186e-01) (53, 7.99122750759124755859e-02) (54, -6.70720338821411132812e-01) (55, 1.49095106124877929688e+00) (56, -1.50497217178344726562e+01) (57, 8.72306644916534423828e-01) (58, 9.33191716670989990234e-01) (59, -1.91482996940612792969e+00) (60, 1.97973012924194335938e-01) (61, 3.36288101971149444580e-02) (62, 3.07618856430053710938e-01) (63, 3.41719657182693481445e-01) (64, -4.08413074910640716553e-02) (65, -1.07533805072307586670e-01) (66, -7.95442238450050354004e-02) (67, 9.06692072749137878418e-02) (68, 3.73940783902071416378e-05) (69, 4.17461269535124301910e-04) (70, 2.34913304448127746582e-01) (71, -2.72257268428802490234e-01) (72, -2.11510360240936279297e-01) (73, -4.59159836173057556152e-02) (74, -6.27961056306958198547e-03) (75, 3.35859619081020355225e-02) (76, -7.51841440796852111816e-02) (77, -6.02990984916687011719e-02) (78, 6.98318053036928176880e-03) (79, 1.08760505914688110352e-01) (80, -4.32050019502639770508e-01) (81, -1.17780037224292755127e-01) (82, 1.93267241120338439941e-02) (83, -1.59718021750450134277e-01) (84, -2.16797322034835815430e-01) (85, 1.13763762637972831726e-02) (86, -4.80382926762104034424e-02) (87, -1.54471635818481445312e-01) (88, -1.99833631515502929688e-01) (89, -1.66601628065109252930e-01) (90, -7.06174448132514953613e-02) (91, -6.07007928192615509033e-02) (92, 1.38887137174606323242e-01) (93, -1.95944309234619140625e-01) (94, -1.09258905053138732910e-01) (95, -6.39013528823852539062e-01) (96, -1.61730289459228515625e-01) (97, -7.18141943216323852539e-02) (98, 1.85474827885627746582e-01) (99, -2.69994344562292098999e-02) (100, -1.12487673759460449219e-01) (101, -1.10964268445968627930e-01) (102, 4.39433418214321136475e-02) (103, -1.20155520737171173096e-01) (104, -7.08943605422973632812e-02) (105, -1.42424672842025756836e-01) (106, 5.59550821781158447266e-02) (107, -2.37684562802314758301e-01) (108, -2.18964200466871261597e-02) (109, -2.40163594484329223633e-01) (110, 2.11331117898225784302e-02) (111, -1.85769557952880859375e-01) (112, -7.05814361572265625000e-02) (113, -2.75116041302680969238e-02) (114, -3.53150546550750732422e-01) (115, 