FANN_FLO_2.1
num_layers=3
learning_rate=0.700000
connection_rate=1.000000
network_type=0
learning_momentum=0.000000
training_algorithm=2
train_error_function=1
train_stop_function=0
cascade_output_change_fraction=0.010000
quickprop_decay=-0.000100
quickprop_mu=1.750000
rprop_increase_factor=1.200000
rprop_decrease_factor=0.500000
rprop_delta_min=0.000000
rprop_delta_max=50.000000
rprop_delta_zero=0.100000
cascade_output_stagnation_epochs=12
cascade_candidate_change_fraction=0.010000
cascade_candidate_stagnation_epochs=12
cascade_max_out_epochs=150
cascade_min_out_epochs=50
cascade_max_cand_epochs=150
cascade_min_cand_epochs=50
cascade_num_candidate_groups=2
bit_fail_limit=3.49999994039535522461e-01
cascade_candidate_limit=1.00000000000000000000e+03
cascade_weight_multiplier=4.00000005960464477539e-01
cascade_activation_functions_count=10
cascade_activation_functions=3 5 7 8 10 11 14 15 16 17 
cascade_activation_steepnesses_count=4
cascade_activation_steepnesses=2.50000000000000000000e-01 5.00000000000000000000e-01 7.50000000000000000000e-01 1.00000000000000000000e+00 
layer_sizes=3 501 2 
scale_included=0
neurons (num_inputs, activation_function, activation_steepness)=(0, 0, 0.00000000000000000000e+00) (0, 0, 0.00000000000000000000e+00) (0, 0, 0.00000000000000000000e+00) (3, 5, 5.00000000000000000000e-01) (3, 5, 5.00000000000000000000e-01) (3, 5, 5.00000000000000000000e-01) (3, 5, 5.00000000000000000000e-01) (3, 5, 5.00000000000000000000e-01) (3, 5, 5.00000000000000000000e-01) (3, 5, 5.00000000000000000000e-01) (3, 5, 5.00000000000000000000e-01) (3, 5, 5.00000000000000000000e-01) (3, 5, 5.00000000000000000000e-01) (3, 5, 5.00000000000000000000e-01) (3, 5, 5.00000000000000000000e-01) (3, 5, 5.00000000000000000000e-01) (3, 5, 5.00000000000000000000e-01) (3, 5, 5.00000000000000000000e-01) (3, 5, 5.00000000000000000000e-01) (3, 5, 5.00000000000000000000e-01) (3, 5, 5.00000000000000000000e-01) (3, 5, 5.00000000000000000000e-01) (3, 5, 5.00000000000000000000e-01) (3, 5, 5.00000000000000000000e-01) (3, 5, 5.00000000000000000000e-01) (3, 5, 5.00000000000000000000e-01) (3, 5, 5.00000000000000000000e-01) (3, 5, 5.00000000000000000000e-01) (3, 5, 5.00000000000000000000e-01) (3, 5, 5.00000000000000000000e-01) (3, 5, 5.00000000000000000000e-01) (3, 5, 5.00000000000000000000e-01) (3, 5, 5.00000000000000000000e-01) (3, 5, 5.00000000000000000000e-01) (3, 5, 5.00000000000000000000e-01) (3, 5, 5.00000000000000000000e-01) (3, 5, 5.00000000000000000000e-01) (3, 5, 5.00000000000000000000e-01) (3, 5, 5.00000000000000000000e-01) (3, 5, 5.00000000000000000000e-01) (3, 5, 5.00000000000000000000e-01) (3, 5, 5.00000000000000000000e-01) (3, 5, 5.00000000000000000000e-01) (3, 5, 5.00000000000000000000e-01) (3, 5, 5.00000000000000000000e-01) (3, 5, 5.00000000000000000000e-01) (3, 5, 5.00000000000000000000e-01) (3, 5, 5.00000000000000000000e-01) (3, 5, 5.00000000000000000000e-01) (3, 5, 5.00000000000000000000e-01) (3, 5, 5.00000000000000000000e-01) (3, 5, 5.00000000000000000000e-01) (3, 5, 5.00000000000000000000e-01) (3, 5, 5.00000000000000000000e-01) (3, 5, 5.00000000000000000000e-01) (3, 5, 5.00000000000000000000e-01) (3, 5, 5.00000000000000000000e-01) (3, 5, 5.00000000000000000000e-01) (3, 5, 5.00000000000000000000e-01) (3, 5, 5.00000000000000000000e-01) (3, 5, 5.00000000000000000000e-01) (3, 5, 5.00000000000000000000e-01) (3, 5, 5.00000000000000000000e-01) (3, 5, 5.00000000000000000000e-01) (3, 5, 5.00000000000000000000e-01) (3, 5, 5.00000000000000000000e-01) (3, 5, 5.00000000000000000000e-01) (3, 5, 5.00000000000000000000e-01) (3, 5, 5.00000000000000000000e-01) (3, 5, 5.00000000000000000000e-01) (3, 5, 5.00000000000000000000e-01) (3, 5, 5.00000000000000000000e-01) (3, 5, 5.00000000000000000000e-01) (3, 5, 5.00000000000000000000e-01) (3, 5, 5.00000000000000000000e-01) (3, 5, 5.00000000000000000000e-01) (3, 5, 5.00000000000000000000e-01) (3, 5, 5.00000000000000000000e-01) (3, 5, 5.00000000000000000000e-01) (3, 5, 5.00000000000000000000e-01) (3, 5, 5.00000000000000000000e-01) (3, 5, 5.00000000000000000000e-01) (3, 5, 5.00000000000000000000e-01) (3, 5, 5.00000000000000000000e-01) (3, 5, 5.00000000000000000000e-01) (3, 5, 5.00000000000000000000e-01) (3, 5, 5.00000000000000000000e-01) (3, 5, 5.00000000000000000000e-01) (3, 5, 5.00000000000000000000e-01) (3, 5, 5.00000000000000000000e-01) (3, 5, 5.00000000000000000000e-01) (3, 5, 5.00000000000000000000e-01) (3, 5, 5.00000000000000000000e-01) (3, 5, 5.00000000000000000000e-01) (3, 5, 5.00000000000000000000e-01) (3, 5, 5.00000000000000000000e-01) (3, 5, 5.00000000000000000000e-01) (3, 5, 5.00000000000000000000e-01) (3, 5, 5.00000000000000000000e-01) (3, 5, 5.00000000000000000000e-01) (3, 5, 5.00000000000000000000e-01) (3, 5, 5.00000000000000000000e-01) (3, 5, 5.00000000000000000000e-01) (3, 5, 5.00000000000000000000e-01) (3, 5, 5.00000000000000000000e-01) (3, 5, 5.00000000000000000000e-01) (3, 5, 5.00000000000000000000e-01) (3, 5, 5.00000000000000000000e-01) (3, 5, 5.00000000000000000000e-01) (3, 5, 5.00000000000000000000e-01) (3, 5, 5.00000000000000000000e-01) (3, 5, 5.00000000000000000000e-01) (3, 5, 5.00000000000000000000e-01) (3, 5, 5.00000000000000000000e-01) (3, 5, 5.00000000000000000000e-01) (3, 5, 5.00000000000000000000e-01) (3, 5, 5.00000000000000000000e-01) (3, 5, 5.00000000000000000000e-01) (3, 5, 5.00000000000000000000e-01) (3, 5, 5.00000000000000000000e-01) (3, 5, 5.00000000000000000000e-01) (3, 5, 5.00000000000000000000e-01) (3, 5, 5.00000000000000000000e-01) (3, 5, 5.00000000000000000000e-01) (3, 5, 5.00000000000000000000e-01) (3, 5, 5.00000000000000000000e-01) (3, 5, 5.00000000000000000000e-01) (3, 5, 5.00000000000000000000e-01) (3, 5, 5.00000000000000000000e-01) (3, 5, 5.00000000000000000000e-01) (3, 5, 5.00000000000000000000e-01) (3, 5, 5.00000000000000000000e-01) (3, 5, 5.00000000000000000000e-01) (3, 5, 5.00000000000000000000e-01) (3, 5, 5.00000000000000000000e-01) (3, 5, 5.00000000000000000000e-01) (3, 5, 5.00000000000000000000e-01) (3, 5, 5.00000000000000000000e-01) (3, 5, 5.00000000000000000000e-01) (3, 5, 5.00000000000000000000e-01) (3, 5, 5.00000000000000000000e-01) (3, 5, 5.00000000000000000000e-01) (3, 5, 5.00000000000000000000e-01) (3, 5, 5.00000000000000000000e-01) (3, 5, 5.00000000000000000000e-01) (3, 5, 5.00000000000000000000e-01) (3, 5, 5.00000000000000000000e-01) (3, 5, 5.00000000000000000000e-01) (3, 5, 5.00000000000000000000e-01) (3, 5, 5.00000000000000000000e-01) (3, 5, 5.00000000000000000000e-01) (3, 5, 5.00000000000000000000e-01) (3, 5, 5.00000000000000000000e-01) (3, 5, 5.00000000000000000000e-01) (3, 5, 5.00000000000000000000e-01) (3, 5, 5.00000000000000000000e-01) (3, 5, 5.00000000000000000000e-01) (3, 5, 5.00000000000000000000e-01) (3, 5, 5.00000000000000000000e-01) (3, 5, 5.00000000000000000000e-01) (3, 5, 5.00000000000000000000e-01) (3, 5, 5.00000000000000000000e-01) (3, 5, 5.00000000000000000000e-01) (3, 5, 5.00000000000000000000e-01) (3, 5, 5.00000000000000000000e-01) (3, 5, 5.00000000000000000000e-01) (3, 5, 5.00000000000000000000e-01) (3, 5, 5.00000000000000000000e-01) (3, 5, 5.00000000000000000000e-01) (3, 5, 5.00000000000000000000e-01) (3, 5, 5.00000000000000000000e-01) (3, 5, 5.00000000000000000000e-01) (3, 5, 5.00000000000000000000e-01) (3, 5, 5.00000000000000000000e-01) (3, 5, 5.00000000000000000000e-01) (3, 5, 5.00000000000000000000e-01) (3, 5, 5.00000000000000000000e-01) (3, 5, 5.00000000000000000000e-01) (3, 5, 5.00000000000000000000e-01) (3, 5, 5.00000000000000000000e-01) (3, 5, 5.00000000000000000000e-01) (3, 5, 5.00000000000000000000e-01) (3, 5, 5.00000000000000000000e-01) (3, 5, 5.00000000000000000000e-01) (3, 5, 5.00000000000000000000e-01) (3, 5, 5.00000000000000000000e-01) (3, 5, 5.00000000000000000000e-01) (3, 5, 5.00000000000000000000e-01) (3, 5, 5.00000000000000000000e-01) (3, 5, 5.00000000000000000000e-01) (3, 5, 5.00000000000000000000e-01) (3, 5, 5.00000000000000000000e-01) (3, 5, 5.00000000000000000000e-01) (3, 5, 5.00000000000000000000e-01) (3, 5, 5.00000000000000000000e-01) (3, 5, 5.00000000000000000000e-01) (3, 5, 5.00000000000000000000e-01) (3, 5, 5.00000000000000000000e-01) (3, 5, 5.00000000000000000000e-01) (3, 5, 5.00000000000000000000e-01) (3, 5, 5.00000000000000000000e-01) (3, 5, 5.00000000000000000000e-01) (3, 5, 5.00000000000000000000e-01) (3, 5, 5.00000000000000000000e-01) (3, 5, 5.00000000000000000000e-01) (3, 5, 5.00000000000000000000e-01) (3, 5, 5.00000000000000000000e-01) (3, 5, 5.00000000000000000000e-01) (3, 5, 5.00000000000000000000e-01) (3, 5, 5.00000000000000000000e-01) (3, 5, 5.00000000000000000000e-01) (3, 5, 5.00000000000000000000e-01) (3, 5, 5.00000000000000000000e-01) (3, 5, 5.00000000000000000000e-01) (3, 5, 5.00000000000000000000e-01) (3, 5, 5.00000000000000000000e-01) (3, 5, 5.00000000000000000000e-01) (3, 5, 5.00000000000000000000e-01) (3, 5, 5.00000000000000000000e-01) (3, 5, 5.00000000000000000000e-01) (3, 5, 5.00000000000000000000e-01) (3, 5, 5.00000000000000000000e-01) (3, 5, 5.00000000000000000000e-01) (3, 5, 5.00000000000000000000e-01) (3, 5, 5.00000000000000000000e-01) (3, 5, 5.00000000000000000000e-01) (3, 5, 5.00000000000000000000e-01) (3, 5, 5.00000000000000000000e-01) (3, 5, 5.00000000000000000000e-01) (3, 5, 5.00000000000000000000e-01) (3, 5, 5.00000000000000000000e-01) (3, 5, 5.00000000000000000000e-01) (3, 5, 5.00000000000000000000e-01) (3, 5, 5.00000000000000000000e-01) (3, 5, 5.00000000000000000000e-01) (3, 5, 5.00000000000000000000e-01) (3, 5, 5.00000000000000000000e-01) (3, 5, 5.00000000000000000000e-01) (3, 5, 5.00000000000000000000e-01) (3, 5, 5.00000000000000000000e-01) (3, 5, 5.00000000000000000000e-01) (3, 5, 5.00000000000000000000e-01) (3, 5, 5.00000000000000000000e-01) (3, 5, 5.00000000000000000000e-01) (3, 5, 5.00000000000000000000e-01) (3, 5, 5.00000000000000000000e-01) (3, 5, 5.00000000000000000000e-01) (3, 5, 5.00000000000000000000e-01) (3, 5, 5.00000000000000000000e-01) (3, 5, 5.00000000000000000000e-01) (3, 5, 5.00000000000000000000e-01) (3, 5, 5.00000000000000000000e-01) (3, 5, 5.00000000000000000000e-01) (3, 5, 5.00000000000000000000e-01) (3, 5, 5.00000000000000000000e-01) (3, 5, 5.00000000000000000000e-01) (3, 5, 5.00000000000000000000e-01) (3, 5, 5.00000000000000000000e-01) (3, 5, 5.00000000000000000000e-01) (3, 5, 5.00000000000000000000e-01) (3, 5, 5.00000000000000000000e-01) (3, 5, 5.00000000000000000000e-01) (3, 5, 5.00000000000000000000e-01) (3, 5, 5.00000000000000000000e-01) (3, 5, 5.00000000000000000000e-01) (3, 5, 5.00000000000000000000e-01) (3, 5, 5.00000000000000000000e-01) (3, 5, 5.00000000000000000000e-01) (3, 5, 5.00000000000000000000e-01) (3, 5, 5.00000000000000000000e-01) (3, 5, 5.00000000000000000000e-01) (3, 5, 5.00000000000000000000e-01) (3, 5, 5.00000000000000000000e-01) (3, 5, 5.00000000000000000000e-01) (3, 5, 5.00000000000000000000e-01) (3, 5, 5.00000000000000000000e-01) (3, 5, 5.00000000000000000000e-01) (3, 5, 5.00000000000000000000e-01) (3, 5, 5.00000000000000000000e-01) (3, 5, 5.00000000000000000000e-01) (3, 5, 5.00000000000000000000e-01) (3, 5, 5.00000000000000000000e-01) (3, 5, 5.00000000000000000000e-01) (3, 5, 5.00000000000000000000e-01) (3, 5, 5.00000000000000000000e-01) (3, 5, 5.00000000000000000000e-01) (3, 5, 5.00000000000000000000e-01) (3, 5, 5.00000000000000000000e-01) (3, 5, 5.00000000000000000000e-01) (3, 5, 5.00000000000000000000e-01) (3, 5, 5.00000000000000000000e-01) (3, 5, 5.00000000000000000000e-01) (3, 5, 5.00000000000000000000e-01) (3, 5, 5.00000000000000000000e-01) (3, 5, 5.00000000000000000000e-01) (3, 5, 5.00000000000000000000e-01) (3, 5, 5.00000000000000000000e-01) (3, 5, 5.00000000000000000000e-01) (3, 5, 5.00000000000000000000e-01) (3, 5, 5.00000000000000000000e-01) (3, 5, 5.00000000000000000000e-01) (3, 5, 5.00000000000000000000e-01) (3, 5, 5.00000000000000000000e-01) (3, 5, 5.00000000000000000000e-01) (3, 5, 5.00000000000000000000e-01) (3, 5, 5.00000000000000000000e-01) (3, 5, 5.00000000000000000000e-01) (3, 5, 5.00000000000000000000e-01) (3, 5, 5.00000000000000000000e-01) (3, 5, 5.00000000000000000000e-01) (3, 5, 5.00000000000000000000e-01) (3, 5, 5.00000000000000000000e-01) (3, 5, 5.00000000000000000000e-01) (3, 5, 5.00000000000000000000e-01) (3, 5, 5.00000000000000000000e-01) (3, 5, 5.00000000000000000000e-01) (3, 5, 5.00000000000000000000e-01) (3, 5, 5.00000000000000000000e-01) (3, 5, 5.00000000000000000000e-01) (3, 5, 5.00000000000000000000e-01) (3, 5, 5.00000000000000000000e-01) (3, 5, 5.00000000000000000000e-01) (3, 5, 5.00000000000000000000e-01) (3, 5, 5.00000000000000000000e-01) (3, 5, 5.00000000000000000000e-01) (3, 5, 5.00000000000000000000e-01) (3, 5, 5.00000000000000000000e-01) (3, 5, 5.00000000000000000000e-01) (3, 5, 5.00000000000000000000e-01) (3, 5, 5.00000000000000000000e-01) (3, 5, 5.00000000000000000000e-01) (3, 5, 5.00000000000000000000e-01) (3, 5, 5.00000000000000000000e-01) (3, 5, 5.00000000000000000000e-01) (3, 5, 5.00000000000000000000e-01) (3, 5, 5.00000000000000000000e-01) (3, 5, 5.00000000000000000000e-01) (3, 5, 5.00000000000000000000e-01) (3, 5, 5.00000000000000000000e-01) (3, 5, 5.00000000000000000000e-01) (3, 5, 5.00000000000000000000e-01) (3, 5, 5.00000000000000000000e-01) (3, 5, 5.00000000000000000000e-01) (3, 5, 5.00000000000000000000e-01) (3, 5, 5.00000000000000000000e-01) (3, 5, 5.00000000000000000000e-01) (3, 5, 5.00000000000000000000e-01) (3, 5, 5.00000000000000000000e-01) (3, 5, 5.00000000000000000000e-01) (3, 5, 5.00000000000000000000e-01) (3, 5, 5.00000000000000000000e-01) (3, 5, 5.00000000000000000000e-01) (3, 5, 5.00000000000000000000e-01) (3, 5, 5.00000000000000000000e-01) (3, 5, 5.00000000000000000000e-01) (3, 5, 5.00000000000000000000e-01) (3, 5, 5.00000000000000000000e-01) (3, 5, 5.00000000000000000000e-01) (3, 5, 5.00000000000000000000e-01) (3, 5, 5.00000000000000000000e-01) (3, 5, 5.00000000000000000000e-01) (3, 5, 5.00000000000000000000e-01) (3, 5, 5.00000000000000000000e-01) (3, 5, 5.00000000000000000000e-01) (3, 5, 5.00000000000000000000e-01) (3, 5, 5.00000000000000000000e-01) (3, 5, 5.00000000000000000000e-01) (3, 5, 5.00000000000000000000e-01) (3, 5, 5.00000000000000000000e-01) (3, 5, 5.00000000000000000000e-01) (3, 5, 5.00000000000000000000e-01) (3, 5, 5.00000000000000000000e-01) (3, 5, 5.00000000000000000000e-01) (3, 5, 5.00000000000000000000e-01) (3, 5, 5.00000000000000000000e-01) (3, 5, 5.00000000000000000000e-01) (3, 5, 5.00000000000000000000e-01) (3, 5, 5.00000000000000000000e-01) (3, 5, 5.00000000000000000000e-01) (3, 5, 5.00000000000000000000e-01) (3, 5, 5.00000000000000000000e-01) (3, 5, 5.00000000000000000000e-01) (3, 5, 5.00000000000000000000e-01) (3, 5, 5.00000000000000000000e-01) (3, 5, 5.00000000000000000000e-01) (3, 5, 5.00000000000000000000e-01) (3, 5, 5.00000000000000000000e-01) (3, 5, 5.00000000000000000000e-01) (3, 5, 5.00000000000000000000e-01) (3, 5, 5.00000000000000000000e-01) (3, 5, 5.00000000000000000000e-01) (3, 5, 5.00000000000000000000e-01) (3, 5, 5.00000000000000000000e-01) (3, 5, 5.00000000000000000000e-01) (3, 5, 5.00000000000000000000e-01) (3, 5, 5.00000000000000000000e-01) (3, 5, 5.00000000000000000000e-01) (3, 5, 5.00000000000000000000e-01) (3, 5, 5.00000000000000000000e-01) (3, 5, 5.00000000000000000000e-01) (3, 5, 5.00000000000000000000e-01) (3, 5, 5.00000000000000000000e-01) (3, 5, 5.00000000000000000000e-01) (3, 5, 5.00000000000000000000e-01) (3, 5, 5.00000000000000000000e-01) (3, 5, 5.00000000000000000000e-01) (3, 5, 5.00000000000000000000e-01) (3, 5, 5.00000000000000000000e-01) (3, 5, 5.00000000000000000000e-01) (3, 5, 5.00000000000000000000e-01) (3, 5, 5.00000000000000000000e-01) (3, 5, 5.00000000000000000000e-01) (3, 5, 5.00000000000000000000e-01) (3, 5, 5.00000000000000000000e-01) (3, 5, 5.00000000000000000000e-01) (3, 5, 5.00000000000000000000e-01) (3, 5, 5.00000000000000000000e-01) (3, 5, 5.00000000000000000000e-01) (3, 5, 5.00000000000000000000e-01) (3, 5, 5.00000000000000000000e-01) (3, 5, 5.00000000000000000000e-01) (3, 5, 5.00000000000000000000e-01) (3, 5, 5.00000000000000000000e-01) (3, 5, 5.00000000000000000000e-01) (3, 5, 5.00000000000000000000e-01) (3, 5, 5.00000000000000000000e-01) (3, 5, 5.00000000000000000000e-01) (3, 5, 5.00000000000000000000e-01) (3, 5, 5.00000000000000000000e-01) (3, 5, 5.00000000000000000000e-01) (3, 5, 5.00000000000000000000e-01) (3, 5, 5.00000000000000000000e-01) (3, 5, 5.00000000000000000000e-01) (3, 5, 5.00000000000000000000e-01) (3, 5, 5.00000000000000000000e-01) (3, 5, 5.00000000000000000000e-01) (3, 5, 5.00000000000000000000e-01) (3, 5, 5.00000000000000000000e-01) (3, 5, 5.00000000000000000000e-01) (3, 5, 5.00000000000000000000e-01) (3, 5, 5.00000000000000000000e-01) (3, 5, 5.00000000000000000000e-01) (3, 5, 5.00000000000000000000e-01) (3, 5, 5.00000000000000000000e-01) (3, 5, 5.00000000000000000000e-01) (3, 5, 5.00000000000000000000e-01) (3, 5, 5.00000000000000000000e-01) (3, 5, 5.00000000000000000000e-01) (3, 5, 5.00000000000000000000e-01) (3, 5, 5.00000000000000000000e-01) (3, 5, 5.00000000000000000000e-01) (3, 5, 5.00000000000000000000e-01) (3, 5, 5.00000000000000000000e-01) (3, 5, 5.00000000000000000000e-01) (3, 5, 5.00000000000000000000e-01) (3, 5, 5.00000000000000000000e-01) (3, 5, 5.00000000000000000000e-01) (3, 5, 5.00000000000000000000e-01) (3, 5, 5.00000000000000000000e-01) (3, 5, 5.00000000000000000000e-01) (3, 5, 5.00000000000000000000e-01) (3, 5, 5.00000000000000000000e-01) (3, 5, 5.00000000000000000000e-01) (3, 5, 5.00000000000000000000e-01) (3, 5, 5.00000000000000000000e-01) (3, 5, 5.00000000000000000000e-01) (3, 5, 5.00000000000000000000e-01) (3, 5, 5.00000000000000000000e-01) (3, 5, 5.00000000000000000000e-01) (3, 5, 5.00000000000000000000e-01) (3, 5, 5.00000000000000000000e-01) (3, 5, 5.00000000000000000000e-01) (3, 5, 5.00000000000000000000e-01) (3, 5, 5.00000000000000000000e-01) (3, 5, 5.00000000000000000000e-01) (3, 5, 5.00000000000000000000e-01) (3, 5, 5.00000000000000000000e-01) (3, 5, 5.00000000000000000000e-01) (3, 5, 5.00000000000000000000e-01) (3, 5, 5.00000000000000000000e-01) (3, 5, 5.00000000000000000000e-01) (3, 5, 5.00000000000000000000e-01) (3, 5, 5.00000000000000000000e-01) (3, 5, 5.00000000000000000000e-01) (3, 5, 5.00000000000000000000e-01) (3, 5, 5.00000000000000000000e-01) (3, 5, 5.00000000000000000000e-01) (3, 5, 5.00000000000000000000e-01) (3, 5, 5.00000000000000000000e-01) (3, 5, 5.00000000000000000000e-01) (3, 5, 5.00000000000000000000e-01) (3, 5, 5.00000000000000000000e-01) (3, 5, 5.00000000000000000000e-01) (3, 5, 5.00000000000000000000e-01) (3, 5, 5.00000000000000000000e-01) (3, 5, 5.00000000000000000000e-01) (3, 5, 5.00000000000000000000e-01) (3, 5, 5.00000000000000000000e-01) (3, 5, 5.00000000000000000000e-01) (3, 5, 5.00000000000000000000e-01) (3, 5, 5.00000000000000000000e-01) (3, 5, 5.00000000000000000000e-01) (3, 5, 5.00000000000000000000e-01) (0, 5, 0.00000000000000000000e+00) (501, 3, 5.00000000000000000000e-01) (0, 3, 0.00000000000000000000e+00) 
connections (connected_to_neuron, weight)=(0, 4.85985189676284790039e-01) (1, 3.97960871458053588867e-01) (2, 4.48626011610031127930e-01) (0, 4.77635651826858520508e-01) (1, 5.01415073871612548828e-01) (2, 3.31516414880752563477e-01) (0, -1.09021268784999847412e-01) (1, -2.49280650168657302856e-02) (2, -1.01271189749240875244e-01) (0, -2.11384996771812438965e-01) (1, -2.14487865567207336426e-01) (2, -2.13330179452896118164e-01) (0, 3.90904545783996582031e-01) (1, 4.23980832099914550781e-01) (2, 4.87717360258102416992e-01) (0, -1.34801298379898071289e-01) (1, -1.80912747979164123535e-01) (2, -1.95644974708557128906e-01) (0, -1.47744506597518920898e-01) (1, -5.71802332997322082520e-02) (2, -1.53565213084220886230e-01) (0, 5.64797639846801757812e-01) (1, 5.43712437152862548828e-01) (2, 7.23037123680114746094e-01) (0, 5.47556102275848388672e-01) (1, 5.92800796031951904297e-01) (2, 5.88159859180450439453e-01) (0, -1.54303252696990966797e-01) (1, 2.12109535932540893555e-02) (2, -1.13174729049205780029e-01) (0, 4.20534133911132812500e-01) (1, 4.89123106002807617188e-01) (2, 4.14534121751785278320e-01) (0, 3.77153962850570678711e-01) (1, 4.48811113834381103516e-01) (2, 4.02128845453262329102e-01) (0, 4.16664242744445800781e-01) (1, 5.15858292579650878906e-01) (2, 3.55774730443954467773e-01) (0, 4.72219198942184448242e-01) (1, 4.24433290958404541016e-01) (2, 4.45988923311233520508e-01) (0, -2.42133274674415588379e-01) (1, -1.31661385297775268555e-01) (2, -2.82442629337310791016e-01) (0, 3.89531463384628295898e-01) (1, 4.82845544815063476562e-01) (2, 4.75811421871185302734e-01) (0, -3.08229357004165649414e-01) (1, -1.20102249085903167725e-01) (2, -2.33905300498008728027e-01) (0, -1.58853828907012939453e-01) (1, -1.40130400657653808594e-01) (2, -2.41807680577039718628e-02) (0, 6.95482730865478515625e-01) (1, 5.86044728755950927734e-01) (2, 6.30494058132171630859e-01) (0, 5.16258478164672851562e-01) (1, 6.04152202606201171875e-01) (2, 5.74820935726165771484e-01) (0, 3.66695761680603027344e-01) (1, 5.15430092811584472656e-01) (2, 4.72447752952575683594e-01) (0, -1.51995047926902770996e-01) (1, -2.54723191261291503906e-01) (2, -2.31152325868606567383e-01) (0, -2.47137621045112609863e-01) (1, -1.57917529344558715820e-01) (2, -2.36597344279289245605e-01) (0, 6.50980949401855468750e-01) (1, 6.22587323188781738281e-01) (2, 6.25515878200531005859e-01) (0, 4.06567305326461791992e-01) (1, 5.07670342922210693359e-01) (2, 4.78168159723281860352e-01) (0, 4.62138116359710693359e-01) (1, 3.77319306135177612305e-01) (2, 4.44978266954421997070e-01) (0, -1.94183215498924255371e-01) (1, -2.37245395779609680176e-01) (2, -2.01532095670700073242e-01) (0, -2.88985580205917358398e-01) (1, -2.21946343779563903809e-01) (2, -1.63089334964752197266e-01) (0, 6.83276414871215820312e-01) (1, 5.82333505153656005859e-01) (2, 6.63453519344329833984e-01) (0, 4.96622145175933837891e-01) (1, 3.89156311750411987305e-01) (2, 4.29340124130249023438e-01) (0, 5.09244143962860107422e-01) (1, 4.36812311410903930664e-01) (2, 4.23466980457305908203e-01) (0, -1.46305054426193237305e-01) (1, -2.20143139362335205078e-01) (2, -1.54310405254364013672e-01) (0, -2.42491647601127624512e-01) (1, -1.47013902664184570312e-01) (2, -2.02260702848434448242e-01) (0, 6.99630618095397949219e-01) (1, 6.12764239311218261719e-01) (2, 6.60824835300445556641e-01) (0, 5.08001029491424560547e-01) (1, 5.03112554550170898438e-01) (2, 3.21538150310516357422e-01) (0, -1.45966574549674987793e-01) (1, -1.79838970303535461426e-01) (2, -2.52714991569519042969e-01) (0, -1.98259696364402770996e-01) (1, -2.51844465732574462891e-01) (2, -1.81903958320617675781e-01) (0, 5.77711820602416992188e-01) (1, 6.05672836303710937500e-01) (2, 6.07423186302185058594e-01) (0, 5.53726911544799804688e-01) (1, 5.71513056755065917969e-01) (2, 6.73490524291992187500e-01) (0, 4.01247918605804443359e-01) (1, 3.54382038116455078125e-01) (2, 4.78632152080535888672e-01) (0, -1.55430763959884643555e-01) (1, -1.53358101844787597656e-01) (2, -5.77373355627059936523e-02) (0, -1.65945291519165039062e-01) (1, -1.13017298281192779541e-01) (2, -1.52103573083877563477e-01) (0, 4.54836666584014892578e-01) (1, 3.97098302841186523438e-01) (2, 4.47225570678710937500e-01) (0, -1.02333091199398040771e-01) (1, -1.23019404709339141846e-01) (2, -1.10373824834823608398e-01) (0, -5.91681227087974548340e-02) (1, -1.32968768477439880371e-01) (2, -1.26347392797470092773e-01) (0, -1.75749287009239196777e-01) (1, -2.82961368560791015625e-01) (2, -1.80410295724868774414e-01) (0, 5.49040675163269042969e-01) (1, 6.65280342102050781250e-01) (2, 6.32565796375274658203e-01) (0, 7.07457065582275390625e-01) (1, 5.27163863182067871094e-01) (2, 7.21972525119781494141e-01) (0, -1.40822887420654296875e-01) (1, -1.30560696125030517578e-01) (2, 2.73349392227828502655e-03) (0, 4.65570658445358276367e-01) (1, 4.50397014617919921875e-01) (2, 4.85487103462219238281e-01) (0, -4.81741726398468017578e-02) (1, -2.99051068723201751709e-02) (2, -1.38129264116287231445e-01) (0, -1.49084538221359252930e-01) (1, -7.45320096611976623535e-02) (2, -1.41178905963897705078e-01) (0, 5.26235163211822509766e-01) (1, 5.53542852401733398438e-01) (2, 6.54485940933227539062e-01) (0, -1.58243522047996520996e-01) (1, -1.93391397595405578613e-01) (2, -1.87988191843032836914e-01) (0, 5.26607990264892578125e-01) (1, 5.47827541828155517578e-01) (2, 7.62200474739074707031e-01) (0, 5.58301985263824462891e-01) (1, 6.94257140159606933594e-01) (2, 6.42753541469573974609e-01) (0, 5.17510294914245605469e-01) (1, 3.29895764589309692383e-01) (2, 4.71379369497299194336e-01) (0, -1.61599248647689819336e-01) (1, -1.77740827202796936035e-01) (2, 2.77876593172550201416e-02) (0, -5.72874024510383605957e-02) (1, -1.45776882767677307129e-01) (2, -1.24199084937572479248e-01) (0, 3.97377848625183105469e-01) (1, 5.03908693790435791016e-01) (2, 4.55945193767547607422e-01) (0, 3.89766722917556762695e-01) (1, 4.31797653436660766602e-01) (2, 4.13157403469085693359e-01) (0, 6.07951402664184570312e-01) (1, 6.53743505477905273438e-01) (2, 6.37587845325469970703e-01) (0, -2.16017410159111022949e-01) (1, -1.58508509397506713867e-01) (2, -2.78246581554412841797e-01) (0, -1.19595110416412353516e-01) (1, -1.92660883069038391113e-01) (2, -1.63581609725952148438e-01) (0, 6.66998028755187988281e-01) (1, 6.42048001289367675781e-01) (2, 6.24743998050689697266e-01) (0, 4.68600362539291381836e-01) (1, 4.86571997404098510742e-01) (2, 4.77081507444381713867e-01) (0, -1.43386065959930419922e-01) (1, -1.41847595572471618652e-01) (2, -1.43217533826828002930e-01) (0, 4.67802017927169799805e-01) (1, 5.00598132610321044922e-01) (2, 4.88725215196609497070e-01) (0, 6.50812268257141113281e-01) (1, 6.15717768669128417969e-01) (2, 6.50453507900238037109e-01) (0, -1.56176611781120300293e-01) (1, -1.32177531719207763672e-01) (2, -3.23706686496734619141e-01) (0, 6.47377610206604003906e-01) (1, 5.65874934196472167969e-01) (2, 7.43555724620819091797e-01) (0, -1.30237609148025512695e-01) (1, -3.84499840438365936279e-02) (2, -9.34527069330215454102e-02) (0, 5.78009366989135742188e-01) (1, 5.58897435665130615234e-01) (2, 5.77033996582031250000e-01) (0, -4.94514107704162597656e-02) (1, -1.37120053172111511230e-01) (2, -2.65997331589460372925e-02) (0, -2.20041811466217041016e-01) (1, -1.15674503147602081299e-01) (2, -2.83097207546234130859e-01) (0, 6.26657605171203613281e-01) (1, 6.60119771957397460938e-01) (2, 6.40315949916839599609e-01) (0, -2.27882325649261474609e-01) (1, -1.91459298133850097656e-01) (2, -1.50240749120712280273e-01) (0, 4.08131182193756103516e-01) (1, 3.87730866670608520508e-01) (2, 4.66808289289474487305e-01) (0, -8.91631543636322021484e-02) (1, -1.81205004453659057617e-01) (2, -8.78375247120857238770e-02) (0, 4.37643915414810180664e-01) (1, 4.87949311733245849609e-01) (2, 3.44049721956253051758e-01) (0, 4.53042834997177124023e-01) (1, 4.17050689458847045898e-01) (2, 3.93658578395843505859e-01) (0, 5.78427374362945556641e-01) (1, 6.58683538436889648438e-01) (2, 6.54171049594879150391e-01) (0, -5.17012774944305419922e-02) (1, -1.73678457736968994141e-01) (2, -7.40294009447097778320e-02) (0, -1.82982251048088073730e-01) (1, -1.75179958343505859375e-01) (2, -2.11576372385025024414e-01) (0, -1.06642626225948333740e-01) (1, -1.44926831126213073730e-01) (2, -3.50049734115600585938e-02) (0, -1.96747407317161560059e-01) (1, -1.63821399211883544922e-01) (2, -2.73430734872817993164e-01) (0, -1.74091294407844543457e-01) (1, -2.67613768577575683594e-01) (2, -1.54921501874923706055e-01) (0, -1.85227677226066589355e-01) (1, -1.79341197013854980469e-01) (2, -2.87652492523193359375e-01) (0, -6.95776268839836120605e-02) (1, -1.64322599768638610840e-01) (2, -1.04726739227771759033e-01) (0, -5.88980736210942268372e-04) (1, -5.21676205098628997803e-02) (2, -1.39273807406425476074e-01) (0, 5.38475334644317626953e-01) (1, 5.88586270809173583984e-01) (2, 6.77539944648742675781e-01) (0, -5.74235320091247558594e-02) (1, -4.85407672822475433350e-02) (2, -9.90705862641334533691e-02) (0, 6.72589659690856933594e-01) (1, 5.73942005634307861328e-01) (2, 6.83588325977325439453e-01) (0, 5.55386483669281005859e-01) (1, 7.13138699531555175781e-01) (2, 6.18375599384307861328e-01) (0, -1.05875590816140174866e-02) (1, -1.15556225180625915527e-01) (2, -1.20382003486156463623e-01) (0, 4.06339198350906372070e-01) (1, 5.13030648231506347656e-01) (2, 4.75792229175567626953e-01) (0, 6.70410513877868652344e-01) (1, 6.56081080436706542969e-01) (2, 6.41888439655303955078e-01) (0, -1.85021832585334777832e-01) (1, -2.31288731098175048828e-01) (2, -1.84249669313430786133e-01) (0, -1.29430085420608520508e-01) (1, -1.24800577759742736816e-01) (2, -1.66720956563949584961e-01) (0, 3.58657270669937133789e-01) (1, 4.80032026767730712891e-01) (2, 4.06879812479019165039e-01) (0, -2.62722700834274291992e-01) (1, -1.28980755805969238281e-01) (2, -1.57175779342651367188e-01) (0, 4.92743432521820068359e-01) (1, 4.18713063001632690430e-01) (2, 4.07246083021163940430e-01) (0, 5.48771619796752929688e-01) (1, 5.71048378944396972656e-01) (2, 7.90575563907623291016e-01) (0, -2.23699271678924560547e-01) (1, -2.17234849929809570312e-01) (2, -1.69315934181213378906e-01) (0, -7.68703445792198181152e-02) (1, -1.23640768229961395264e-01) (2, -1.20741419494152069092e-01) (0, 6.54271841049194335938e-01) (1, 6.61776065826416015625e-01) (2, 6.45471513271331787109e-01) (0, 4.38569426536560058594e-01) (1, 4.18944984674453735352e-01) (2, 4.64898109436035156250e-01) (0, 6.61070644855499267578e-01) (1, 5.51907598972320556641e-01) (2, 6.62053048610687255859e-01) (0, 6.11959040164947509766e-01) (1, 5.36863565444946289062e-01) (2, 5.89849531650543212891e-01) (0, -2.50091910362243652344e-01) (1, -2.45005875825881958008e-01) (2, -1.52725309133529663086e-01) (0, 5.00737428665161132812e-01) (1, 4.43503379821777343750e-01) (2, 4.59371715784072875977e-01) (0, -1.58553466200828552246e-01) (1, -2.08840280771255493164e-01) (2, -2.72111266851425170898e-01) (0, -2.43313550949096679688e-01) (1, -1.78201019763946533203e-01) (2, -2.17327803373336791992e-01) (0, 5.64035177230834960938e-01) (1, 5.42857885360717773438e-01) (2, 5.76710820198059082031e-01) (0, 5.37789881229400634766e-01) (1, 6.45707488059997558594e-01) (2, 6.90379559993743896484e-01) (0, -1.18411578238010406494e-01) (1, -1.15574881434440612793e-01) (2, -1.38595640659332275391e-01) (0, 4.03413206338882446289e-01) (1, 5.08202254772186279297e-01) (2, 4.08720225095748901367e-01) (0, 3.71039897203445434570e-01) (1, 4.53049987554550170898e-01) (2, 4.49626952409744262695e-01) (0, -2.24693655967712402344e-01) (1, -2.78514057397842407227e-01) (2, -1.62497043609619140625e-01) (0, -5.09327873587608337402e-02) (1, -7.83091783523559570312e-02) (2, -1.15257434546947479248e-01) (0, -2.10666880011558532715e-01) (1, -2.24727362394332885742e-01) (2, -1.73116564750671386719e-01) (0, -9.71881374716758728027e-02) (1, -1.32985934615135192871e-01) (2, -9.16234403848648071289e-02) (0, -1.72168314456939697266e-01) (1, -1.82236433029174804688e-01) (2, -1.42135441303253173828e-01) (0, -1.08417235314846038818e-01) (1, 9.38113837037235498428e-04) (2, -1.29610419273376464844e-01) (0, 5.98377883434295654297e-01) (1, 5.17347753047943115234e-01) (2, 7.18858242034912109375e-01) (0, -2.11885888129472732544e-02) (1, -1.23115845024585723877e-01) (2, -1.33891791105270385742e-01) (0, 6.90543174743652343750e-01) (1, 6.60467267036437988281e-01) (2, 6.27492368221282958984e-01) (0, 4.08860802650451660156e-01) (1, 5.18596708774566650391e-01) (2, 4.33587968349456787109e-01) (0, -2.80003815889358520508e-01) (1, -2.15188518166542053223e-01) (2, -1.66068136692047119141e-01) (0, 5.31037807464599609375e-01) (1, 5.32523691654205322266e-01) (2, 6.38781070709228515625e-01) (0, -2.61827796697616577148e-01) (1, -1.78543269634246826172e-01) (2, -1.77285313606262207031e-01) (0, 5.38594305515289306641e-01) (1, 5.23316621780395507812e-01) (2, 5.72886228561401367188e-01) (0, 4.09490764141082763672e-01) (1, 4.77474331855773925781e-01) (2, 4.30421441793441772461e-01) (0, 6.04732334613800048828e-01) (1, 5.40088295936584472656e-01) (2, 6.80129170417785644531e-01) (0, 4.33674633502960205078e-01) (1, 4.26440507173538208008e-01) (2, 4.16280448436737060547e-01) (0, -2.49796926975250244141e-01) (1, -2.49110966920852661133e-01) (2, -1.61359697580337524414e-01) (0, -8.07488784193992614746e-02) (1, -1.47887274622917175293e-01) (2, -3.48803251981735229492e-02) (0, 4.23097074031829833984e-01) (1, 4.45085734128952026367e-01) (2, 4.16510641574859619141e-01) (0, -1.29333764314651489258e-01) (1, -1.26122850924730300903e-02) (2, -1.42807304859161376953e-01) (0, -1.56297534704208374023e-01) (1, 6.17162184789776802063e-03) (2, -1.22895605862140655518e-01) (0, -2.25832343101501464844e-01) (1, -2.64870315790176391602e-01) (2, -1.73750489950180053711e-01) (0, 3.76113355159759521484e-01) (1, 3.92739266157150268555e-01) (2, 4.72926914691925048828e-01) (0, -2.53330230712890625000e-01) (1, -1.46985530853271484375e-01) (2, -2.07275182008743286133e-01) (0, -1.68799504637718200684e-01) (1, -1.27079397439956665039e-01) (2, -1.17463548667728900909e-03) (0, 4.43140476942062377930e-01) (1, 4.88521397113800048828e-01) (2, 3.58902692794799804688e-01) (0, 5.60422122478485107422e-01) (1, 5.55870234966278076172e-01) (2, 6.84690237045288085938e-01) (0, 3.39894175529479980469e-01) (1, 4.56221699714660644531e-01) (2, 4.53723847866058349609e-01) (0, -3.21734845638275146484e-02) (1, -1.41780868172645568848e-01) (2, -7.65886083245277404785e-02) (0, 5.79351902008056640625e-01) (1, 6.03067815303802490234e-01) (2, 6.08401060104370117188e-01) (0, 5.93369960784912109375e-01) (1, 6.22835278511047363281e-01) (2, 6.48604691028594970703e-01) (0, 6.23333394527435302734e-01) (1, 5.16802251338958740234e-01) (2, 6.38244807720184326172e-01) (0, -9.96323749423027038574e-02) (1, -1.20770044624805450439e-01) (2, -9.34456568211317062378e-03) (0, 3.70036602020263671875e-01) (1, 4.51232433319091796875e-01) (2, 4.07734662294387817383e-01) (0, 5.02960264682769775391e-01) (1, 4.56281542778015136719e-01) (2, 4.53963220119476318359e-01) (0, -1.82609364390373229980e-01) (1, -2.45664983987808227539e-01) (2, -2.09926575422286987305e-01) (0, 3.19148570299148559570e-01) (1, 4.27892625331878662109e-01) (2, 4.66053307056427001953e-01) (0, 4.41637009382247924805e-01) (1, 4.48999136686325073242e-01) (2, 4.00974363088607788086e-01) (0, 3.98089468479156494141e-01) (1, 3.92891526222229003906e-01) (2, 4.41044837236404418945e-01) (0, -1.56864840537309646606e-02) (1, -5.38301542401313781738e-02) (2, -1.27446696162223815918e-01) (0, -1.69486477971076965332e-01) (1, -1.65861040353775024414e-01) (2, -1.96817740797996520996e-02) (0, 3.55470895767211914062e-01) (1, 4.45092320442199707031e-01) (2, 4.37331616878509521484e-01) (0, 6.25820100307464599609e-01) (1, 5.14514625072479248047e-01) (2, 5.63343644142150878906e-01) (0, -1.15017987787723541260e-01) (1, -1.29537269473075866699e-01) (2, -2.57525276392698287964e-02) (0, 6.88947200775146484375e-01) (1, 5.52498340606689453125e-01) (2, 6.85930788516998291016e-01) (0, -1.84572249650955200195e-01) (1, -1.34165376424789428711e-01) (2, -2.08443373441696166992e-01) (0, -1.13419882953166961670e-01) (1, -1.57107599079608917236e-03) (2, -1.19572810828685760498e-01) (0, -2.90752559900283813477e-01) (1, -2.09275081753730773926e-01) (2, -1.73312902450561523438e-01) (0, 4.53078448772430419922e-01) (1, 5.02137005329132080078e-01) (2, 3.30228477716445922852e-01) (0, 3.96851927042007446289e-01) (1, 4.62513983249664306641e-01) (2, 4.71056193113327026367e-01) (0, -2.08560913801193237305e-01) (1, -1.62175387144088745117e-01) (2, -1.52607440948486328125e-01) (0, 3.64571392536163330078e-01) (1, 5.06618499755859375000e-01) (2, 4.07559990882873535156e-01) (0, -1.35494992136955261230e-01) (1, -2.09173768758773803711e-01) (2, -2.28590697050094604492e-01) (0, -1.30214482545852661133e-01) (1, -1.48125961422920227051e-01) (2, -1.76276624202728271484e-01) (0, -1.99140876531600952148e-01) (1, -1.78527116775512695312e-01) (2, -1.40044391155242919922e-01) (0, 5.05120813846588134766e-01) (1, 3.83992582559585571289e-01) (2, 4.66868042945861816406e-01) (0, 4.35779005289077758789e-01) (1, 4.48854833841323852539e-01) (2, 4.43870872259140014648e-01) (0, -1.67094692587852478027e-01) (1, -1.50985240936279296875e-01) (2, -2.86548674106597900391e-01) (0, -5.51900714635848999023e-02) (1, -8.77392590045928955078e-02) (2, -1.23434543609619140625e-01) (0, -1.58942252397537231445e-01) (1, -1.36950165033340454102e-01) (2, -1.64500087499618530273e-01) (0, 4.50830519199371337891e-01) (1, 4.02957171201705932617e-01) (2, 4.19667541980743408203e-01) (0, -2.02799186110496520996e-01) (1, -1.80846989154815673828e-01) (2, -2.31393069028854370117e-01) (0, 5.45888662338256835938e-01) (1, 6.32070422172546386719e-01) (2, 5.68794488906860351562e-01) (0, 4.58129703998565673828e-01) (1, 4.22714412212371826172e-01) (2, 4.58527982234954833984e-01) (0, -7.30560049414634704590e-02) (1, -1.59321740269660949707e-01) (2, -5.88641315698623657227e-02) (0, 6.18290007114410400391e-01) (1, 5.25965988636016845703e-01) (2, 7.80530154705047607422e-01) (0, -2.45247349143028259277e-01) (1, -1.82435989379882812500e-01) (2, -2.48680621385574340820e-01) (0, 5.45016646385192871094e-01) (1, 5.98881661891937255859e-01) (2, 6.11608386039733886719e-01) (0, -9.47124809026718139648e-02) (1, -1.78359985351562500000e-01) (2, -1.33067807182669639587e-02) (0, -2.07434758543968200684e-01) (1, -1.47377848625183105469e-01) (2, -2.22567945718765258789e-01) (0, -2.32830494642257690430e-01) (1, -2.14495018124580383301e-01) (2, -1.40071392059326171875e-01) (0, 5.23998498916625976562e-01) (1, 5.27463912963867187500e-01) (2, 6.90355062484741210938e-01) (0, 6.35676205158233642578e-01) (1, 5.60786604881286621094e-01) (2, 6.06159448623657226562e-01) (0, -1.91991716623306274414e-01) (1, -1.25264734029769897461e-01) (2, -1.91516667604446411133e-01) (0, 4.10518109798431396484e-01) (1, 4.08172994852066040039e-01) (2, 4.67388689517974853516e-01) (0, 5.09574830532073974609e-01) (1, 5.09709179401397705078e-01) (2, 4.58009719848632812500e-01) (0, 4.71350371837615966797e-01) (1, 3.87174487113952636719e-01) (2, 4.04619902372360229492e-01) (0, 3.61774832010269165039e-01) (1, 4.16810899972915649414e-01) (2, 4.87235456705093383789e-01) (0, 4.12273496389389038086e-01) (1, 4.98164176940917968750e-01) (2, 4.85461473464965820312e-01) (0, -2.85427361726760864258e-01) (1, -2.18359470367431640625e-01) (2, -1.83059573173522949219e-01) (0, 4.71237182617187500000e-01) (1, 5.00040650367736816406e-01) (2, 3.43523204326629638672e-01) (0, -1.65717840194702148438e-01) (1, -1.17266707122325897217e-01) (2, -2.72736459970474243164e-01) (0, -2.41703256964683532715e-01) (1, -1.97810351848602294922e-01) (2, -2.28214770555496215820e-01) (0, -5.16325086355209350586e-02) (1, -1.43645778298377990723e-01) (2, -6.12339451909065246582e-02) (0, -2.50159382820129394531e-01) (1, -1.79191291332244873047e-01) (2, -1.55799835920333862305e-01) (0, -2.80042082071304321289e-01) (1, -1.88658833503723144531e-01) (2, -1.66017681360244750977e-01) (0, 5.34209430217742919922e-01) (1, 5.87323009967803955078e-01) (2, 6.02002382278442382812e-01) (0, -1.92874953150749206543e-01) (1, -1.91428899765014648438e-01) (2, -2.03793615102767944336e-01) (0, 6.35488331317901611328e-01) (1, 5.28038144111633300781e-01) (2, 6.74376130104064941406e-01) (0, -6.33423253893852233887e-02) (1, -1.33326157927513122559e-01) (2, -1.53043165802955627441e-01) (0, -1.07297532260417938232e-01) (1, -1.80036634206771850586e-01) (2, 2.79122926294803619385e-02) (0, -1.97755008935928344727e-01) (1, -1.55830085277557373047e-01) (2, -1.61664962768554687500e-01) (0, 1.05887288227677345276e-02) (1, -1.47238388657569885254e-01) (2, -6.84263408184051513672e-02) (0, -2.24634885787963867188e-01) (1, -1.50921016931533813477e-01) (2, -2.11302548646926879883e-01) (0, 1.70705504715442657471e-02) (1, -1.50784060359001159668e-01) (2, -9.94448214769363403320e-02) (0, 4.94388461112976074219e-01) (1, 3.92289876937866210938e-01) (2, 4.71892416477203369141e-01) (0, 6.66963815689086914062e-01) (1, 6.11427187919616699219e-01) (2, 6.72257363796234130859e-01) (0, 5.07278621196746826172e-01) (1, 3.43549430370330810547e-01) (2, 4.70407187938690185547e-01) (0, 4.43678677082061767578e-01) (1, 4.63657557964324951172e-01) (2, 4.76914077997207641602e-01) (0, -1.39251768589019775391e-01) (1, -1.22116625308990478516e-01) (2, -1.23392395675182342529e-01) (0, 5.56815683841705322266e-01) (1, 6.41491055488586425781e-01) (2, 6.52907669544219970703e-01) (0, -1.50731146335601806641e-01) (1, -1.33062809705734252930e-01) (2, 3.25587727129459381104e-02) (0, -1.73291757702827453613e-01) (1, -1.46408289670944213867e-01) (2, -1.32827490568161010742e-01) (0, -2.29809448122978210449e-01) (1, -1.80258274078369140625e-01) (2, -1.56060248613357543945e-01) (0, -1.55893623828887939453e-01) (1, -5.57286739349365234375e-02) (2, -1.42713963985443115234e-01) (0, 5.96185505390167236328e-01) (1, 6.15552306175231933594e-01) (2, 7.04976975917816162109e-01) (0, -2.63544946908950805664e-01) (1, -2.61154741048812866211e-01) (2, -1.56626254320144653320e-01) (0, 6.29453122615814208984e-01) (1, 5.54407954216003417969e-01) (2, 5.69145083427429199219e-01) (0, 4.04316365718841552734e-01) (1, 4.84081387519836425781e-01) (2, 4.42682683467864990234e-01) (0, 5.88712871074676513672e-01) (1, 7.15860009193420410156e-01) (2, 6.24793112277984619141e-01) (0, 6.20929896831512451172e-01) (1, 5.56455492973327636719e-01) (2, 7.50018179416656494141e-01) (0, 4.57905083894729614258e-01) (1, 3.84607523679733276367e-01) (2, 4.75140094757080078125e-01) (0, 6.45562589168548583984e-01) (1, 5.84562599658966064453e-01) (2, 6.27693355083465576172e-01) (0, -1.64700090885162353516e-01) (1, -1.49301230907440185547e-01) (2, -1.99361771345138549805e-01) (0, -1.85794636607170104980e-01) (1, -1.29129827022552490234e-01) (2, -2.76517659425735473633e-01) (0, -1.71683236956596374512e-01) (1, -2.48469024896621704102e-01) (2, -1.77230238914489746094e-01) (0, 5.54032981395721435547e-01) (1, 6.34488224983215332031e-01) (2, 5.72889685630798339844e-01) (0, -1.55774176120758056641e-01) (1, -1.47118151187896728516e-01) (2, -1.07996404170989990234e-01) (0, -1.48830920457839965820e-01) (1, -6.07503131031990051270e-02) (2, -1.45214885473251342773e-01) (0, -1.40129685401916503906e-01) (1, -1.20867334306240081787e-01) (2, -3.27901184558868408203e-01) (0, 8.97814612835645675659e-03) (1, -9.55826193094253540039e-02) (2, -1.06628812849521636963e-01) (0, -5.86635693907737731934e-02) (1, -1.48083880543708801270e-01) (2, -3.99091169238090515137e-02) (0, 4.14310723543167114258e-01) (1, 4.84410464763641357422e-01) (2, 4.77219671010971069336e-01) (0, 4.23252165317535400391e-01) (1, 4.37750667333602905273e-01) (2, 4.43150937557220458984e-01) (0, 5.61267375946044921875e-01) (1, 5.69100499153137207031e-01) (2, 6.88918828964233398438e-01) (0, -2.14543923735618591309e-01) (1, -3.04726243019104003906e-01) (2, -1.52800768613815307617e-01) (0, -1.06556616723537445068e-01) (1, -1.40708491206169128418e-01) (2, -5.23004196584224700928e-02) (0, 5.96417367458343505859e-01) (1, 5.77699780464172363281e-01) (2, 7.53640592098236083984e-01) (0, 6.46463036537170410156e-01) (1, 6.04933857917785644531e-01) (2, 6.71464383602142333984e-01) (0, 6.58073425292968750000e-01) (1, 5.82844555377960205078e-01) (2, 6.60564720630645751953e-01) (0, 4.69789326190948486328e-01) (1, 3.72082948684692382812e-01) (2, 4.33986186981201171875e-01) (0, -3.18944901227951049805e-01) (1, -1.40942692756652832031e-01) (2, -1.68622136116027832031e-01) (0, 4.38100188970565795898e-01) (1, 3.84756147861480712891e-01) (2, 4.30863440036773681641e-01) (0, 4.23313707113265991211e-01) (1, 4.90900665521621704102e-01) (2, 3.47313433885574340820e-01) (0, 5.63499510288238525391e-01) (1, 5.27258932590484619141e-01) (2, 6.65078282356262207031e-01) (0, -1.44216462969779968262e-01) (1, -1.85772910714149475098e-01) (2, -2.32897847890853881836e-01) (0, 4.83305931091308593750e-01) (1, 5.11718332767486572266e-01) (2, 4.39355552196502685547e-01) (0, 5.85012197494506835938e-01) (1, 5.88254570960998535156e-01) (2, 5.70984840393066406250e-01) (0, 5.17026543617248535156e-01) (1, 5.13627111911773681641e-01) (2, 6.59652709960937500000e-01) (0, 3.76524746417999267578e-01) (1, 4.62953150272369384766e-01) (2, 4.61300641298294067383e-01) (0, 6.17702186107635498047e-01) (1, 6.09760284423828125000e-01) (2, 6.33311450481414794922e-01) (0, 3.56144338846206665039e-01) (1, 4.18030321598052978516e-01) (2, 4.81947571039199829102e-01) (0, 5.20932793617248535156e-01) (1, 5.29493987560272216797e-01) (2, 6.11173510551452636719e-01) (0, 6.59707188606262207031e-01) (1, 6.38514280319213867188e-01) (2, 6.36231482028961181641e-01) (0, 5.10263562202453613281e-01) (1, 4.92578089237213134766e-01) (2, 3.25224936008453369141e-01) (0, 4.13137137889862060547e-01) (1, 4.72757011651992797852e-01) (2, 4.47507143020629882812e-01) (0, 3.19343656301498413086e-01) (1, 4.37023162841796875000e-01) (2, 4.44563776254653930664e-01) (0, 4.66693073511123657227e-01) (1, 5.04977703094482421875e-01) (2, 3.11286956071853637695e-01) (0, 4.75476115942001342773e-01) (1, 5.08373975753784179688e-01) (2, 3.12302201986312866211e-01) (0, 5.71199595928192138672e-01) (1, 5.64130246639251708984e-01) (2, 7.79608309268951416016e-01) (0, 5.36444783210754394531e-01) (1, 6.65612101554870605469e-01) (2, 6.73102676868438720703e-01) (0, -2.87520289421081542969e-01) (1, -1.22424870729446411133e-01) (2, -1.86931967735290527344e-01) (0, -3.02844136953353881836e-01) (1, -1.13745920360088348389e-01) (2, -1.70049756765365600586e-01) (0, 3.86255592107772827148e-01) (1, 4.59793329238891601562e-01) (2, 3.88574242591857910156e-01) (0, 6.04315936565399169922e-01) (1, 6.47071838378906250000e-01) (2, 6.82456552982330322266e-01) (0, -5.59673905372619628906e-02) (1, -1.55856117606163024902e-01) (2, -1.40572339296340942383e-01) (0, 5.91819703578948974609e-01) (1, 5.43657302856445312500e-01) (2, 6.94177269935607910156e-01) (0, -2.99288600683212280273e-01) (1, -1.33830636739730834961e-01) (2, -2.22614437341690063477e-01) (0, 3.60120266675949096680e-01) (1, 4.54965770244598388672e-01) (2, 4.03048366308212280273e-01) (0, -2.59711712598800659180e-01) (1, -1.21323220431804656982e-01) (2, -1.85463249683380126953e-01) (0, -1.51647746562957763672e-01) (1, -1.70920178294181823730e-01) (2, -5.38389459252357482910e-02) (0, -9.62058231234550476074e-02) (1, -1.39538243412971496582e-01) (2, -6.62961825728416442871e-02) (0, 5.48252642154693603516e-01) (1, 5.74261248111724853516e-01) (2, 6.48953616619110107422e-01) (0, -1.74978002905845642090e-01) (1, -4.86166812479496002197e-02) (2, -1.31580978631973266602e-01) (0, -8.36760178208351135254e-02) (1, -1.65014401078224182129e-01) (2, -7.76000786572694778442e-04) (0, 4.76226240396499633789e-01) (1, 4.56019639968872070312e-01) (2, 4.74051475524902343750e-01) (0, -2.62629124335944652557e-03) (1, -1.69316545128822326660e-01) (2, -1.48585334420204162598e-01) (0, -2.16764032840728759766e-01) (1, -2.74541884660720825195e-01) (2, -1.53531223535537719727e-01) (0, -1.54160082340240478516e-01) (1, -1.00974775850772857666e-01) (2, -3.75878885388374328613e-02) (0, 4.45629537105560302734e-01) (1, 4.60528552532196044922e-01) (2, 3.99888843297958374023e-01) (0, 3.99270653724670410156e-01) (1, 4.85785812139511108398e-01) (2, 4.12807047367095947266e-01) (0, -1.37868806719779968262e-01) (1, -2.63711214065551757812e-01) (2, -1.81255638599395751953e-01) (0, 5.91060459613800048828e-01) (1, 5.92643678188323974609e-01) (2, 5.81699967384338378906e-01) (0, -1.60587146878242492676e-01) (1, -2.30590611696243286133e-01) (2, -1.89648956060409545898e-01) (0, 5.05878508090972900391e-01) (1, 4.88938599824905395508e-01) (2, 4.58298504352569580078e-01) (0, 4.60833966732025146484e-01) (1, 4.47501420974731445312e-01) (2, 3.95233869552612304688e-01) (0, -1.97247371077537536621e-01) (1, -2.09487035870552062988e-01) (2, -2.23341852426528930664e-01) (0, -4.16976809501647949219e-02) (1, -1.75956070423126220703e-01) (2, -5.63698122277855873108e-03) (0, -5.61245307326316833496e-02) (1, -1.54051169753074645996e-01) (2, -1.28037005662918090820e-01) (0, -2.83000856637954711914e-01) (1, -1.54485225677490234375e-01) (2, -1.70248121023178100586e-01) (0, -1.75116732716560363770e-01) (1, -2.71251291036605834961e-01) (2, -2.05762952566146850586e-01) (0, -1.13467894494533538818e-01) (1, -1.60736069083213806152e-01) (2, 2.08604540675878524780e-02) (0, -1.55618369579315185547e-01) (1, -8.26186016201972961426e-02) (2, -1.02762021124362945557e-01) (0, 5.56165039539337158203e-01) (1, 5.73813378810882568359e-01) (2, 6.93730354309082031250e-01) (0, 5.07350683212280273438e-01) (1, 3.63467752933502197266e-01) (2, 3.98654341697692871094e-01) (0, -1.62347793579101562500e-01) (1, -1.22697800397872924805e-01) (2, -3.10681879520416259766e-01) (0, 3.76867890357971191406e-01) (1, 4.33502137660980224609e-01) (2, 4.26175355911254882812e-01) (0, -1.47496238350868225098e-01) (1, -2.61486709117889404297e-01) (2, -2.04305142164230346680e-01) (0, -1.92168503999710083008e-01) (1, -1.43456339836120605469e-01) (2, -1.76504999399185180664e-01) (0, -2.14056391268968582153e-02) (1, -1.76160812377929687500e-01) (2, -3.99412401020526885986e-02) (0, 4.41464096307754516602e-01) (1, 4.72677052021026611328e-01) (2, 4.46892648935317993164e-01) (0, -1.19207553565502166748e-01) (1, -1.66500642895698547363e-01) (2, 1.91756356507539749146e-02) (0, 5.46798348426818847656e-01) (1, 5.48409163951873779297e-01) (2, 6.34159028530120849609e-01) (0, 4.06556189060211181641e-01) (1, 3.96202743053436279297e-01) (2, 4.26775842905044555664e-01) (0, -1.55927866697311401367e-01) (1, -1.13431654870510101318e-01) (2, 1.70618575066328048706e-02) (0, 4.39467728137969970703e-01) (1, 3.41295450925827026367e-01) (2, 4.58429187536239624023e-01) (0, -2.61220540851354598999e-02) (1, -1.02097004652023315430e-01) (2, -8.46633762121200561523e-02) (0, 5.95068037509918212891e-01) (1, 5.70703983306884765625e-01) (2, 7.37588703632354736328e-01) (0, 3.31594586372375488281e-01) (1, 5.01611888408660888672e-01) (2, 3.83711218833923339844e-01) (0, 4.94193971157073974609e-01) (1, 4.54054206609725952148e-01) (2, 3.84136497974395751953e-01) (0, 6.10547959804534912109e-01) (1, 5.74752509593963623047e-01) (2, 6.07084929943084716797e-01) (0, 5.65434515476226806641e-01) (1, 6.31610274314880371094e-01) (2, 6.77893698215484619141e-01) (0, 5.42652189731597900391e-01) (1, 6.66154742240905761719e-01) (2, 7.13690936565399169922e-01) (0, -2.25005865097045898438e-01) (1, -2.71471351385116577148e-01) (2, -1.67331188917160034180e-01) (0, -1.49387419223785400391e-01) (1, -1.19939260184764862061e-01) (2, -1.19910240173339843750e-01) (0, -1.75499424338340759277e-01) (1, 1.58042646944522857666e-03) (2, -9.90758016705513000488e-02) (0, 4.79671001434326171875e-01) (1, 4.49182420969009399414e-01) (2, 4.29511576890945434570e-01) (0, 5.51302909851074218750e-01) (1, 5.21557688713073730469e-01) (2, 7.54145026206970214844e-01) (0, 4.72959160804748535156e-01) (1, 3.41677129268646240234e-01) (2, 4.69524383544921875000e-01) (0, -2.80729085206985473633e-01) (1, -1.11128441989421844482e-01) (2, -2.31881469488143920898e-01) (0, 4.51529324054718017578e-01) (1, 4.13627594709396362305e-01) (2, 4.62980657815933227539e-01) (0, -1.39575570821762084961e-01) (1, -1.65673926472663879395e-01) (2, -2.58052140474319458008e-01) (0, -1.37366473674774169922e-01) (1, -1.09767615795135498047e-02) (2, -1.25883251428604125977e-01) (0, 6.52165889739990234375e-01) (1, 5.81036448478698730469e-01) (2, 6.87099158763885498047e-01) (0, 4.24450486898422241211e-01) (1, 4.11908566951751708984e-01) (2, 4.25344944000244140625e-01) (0, -1.78760692477226257324e-01) (1, -2.16041639447212219238e-01) (2, -2.30876475572586059570e-01) (0, -1.74896344542503356934e-01) (1, -1.24836333096027374268e-01) (2, -1.18499763309955596924e-01) (0, -3.73917818069458007812e-02) (1, -9.30326730012893676758e-02) (2, -1.09554164111614227295e-01) (0, 6.46837532520294189453e-01) (1, 5.60097098350524902344e-01) (2, 6.87524735927581787109e-01) (0, -7.31954798102378845215e-02) (1, -9.65698063373565673828e-02) (2, -8.81221070885658264160e-02) (0, -1.65971755981445312500e-01) (1, -1.59709185361862182617e-01) (2, 5.04484400153160095215e-03) (0, -1.42237812280654907227e-01) (1, -1.12638898193836212158e-01) (2, -2.34852239489555358887e-01) (0, 5.69109916687011718750e-01) (1, 5.48639118671417236328e-01) (2, 6.34051203727722167969e-01) (0, -2.34380871057510375977e-01) (1, -1.39210373163223266602e-01) (2, -2.02484697103500366211e-01) (0, -1.88284683972597122192e-02) (1, -1.04592382907867431641e-01) (2, -1.29954263567924499512e-01) (0, -9.07548964023590087891e-02) (1, -1.61173269152641296387e-01) (2, -3.67450602352619171143e-02) (0, 5.11489331722259521484e-01) (1, 3.40930938720703125000e-01) (2, 4.71089333295822143555e-01) (0, -1.44200116395950317383e-01) (1, -1.80532243102788925171e-02) (2, -9.41887348890304565430e-02) (0, 5.96573114395141601562e-01) (1, 6.07404112815856933594e-01) (2, 7.24128186702728271484e-01) (0, 4.68041449785232543945e-01) (1, 5.13935327529907226562e-01) (2, 4.83756810426712036133e-01) (0, 5.29959559440612792969e-01) (1, 5.17116665840148925781e-01) (2, 5.72816431522369384766e-01) (0, -1.38463705778121948242e-01) (1, -1.28150925040245056152e-01) (2, -3.31162214279174804688e-01) (0, 5.96082687377929687500e-01) (1, 5.49372017383575439453e-01) (2, 6.06172502040863037109e-01) (0, -2.03877054154872894287e-02) (1, -5.72938546538352966309e-02) (2, -1.43294289708137512207e-01) (0, 6.09734058380126953125e-01) (1, 5.98061740398406982422e-01) (2, 7.09647119045257568359e-01) (0, 4.38313037157058715820e-01) (1, 4.88407164812088012695e-01) (2, 4.04671519994735717773e-01) (0, 3.58394086360931396484e-01) (1, 4.81945991516113281250e-01) (2, 4.31783437728881835938e-01) (0, -3.07916015386581420898e-01) (1, -1.17457412183284759521e-01) (2, -2.44071647524833679199e-01) (0, -2.45277240872383117676e-01) (1, -2.38320246338844299316e-01) (2, -1.52933508157730102539e-01) (0, 5.01318931579589843750e-01) (1, 3.39732974767684936523e-01) (2, 4.77450668811798095703e-01) (0, 4.93068516254425048828e-01) (1, 3.57438623905181884766e-01) (2, 4.81552302837371826172e-01) (0, -1.36443451046943664551e-01) (1, -2.90125370025634765625e-01) (2, -1.74919247627258300781e-01) (0, 7.11115121841430664062e-01) (1, 6.18025898933410644531e-01) (2, 6.18605077266693115234e-01) (0, 5.53869903087615966797e-01) (1, 5.73704004287719726562e-01) (2, 6.87705397605895996094e-01) (0, 5.69813430309295654297e-01) (1, 6.66001677513122558594e-01) (2, 6.24959051609039306641e-01) (0, 4.62312132120132446289e-01) (1, 3.89185339212417602539e-01) (2, 4.71677094697952270508e-01) (0, 3.74977469444274902344e-01) (1, 4.31848168373107910156e-01) (2, 4.32322412729263305664e-01) (0, -1.26498460769653320312e-01) (1, -1.83243170380592346191e-01) (2, -2.11543112993240356445e-01) (0, -2.35604286193847656250e-01) (1, -3.08254748582839965820e-01) (2, -1.39896079897880554199e-01) (0, -1.03320322930812835693e-01) (1, 6.50996807962656021118e-03) (2, -1.36968314647674560547e-01) (0, -1.23140372335910797119e-01) (1, -1.83691885322332382202e-02) (2, -9.86147299408912658691e-02) (0, 5.54641962051391601562e-01) (1, 6.62206411361694335938e-01) (2, 6.93802297115325927734e-01) (0, 3.19338470697402954102e-01) (1, 4.60919916629791259766e-01) (2, 4.75173532962799072266e-01) (0, -1.73728868365287780762e-01) (1, -1.30506162531673908234e-03) (2, -1.21485561132431030273e-01) (0, 4.45787370204925537109e-01) (1, 3.50106686353683471680e-01) (2, 4.82347160577774047852e-01) (0, 4.53086525201797485352e-01) (1, 4.95311200618743896484e-01) (2, 3.47182929515838623047e-01) (0, -2.12634429335594177246e-01) (1, -2.77015984058380126953e-01) (2, -1.73380047082901000977e-01) (0, -1.31469428539276123047e-01) (1, -1.59269079566001892090e-01) (2, -6.62899240851402282715e-02) (0, -1.50022134184837341309e-01) (1, -1.98898211121559143066e-01) (2, -2.46854513883590698242e-01) (0, -1.46675169467926025391e-01) (1, -1.28064870834350585938e-01) (2, -2.61771768331527709961e-01) (0, 1.51564069092273712158e-02) (1, -1.47024169564247131348e-01) (2, -1.20483569800853729248e-01) (0, 3.67381185293197631836e-01) (1, 3.93333524465560913086e-01) (2, 4.80750322341918945312e-01) (0, 4.43523615598678588867e-01) (1, 3.93884330987930297852e-01) (2, 4.20369595289230346680e-01) (0, 6.20914340019226074219e-01) (1, 5.92025935649871826172e-01) (2, 7.18026936054229736328e-01) (0, -3.72476279735565185547e-02) (1, -1.78251773118972778320e-01) (2, -2.68130283802747726440e-02) (0, -1.98285028338432312012e-01) (1, -1.71228855848312377930e-01) (2, -2.35080763697624206543e-01) (0, -1.43108233809471130371e-01) (1, -2.59773373603820800781e-01) (2, -2.04040378332138061523e-01) (0, 4.62742716073989868164e-01) (1, 4.11962866783142089844e-01) (2, 4.49652433395385742188e-01) (0, 5.51551580429077148438e-01) (1, 5.77647268772125244141e-01) (2, 6.29005014896392822266e-01) (0, 6.43801510334014892578e-01) (1, 5.52666664123535156250e-01) (2, 6.10907375812530517578e-01) (0, 5.17168998718261718750e-01) (1, 5.40234625339508056641e-01) (2, 6.45734608173370361328e-01) (0, -2.79726684093475341797e-01) (1, -2.32910946011543273926e-01) (2, -1.83538824319839477539e-01) (0, 5.38186550140380859375e-01) (1, 5.15647232532501220703e-01) (2, 5.91191112995147705078e-01) (0, 4.66978520154953002930e-01) (1, 4.26571100950241088867e-01) (2, 4.02020484209060668945e-01) (0, 5.65618216991424560547e-01) (1, 5.61194777488708496094e-01) (2, 6.70550465583801269531e-01) (0, 4.97358679771423339844e-01) (1, 4.87906873226165771484e-01) (2, 3.39093148708343505859e-01) (0, -2.38744243979454040527e-01) (1, -1.62073910236358642578e-01) (2, -2.43734404444694519043e-01) (0, 3.36446374654769897461e-01) (1, 4.13989067077636718750e-01) (2, 4.85519975423812866211e-01) (0, 4.94092643260955810547e-01) (1, 4.47103977203369140625e-01) (2, 3.45290124416351318359e-01) (0, -1.33116841316223144531e-01) (1, -1.26250401139259338379e-01) (2, -6.71415850520133972168e-02) (0, -8.44121053814888000488e-02) (1, -1.21335566043853759766e-01) (2, -3.95188257098197937012e-02) (0, -1.42853945493698120117e-01) (1, -2.05085366964340209961e-01) (2, -1.44740730524063110352e-01) (0, 4.49791729450225830078e-01) (1, 4.48826730251312255859e-01) (2, 4.89001929759979248047e-01) (0, -1.62437811493873596191e-01) (1, -2.30121821165084838867e-01) (2, -2.35998019576072692871e-01) (0, -2.57690191268920898438e-01) (1, -1.82636022567749023438e-01) (2, -1.91069364547729492188e-01) (0, 4.90786492824554443359e-01) (1, 4.25826609134674072266e-01) (2, 4.08863782882690429688e-01) (0, -3.02254527807235717773e-01) (1, -1.19790576398372650146e-01) (2, -2.74354666471481323242e-01) (0, -6.07699379324913024902e-02) (1, -1.73175513744354248047e-01) (2, 6.13276904914528131485e-04) (0, 4.21492099761962890625e-01) (1, 5.06124198436737060547e-01) (2, 3.77465218305587768555e-01) (0, -1.65350541472434997559e-01) (1, -2.80287355184555053711e-01) (2, -1.98044389486312866211e-01) (0, 5.62733292579650878906e-01) (1, 6.35688781738281250000e-01) (2, 5.63777804374694824219e-01) (0, -1.58358678221702575684e-01) (1, -2.13446050882339477539e-01) (2, -2.34558627009391784668e-01) (0, -1.78818572312593460083e-02) (1, -1.56490281224250793457e-01) (2, -1.23377226293087005615e-01) (0, -1.62860453128814697266e-01) (1, -1.24865129590034484863e-01) (2, -2.27722853422164916992e-01) (0, 5.70540189743041992188e-01) (1, 5.62204301357269287109e-01) (2, 6.00914657115936279297e-01) (0, -1.69743731617927551270e-01) (1, -1.56141847372055053711e-01) (2, -1.13709727302193641663e-02) (0, -5.28869405388832092285e-02) (1, -1.39494135975837707520e-01) (2, -2.11939420551061630249e-02) (0, -1.30110472440719604492e-01) (1, -1.50402054190635681152e-01) (2, -1.94796383380889892578e-01) (0, -1.76809772849082946777e-01) (1, -2.46857538819313049316e-01) (2, -2.09975570440292358398e-01) (0, 5.43082237243652343750e-01) (1, 5.30637741088867187500e-01) (2, 7.19099640846252441406e-01) (0, -4.17748093605041503906e-03) (1, -1.17312975227832794189e-01) (2, -8.17021280527114868164e-02) (0, 4.91411954164505004883e-01) (1, 3.47443550825119018555e-01) (2, 4.68201011419296264648e-01) (0, 3.97049874067306518555e-01) (1, 5.07846534252166748047e-01) (2, 4.88296717405319213867e-01) (0, 4.30498093366622924805e-01) (1, 4.63023781776428222656e-01) (2, 4.73399043083190917969e-01) (0, 5.35093724727630615234e-01) (1, 5.13024330139160156250e-01) (2, 5.93187212944030761719e-01) (0, 5.73806583881378173828e-01) (1, 5.18942475318908691406e-01) (2, 6.15618526935577392578e-01) (0, 5.23227989673614501953e-01) (1, 6.45775556564331054688e-01) (2, 7.13433682918548583984e-01) (0, 6.60076141357421875000e-01) (1, 6.33705496788024902344e-01) (2, 6.71086728572845458984e-01) (0, -8.91178250312805175781e-02) (1, -1.19043134152889251709e-01) (2, -4.22017760574817657471e-02) (0, -1.59988194704055786133e-01) (1, -8.49371030926704406738e-02) (2, -2.41758357733488082886e-02) (0, -1.49204358458518981934e-01) (1, -2.42529869079589843750e-01) (2, -1.41915112733840942383e-01) (0, 5.61549067497253417969e-01) (1, 5.51601350307464599609e-01) (2, 5.87750315666198730469e-01) (0, -1.55840277671813964844e-01) (1, -6.15744367241859436035e-02) (2, -1.44733577966690063477e-01) (0, -1.59549623727798461914e-01) (1, -1.50115311145782470703e-01) (2, -3.01119359210133552551e-03) (0, -1.24270856380462646484e-01) (1, -2.56758630275726318359e-01) (2, -1.85280114412307739258e-01) (0, 3.46841216087341308594e-01) (1, 4.34150993824005126953e-01) (2, 4.57426309585571289062e-01) (0, 5.99746525287628173828e-01) (1, 6.36124253273010253906e-01) (2, 7.07324326038360595703e-01) (0, 2.01827427372336387634e-03) (1, -1.19353637099266052246e-01) (2, -1.50917977094650268555e-01) (0, -1.44554078578948974609e-01) (1, -2.91278623044490814209e-02) (2, -8.69136229157447814941e-02) (0, 4.65175092220306396484e-01) (1, 4.85447198152542114258e-01) (2, 4.55555558204650878906e-01) (0, -9.72801968455314636230e-02) (1, -4.33545298874378204346e-02) (2, -1.27750724554061889648e-01) (0, 3.93922537565231323242e-01) (1, 5.09095966815948486328e-01) (2, 3.65335524082183837891e-01) (0, -2.20655620098114013672e-01) (1, -3.01951080560684204102e-01) (2, -1.54040664434432983398e-01) (0, -6.24506138265132904053e-02) (1, -1.57318517565727233887e-01) (2, -1.43303781747817993164e-01) (0, 5.79684019088745117188e-01) (1, 5.35052895545959472656e-01) (2, 6.27021133899688720703e-01) (0, 5.37474572658538818359e-01) (1, 5.67600786685943603516e-01) (2, 7.39871382713317871094e-01) (0, 4.99356925487518310547e-01) (1, 4.52729195356369018555e-01) (2, 3.89533907175064086914e-01) (0, 3.89021396636962890625e-01) (1, 4.33029621839523315430e-01) (2, 4.57297265529632568359e-01) (0, -2.44001373648643493652e-01) (1, -1.66727364063262939453e-01) (2, -2.29632407426834106445e-01) (0, 6.65526270866394042969e-01) (1, 6.05641245841979980469e-01) (2, 6.92654788494110107422e-01) (0, 6.29075765609741210938e-01) (1, 6.84426903724670410156e-01) (2, 6.31152331829071044922e-01) (0, -3.53517085313796997070e-02) (1, -1.37715622782707214355e-01) (2, -1.55540212988853454590e-01) (0, 5.24998486042022705078e-01) (1, 6.61925196647644042969e-01) (2, 5.71504354476928710938e-01) (0, 1.77761930972337722778e-02) (1, -1.22577168047428131104e-01) (2, -1.24186582863330841064e-01) (0, -1.68701484799385070801e-01) (1, -5.18695637583732604980e-02) (2, -1.00549705326557159424e-01) (0, -2.49997645616531372070e-01) (1, -1.62008464336395263672e-01) (2, -2.31493324041366577148e-01) (0, 5.67288696765899658203e-01) (1, 6.45634174346923828125e-01) (2, 6.58915817737579345703e-01) (0, 6.63600385189056396484e-01) (1, 5.16707897186279296875e-01) (2, 7.70644724369049072266e-01) (0, -6.86597749590873718262e-02) (1, -1.03232651948928833008e-01) (2, -6.06013014912605285645e-02) (0, -1.59186989068984985352e-01) (1, -1.51863634586334228516e-01) (2, 2.87738628685474395752e-02) (0, -2.30306074023246765137e-01) (1, -1.71618193387985229492e-01) (2, -1.85343533754348754883e-01) (0, 4.23313051462173461914e-01) (1, 3.99523854255676269531e-01) (2, 4.95167851448059082031e-01) (0, -2.15528473258018493652e-01) (1, -2.22125813364982604980e-01) (2, -1.95548683404922485352e-01) (0, -6.01127743721008300781e-02) (1, -1.00168690085411071777e-01) (2, -1.53995290398597717285e-01) (0, 4.67736035585403442383e-01) (1, 4.08131211996078491211e-01) (2, 4.26805853843688964844e-01) (0, -1.70000180602073669434e-01) (1, -1.73442568629980087280e-02) (2, -7.93328657746315002441e-02) (0, -6.23899325728416442871e-02) (1, -1.70769199728965759277e-01) (2, -1.49963960051536560059e-01) (0, 6.72368049621582031250e-01) (1, 6.74728393554687500000e-01) (2, 6.24962985515594482422e-01) (0, -6.81490227580070495605e-02) (1, -1.15983702242374420166e-01) (2, -7.09034651517868041992e-02) (0, -1.71923384070396423340e-01) (1, -9.58276465535163879395e-02) (2, -4.41939458250999450684e-02) (0, 5.07692158222198486328e-01) (1, 4.93703603744506835938e-01) (2, 3.42987418174743652344e-01) (0, 4.61450129747390747070e-01) (1, 4.00445371866226196289e-01) (2, 4.27315890789031982422e-01) (0, 4.59346711635589599609e-01) (1, 5.07098495960235595703e-01) (2, 3.15157324075698852539e-01) (0, 6.02391064167022705078e-01) (1, 6.18854403495788574219e-01) (2, 7.17229187488555908203e-01) (0, -2.34394222497940063477e-01) (1, -2.57591813802719116211e-01) (2, -1.50488078594207763672e-01) (0, -1.58745765686035156250e-01) (1, -1.20132073760032653809e-01) (2, -6.98009273037314414978e-03) (0, 4.13852304220199584961e-01) (1, 4.93418008089065551758e-01) (2, 4.52934294939041137695e-01) (0, 4.19621527194976806641e-01) (1, 4.48349863290786743164e-01) (2, 4.16661828756332397461e-01) (0, -2.13201925158500671387e-01) (1, -2.75002509355545043945e-01) (2, -1.53845608234405517578e-01) (0, 7.12335944175720214844e-01) (1, 5.55373728275299072266e-01) (2, 6.85665071010589599609e-01) (0, 6.23752176761627197266e-01) (1, 5.45115351676940917969e-01) (2, 6.04826271533966064453e-01) (0, 4.77553009986877441406e-01) (1, 4.92276042699813842773e-01) (2, 4.14615303277969360352e-01) (0, -2.33621269464492797852e-01) (1, -1.96216464042663574219e-01) (2, -2.29859977960586547852e-01) (0, -2.15735360980033874512e-01) (1, -1.11262105405330657959e-01) (2, -3.27272951602935791016e-01) (0, 5.22233247756958007812e-01) (1, 5.99102199077606201172e-01) (2, 6.26411199569702148438e-01) (0, -1.23411282896995544434e-01) (1, -2.04245597124099731445e-01) (2, -2.16453582048416137695e-01) (0, -1.73565000295639038086e-01) (1, -1.11345566809177398682e-01) (2, -2.44336232542991638184e-01) (0, 6.22839689254760742188e-01) (1, 6.16562008857727050781e-01) (2, 6.39477193355560302734e-01) (0, 5.37047743797302246094e-01) (1, 5.21884858608245849609e-01) (2, 6.18985235691070556641e-01) (0, 5.22306561470031738281e-01) (1, 5.16784608364105224609e-01) (2, 6.58092856407165527344e-01) (0, -2.44121208786964416504e-01) (1, -1.98262512683868408203e-01) (2, -2.14364141225814819336e-01) (0, 6.38118505477905273438e-01) (1, 5.86484134197235107422e-01) (2, 7.14751899242401123047e-01) (0, -1.32773637771606445312e-01) (1, -1.97982769459486007690e-02) (2, -1.45982533693313598633e-01) (0, -2.35300883650779724121e-02) (1, -1.16632618010044097900e-01) (2, -1.47276997566223144531e-01) (0, -1.57810583710670471191e-01) (1, -2.36822739243507385254e-01) (2, -2.43065699934959411621e-01) (0, -2.93602675199508666992e-01) (1, -2.44105562567710876465e-01) (2, -1.39256164431571960449e-01) (0, -1.70950397849082946777e-01) (1, -2.97719299793243408203e-01) (2, -1.40634059906005859375e-01) (0, 5.63433051109313964844e-01) (1, 6.32006525993347167969e-01) (2, 7.16426074504852294922e-01) (0, -2.54366278648376464844e-01) (1, -1.69432878494262695312e-01) (2, -2.31065064668655395508e-01) (0, 4.42545205354690551758e-01) (1, 4.71887707710266113281e-01) (2, 4.04218256473541259766e-01) (0, 5.32742440700531005859e-01) (1, 5.41256666183471679688e-01) (2, 5.86118638515472412109e-01) (3, 4.55909848213195800781e-01) (4, 4.64368164539337158203e-01) (5, -6.62438273429870605469e-02) (6, 5.61209082603454589844e-01) (7, 5.03302097320556640625e-01) (8, 5.71798741817474365234e-01) (9, -1.07214987277984619141e-01) (10, -1.91436454653739929199e-01) (11, -2.11027875542640686035e-01) (12, -9.79546234011650085449e-02) (13, 4.21404331922531127930e-01) (14, 5.01245200634002685547e-01) (15, 4.73791807889938354492e-01) (16, 4.48781371116638183594e-01) (17, 5.75806617736816406250e-01) (18, 4.69279944896697998047e-01) (19, 6.08217120170593261719e-01) (20, -1.07615232467651367188e-01) (21, -1.70887663960456848145e-01) (22, -1.92631259560585021973e-01) (23, 4.93183255195617675781e-01) (24, 5.74723780155181884766e-01) (25, 5.22028028964996337891e-01) (26, -2.06121042370796203613e-01) (27, 4.74555820226669311523e-01) (28, 4.38418418169021606445e-01) (29, 5.88499546051025390625e-01) (30, 5.89792847633361816406e-01) (31, -1.80931732058525085449e-01) (32, 4.12949502468109130859e-01) (33, 4.11885470151901245117e-01) (34, 6.07160747051239013672e-01) (35, 5.69283068180084228516e-01) (36, -1.35019198060035705566e-01) (37, 4.50816810131072998047e-01) (38, 5.63226401805877685547e-01) (39, 5.60754954814910888672e-01) (40, -1.40218362212181091309e-01) (41, -1.48423209786415100098e-01) (42, 4.69242542982101440430e-01) (43, -1.21524281799793243408e-01) (44, 6.16578221321105957031e-01) (45, 4.65222179889678955078e-01) (46, -1.57590910792350769043e-01) (47, -1.32202640175819396973e-01) (48, 5.23470997810363769531e-01) (49, -1.58955916762351989746e-01) (50, -2.03761965036392211914e-01) (51, -9.78500768542289733887e-02) (52, 4.36751246452331542969e-01) (53, -1.00221678614616394043e-01) (54, -1.04120500385761260986e-01) (55, -1.47251978516578674316e-01) (56, 5.82473039627075195312e-01) (57, -1.57035067677497863770e-01) (58, -1.82176366448402404785e-01) (59, 5.02004921436309814453e-01) (60, -1.53749972581863403320e-01) (61, -1.46125540137290954590e-01) (62, 4.51429963111877441406e-01) (63, 4.63836014270782470703e-01) (64, -2.06085756421089172363e-01) (65, 5.53216218948364257812e-01) (66, 5.18425643444061279297e-01) (67, -2.11947277188301086426e-01) (68, 4.79459732770919799805e-01) (69, 5.61438918113708496094e-01) (70, 4.73739713430404663086e-01) (71, -1.71439632773399353027e-01) (72, 5.60033142566680908203e-01) (73, -2.07261040806770324707e-01) (74, -1.57298758625984191895e-01) (75, -1.97938039898872375488e-01) (76, -8.99942219257354736328e-02) (77, 5.46274960041046142578e-01) (78, -1.60946890711784362793e-01) (79, 6.06249868869781494141e-01) (80, 4.99453514814376831055e-01) (81, -8.10469463467597961426e-02) (82, 4.82911258935928344727e-01) (83, 4.26724493503570556641e-01) (84, -1.75382658839225769043e-01) (85, -1.48677572607994079590e-01) (86, 6.15636706352233886719e-01) (87, -1.57016351819038391113e-01) (88, 5.23174524307250976562e-01) (89, 5.56234896183013916016e-01) (90, 5.27694404125213623047e-01) (91, -1.16957448422908782959e-01) (92, -9.59822013974189758301e-02) (93, -1.89561143517494201660e-01) (94, -1.53411656618118286133e-01) (95, -1.42890110611915588379e-01) (96, -1.47924408316612243652e-01) (97, -1.51062607765197753906e-01) (98, 4.14159029722213745117e-01) (99, -1.79145678877830505371e-01) (100, 5.69590091705322265625e-01) (101, 5.84224224090576171875e-01) (102, 4.18411076068878173828e-01) (103, 6.03119850158691406250e-01) (104, 5.05458235740661621094e-01) (105, -2.19599857926368713379e-01) (106, 5.31968712806701660156e-01) (107, -9.16413962841033935547e-02) (108, -1.92286625504493713379e-01) (109, 4.95953887701034545898e-01) (110, -1.60261288285255432129e-01) (111, -2.04714909195899963379e-01) (112, 5.91108083724975585938e-01) (113, 4.47447568178176879883e-01) (114, 5.59498727321624755859e-01) (115, 5.48864662647247314453e-01) (116, -1.67893335223197937012e-01) (117, -1.93123713135719299316e-01) (118, -1.21857747435569763184e-01) (119, 4.76107507944107055664e-01) (120, 4.89244043827056884766e-01) (121, 5.67322671413421630859e-01) (122, -1.41140177845954895020e-01) (123, 5.56665360927581787109e-01) (124, -1.70158475637435913086e-01) (125, 5.37581622600555419922e-01) (126, -1.31438776850700378418e-01) (127, -1.54819920659065246582e-01) (128, -1.27186879515647888184e-01) (129, -1.96452572941780090332e-01) (130, 4.41371679306030273438e-01) (131, 5.99246382713317871094e-01) (132, -1.32317379117012023926e-01) (133, 5.52095890045166015625e-01) (134, -1.56574144959449768066e-01) (135, 5.02297639846801757812e-01) (136, -1.84672579169273376465e-01) (137, 5.02730906009674072266e-01) (138, 5.80472290515899658203e-01) (139, -8.55879187583923339844e-02) (140, 4.88001048564910888672e-01) (141, -1.25003054738044738770e-01) (142, -1.48634687066078186035e-01) (143, 5.67227363586425781250e-01) (144, 4.83110338449478149414e-01) (145, 5.70204913616180419922e-01) (146, -8.96783769130706787109e-02) (147, 4.45575475692749023438e-01) (148, -1.49239912629127502441e-01) (149, 4.40314352512359619141e-01) (150, -7.28860348463058471680e-02) (151, -1.63243964314460754395e-01) (152, -1.45907625555992126465e-01) (153, -2.13164642453193664551e-01) (154, -1.64302170276641845703e-01) (155, 4.95778024196624755859e-01) (156, 4.51750576496124267578e-01) (157, 5.54176926612854003906e-01) (158, 4.75256025791168212891e-01) (159, 4.83777523040771484375e-01) (160, 4.80285644531250000000e-01) (161, -6.63136839866638183594e-02) (162, -1.15739859640598297119e-01) (163, 4.78326708078384399414e-01) (164, -1.99073508381843566895e-01) (165, -1.43155619502067565918e-01) (166, -1.72298803925514221191e-01) (167, 6.00890457630157470703e-01) (168, -1.39799639582633972168e-01) (169, 5.37331104278564453125e-01) (170, 4.84631687402725219727e-01) (171, 5.07669210433959960938e-01) (172, 5.75364708900451660156e-01) (173, 4.93503451347351074219e-01) (174, 5.69395184516906738281e-01) (175, 5.50605654716491699219e-01) (176, 5.46644330024719238281e-01) (177, 4.44685816764831542969e-01) (178, 4.77292865514755249023e-01) (179, 5.46792507171630859375e-01) (180, -9.55765098333358764648e-02) (181, 5.82218825817108154297e-01) (182, 4.98084634542465209961e-01) (183, 5.65776467323303222656e-01) (184, -1.48633226752281188965e-01) (185, 5.05759775638580322266e-01) (186, -1.42390832304954528809e-01) (187, -2.16306105256080627441e-01) (188, 5.52064597606658935547e-01) (189, -1.33798137307167053223e-01) (190, -8.16847160458564758301e-02) (191, 5.21669149398803710938e-01) (192, 6.03130400180816650391e-01) (193, -1.88066110014915466309e-01) (194, -1.59931764006614685059e-01) (195, 5.38396954536437988281e-01) (196, 4.89225268363952636719e-01) (197, 4.37966585159301757812e-01) (198, 4.13392752408981323242e-01) (199, 5.03476679325103759766e-01) (200, 4.60391134023666381836e-01) (201, 5.84807515144348144531e-01) (202, 5.11439919471740722656e-01) (203, 5.35501599311828613281e-01) (204, 5.71611523628234863281e-01) (205, -1.26272514462471008301e-01) (206, 5.54421544075012207031e-01) (207, 5.99367618560791015625e-01) (208, -1.48249998688697814941e-01) (209, 5.25014877319335937500e-01) (210, -2.30639800429344177246e-01) (211, -1.16202160716056823730e-01) (212, -1.75471171736717224121e-01) (213, 6.08230292797088623047e-01) (214, -7.80689641833305358887e-02) (215, 5.67669272422790527344e-01) (216, -7.94616937637329101562e-02) (217, 4.32899683713912963867e-01) (218, -1.61184147000312805176e-01) (219, 4.31087076663970947266e-01) (220, 4.28259253501892089844e-01) (221, -1.08931951224803924561e-01) (222, -2.05970659852027893066e-01) (223, -2.37925723195075988770e-01) (224, -1.60406559705734252930e-01) (225, 6.06118857860565185547e-01) (226, -1.33866325020790100098e-01) (227, -1.43027022480964660645e-01) (228, 5.32203674316406250000e-01) (229, -1.99934437870979309082e-01) (230, 4.97422903776168823242e-01) (231, -1.59748926758766174316e-01) (232, -1.36374548077583312988e-01) (233, 4.92618083953857421875e-01) (234, -1.50750711560249328613e-01) (235, 5.70735633373260498047e-01) (236, 5.55343449115753173828e-01) (237, 5.31627655029296875000e-01) (238, -1.90447822213172912598e-01) (239, -1.63427695631980895996e-01) (240, -1.35165259242057800293e-01) (241, 5.69675326347351074219e-01) (242, -1.04921080172061920166e-01) (243, -7.92671665549278259277e-02) (244, 4.46294575929641723633e-01) (245, 4.57609444856643676758e-01) (246, -1.94303736090660095215e-01) (247, 5.36549150943756103516e-01) (248, -1.05229847133159637451e-01) (249, -2.26330205798149108887e-01) (250, -1.85908362269401550293e-01) (251, -1.43633082509040832520e-01) (252, 4.80003297328948974609e-01) (253, 5.82513034343719482422e-01) (254, 5.03211081027984619141e-01) (255, 4.91949766874313354492e-01) (256, -1.77741214632987976074e-01) (257, 5.37927091121673583984e-01) (258, 4.74921107292175292969e-01) (259, -1.50609657168388366699e-01) (260, -1.89529225230216979980e-01) (261, 4.59261536598205566406e-01) (262, -1.82401672005653381348e-01) (263, 4.56866502761840820312e-01) (264, -1.98640123009681701660e-01) (265, -2.05195501446723937988e-01) (266, 5.13076841831207275391e-01) (267, 4.71239387989044189453e-01) (268, 4.51364248991012573242e-01) (269, 4.50583130121231079102e-01) (270, 4.84146445989608764648e-01) (271, -1.70766845345497131348e-01) (272, -1.50155797600746154785e-01) (273, 5.42287051677703857422e-01) (274, 5.77125847339630126953e-01) (275, 4.26497250795364379883e-01) (276, -1.60031095147132873535e-01) (277, -1.67468458414077758789e-01) (278, -1.99131861329078674316e-01) (279, 5.55961191654205322266e-01) (280, 4.22666698694229125977e-01) (281, 5.99596381187438964844e-01) (282, -1.50577798485755920410e-01) (283, -9.30690094828605651855e-02) (284, -1.82013168931007385254e-01) (285, -1.46786421537399291992e-01) (286, -1.15756995975971221924e-01) (287, 4.16674941778182983398e-01) (288, -1.32504329085350036621e-01) (289, 5.33761143684387207031e-01) (290, -8.98350477218627929688e-02) (291, 4.93107020854949951172e-01) (292, 4.80517566204071044922e-01) (293, 5.44973075389862060547e-01) (294, -2.00546160340309143066e-01) (295, 6.15230023860931396484e-01) (296, 4.63539659976959228516e-01) (297, 4.37325447797775268555e-01) (298, 5.77399313449859619141e-01) (299, -7.91911184787750244141e-02) (300, -1.07008107006549835205e-01) (301, 5.43693006038665771484e-01) (302, 5.73149561882019042969e-01) (303, -1.64648830890655517578e-01) (304, -1.16978287696838378906e-01) (305, -2.21280023455619812012e-01) (306, 4.66484844684600830078e-01) (307, 5.46645283699035644531e-01) (308, 4.27716851234436035156e-01) (309, 6.08138501644134521484e-01) (310, 5.76103150844573974609e-01) (311, -1.44911393523216247559e-01) (312, 4.84651744365692138672e-01) (313, -1.24824039638042449951e-01) (314, -2.22430482506752014160e-01) (315, 4.30595546960830688477e-01) (316, -8.11283811926841735840e-02) (317, 4.74424183368682861328e-01) (318, -1.42084494233131408691e-01) (319, -2.07489356398582458496e-01) (320, 4.95680212974548339844e-01) (321, 4.21131432056427001953e-01) (322, -2.18831136822700500488e-01) (323, -1.76723435521125793457e-01) (324, -1.91011562943458557129e-01) (325, 5.51443278789520263672e-01) (326, -1.16405911743640899658e-01) (327, -7.08625912666320800781e-02) (328, 4.75062817335128784180e-01) (329, -2.25399866700172424316e-01) (330, 4.92826223373413085938e-01) (331, 5.44379889965057373047e-01) (332, 4.48396176099777221680e-01) (333, 5.59431374073028564453e-01) (334, -9.65122207999229431152e-02) (335, -1.40427246689796447754e-01) (336, 4.66410487890243530273e-01) (337, 5.37645757198333740234e-01) (338, -1.59120589494705200195e-01) (339, -8.88508036732673645020e-02) (340, -2.18338325619697570801e-01) (341, -1.01906567811965942383e-01) (342, -7.61923417448997497559e-02) (343, 6.10092937946319580078e-01) (344, -1.83258011937141418457e-01) (345, 5.22599339485168457031e-01) (346, -1.55709832906723022461e-01) (347, -1.32338270545005798340e-01) (348, 4.78135377168655395508e-01) (349, -1.30965396761894226074e-01) (350, -1.59219279885292053223e-01) (351, 4.63134586811065673828e-01) (352, -1.90495595335960388184e-01) (353, 6.06768429279327392578e-01) (354, -2.25470632314682006836e-01) (355, -8.35703909397125244141e-02) (356, -2.11155369877815246582e-01) (357, 4.67156559228897094727e-01) (358, 4.78494077920913696289e-01) (359, 6.01396679878234863281e-01) (360, 5.79079508781433105469e-01) (361, 4.59438562393188476562e-01) (362, 4.16031241416931152344e-01) (363, 5.16794621944427490234e-01) (364, -1.39981195330619812012e-01) (365, -1.67085960507392883301e-01) (366, -1.36137679219245910645e-01) (367, 4.53185468912124633789e-01) (368, 5.00144183635711669922e-01) (369, 5.19579768180847167969e-01) (370, 5.26574134826660156250e-01) (371, -6.15850538015365600586e-02) (372, -9.38877910375595092773e-02) (373, -2.19305530190467834473e-01) (374, 4.93351995944976806641e-01) (375, -1.47987261414527893066e-01) (376, 4.17626976966857910156e-01) (377, 5.01217186450958251953e-01) (378, 5.67221581935882568359e-01) (379, -9.21584814786911010742e-02) (380, 5.34475564956665039062e-01) (381, 5.49957513809204101562e-01) (382, -1.33498385548591613770e-01) (383, 4.58313137292861938477e-01) (384, 4.15600895881652832031e-01) (385, -1.93200066685676574707e-01) (386, -1.40473648905754089355e-01) (387, 5.40609717369079589844e-01) (388, 6.07309043407440185547e-01) (389, 5.08353888988494873047e-01) (390, -2.26252764463424682617e-01) (391, -1.72551617026329040527e-01) (392, -1.82730033993721008301e-01) (393, 5.21961033344268798828e-01) (394, -1.69462844729423522949e-01) (395, 4.46285128593444824219e-01) (396, -1.58830747008323669434e-01) (397, 4.66555237770080566406e-01) (398, 5.95796048641204833984e-01) (399, 4.70085650682449340820e-01) (400, 4.64087486267089843750e-01) (401, -8.34000781178474426270e-02) (402, -1.08072608709335327148e-01) (403, 5.32690465450286865234e-01) (404, 5.10312139987945556641e-01) (405, 5.66662907600402832031e-01) (406, 5.47739803791046142578e-01) (407, 4.25073504447937011719e-01) (408, 5.52998840808868408203e-01) (409, -9.33701992034912109375e-02) (410, 5.06094098091125488281e-01) (411, 5.65613687038421630859e-01) (412, -2.19323948025703430176e-01) (413, 5.45368194580078125000e-01) (414, -1.64206385612487792969e-01) (415, 5.32565236091613769531e-01) (416, -1.66719987988471984863e-01) (417, -1.38331010937690734863e-01) (418, -1.38698577880859375000e-01) (419, 5.72558462619781494141e-01) (420, 5.48591136932373046875e-01) (421, -1.99612006545066833496e-01) (422, -1.57716646790504455566e-01) (423, 4.89623188972473144531e-01) (424, 4.55914825201034545898e-01) (425, 4.80652213096618652344e-01) (426, -2.15812161564826965332e-01) (427, -2.06164076924324035645e-01) (428, -2.07672432065010070801e-01) (429, -1.38904318213462829590e-01) (430, -8.41605439782142639160e-02) (431, -9.94851812720298767090e-02) (432, 5.93735456466674804688e-01) (433, -1.75038352608680725098e-01) (434, -6.65390416979789733887e-02) (435, -9.35183092951774597168e-02) (436, 5.17970561981201171875e-01) (437, 4.35019820928573608398e-01) (438, -1.36308029294013977051e-01) (439, -1.23370267450809478760e-01) (440, -1.57150551676750183105e-01) (441, 4.98940914869308471680e-01) (442, -7.49979391694068908691e-02) (443, 4.30032372474670410156e-01) (444, 5.27245044708251953125e-01) (445, -7.88265317678451538086e-02) (446, -1.98655024170875549316e-01) (447, -1.60613700747489929199e-01) (448, 4.35893416404724121094e-01) (449, 4.75257366895675659180e-01) (450, 5.48535346984863281250e-01) (451, -1.72631546854972839355e-01) (452, -2.26402014493942260742e-01) (453, -1.19290791451930999756e-01) (454, -1.92488566040992736816e-01) (455, -1.11185118556022644043e-01) (456, -1.58098325133323669434e-01) (457, 5.67702114582061767578e-01) (458, -1.59375265240669250488e-01) (459, -2.04118683934211730957e-01) (460, -1.34108111262321472168e-01) (461, -1.86130329966545104980e-01) (462, 5.21147549152374267578e-01) (463, 4.23160463571548461914e-01) (464, 5.28994083404541015625e-01) (465, -6.14680424332618713379e-02) (466, 5.10639369487762451172e-01) (467, -1.53020694851875305176e-01) (468, -1.45907565951347351074e-01) (469, -1.36352464556694030762e-01) (470, -1.20149880647659301758e-01) (471, -1.41572341322898864746e-01) (472, 4.93704706430435180664e-01) (473, 4.47917670011520385742e-01) (474, 4.64794784784317016602e-01) (475, -1.36954888701438903809e-01) (476, 5.38909077644348144531e-01) (477, -9.29198488593101501465e-02) (478, 4.80061501264572143555e-01) (479, 4.61096644401550292969e-01) (480, 5.58538675308227539062e-01) (481, -1.31330832839012145996e-01) (482, -2.23416641354560852051e-01) (483, 4.58269447088241577148e-01) (484, 5.56638538837432861328e-01) (485, 5.67424833774566650391e-01) (486, -1.35981246829032897949e-01) (487, 5.66533207893371582031e-01) (488, 6.16526722908020019531e-01) (489, -1.64998009800910949707e-01) (490, -1.50132790207862854004e-01) (491, -2.07500025629997253418e-01) (492, 5.40645241737365722656e-01) (493, -1.45061805844306945801e-01) (494, -1.12479150295257568359e-01) (495, -1.24539270997047424316e-01) (496, 6.00730776786804199219e-01) (497, 5.60648143291473388672e-01) (498, 5.63192009925842285156e-01) (499, -2.25229829549789428711e-01) (500, 5.57434916496276855469e-01) (501, 4.12023067474365234375e-01) (502, -1.93626716732978820801e-01) (503, 3.19058299064636230469e-01) 
